%YAML:1.0
---
opencv_ml_svm:
   format: 3
   svmType: C_SVC
   kernel:
      type: RBF
      gamma: 5.0624999999999998e-01
   C: 1.2500000000000000e+01
   term_criteria: { epsilon:1.1920928955078125e-07, iterations:1000 }
   var_count: 81
   class_count: 9
   class_labels: !!opencv-matrix
      rows: 9
      cols: 1
      dt: i
      data: [ 0, 1, 2, 3, 4, 5, 6, 7, 8 ]
   sv_total: 924
   support_vectors:
      - [ 6.47034585e-01, 6.47034585e-01, 1.37343660e-01, 9.80412879e-05,
          6.58352813e-03, 4.45332564e-03, 4.12757732e-02, 1.72008350e-02,
          3.67840379e-01, 5.61512589e-01, 2.49527767e-01, 1.70079265e-02,
          1.97243139e-01, 3.99721414e-01, 1.23892657e-01, 2.73535907e-01,
          1.11325830e-01, 5.61512589e-01, 3.82376313e-01, 4.85425591e-02,
          2.52902508e-01, 3.45362186e-01, 3.07249784e-01, 1.24786116e-01,
          3.23513627e-01, 4.73724991e-01, 4.73724991e-01, 3.72157723e-01,
          4.99835819e-01, 4.99835819e-01, 4.99835819e-01, 3.66695412e-02,
          8.62181932e-02, 2.93319464e-01, 1.05634190e-01, 3.20275724e-02,
          3.79823655e-01, 1.40337884e-01, 7.42521137e-02, 3.87068868e-01,
          3.87068868e-01, 3.87068868e-01, 3.87068868e-01, 3.87068868e-01,
          2.78473318e-01, 3.66373450e-01, 3.66373450e-01, 3.66373450e-01,
          3.66373450e-01, 2.14580446e-01, 3.66373450e-01, 3.66373450e-01,
          3.66373450e-01, 1.03384174e-01, 5.98087721e-03, 1.99081413e-02,
          6.21333599e-01, 6.21333599e-01, 4.46494073e-01, 2.06553005e-02,
          1.10308282e-01, 8.81024674e-02, 3.92389596e-02, 4.10787344e-01,
          1.36303648e-01, 9.23214033e-02, 4.10787344e-01, 4.10787344e-01,
          4.10787344e-01, 2.79633939e-01, 2.16490418e-01, 4.10787344e-01,
          5.19290447e-01, 4.28160250e-01, 3.79908122e-02, 9.82702002e-02,
          2.50709683e-01, 5.77719510e-01, 3.49182785e-01, 3.33889835e-02,
          1.02412693e-01 ]
      - [ 5.07340670e-01, 5.07340670e-01, 7.07633793e-02, 7.96219800e-04,
          3.21082711e-01, 3.38595629e-01, 3.95576528e-04, 0.,
          5.07340670e-01, 5.55682659e-01, 2.50279065e-02, 4.18078806e-03,
          1.90928414e-01, 5.55682659e-01, 1.31647080e-01, 0.,
          1.16930440e-01, 5.55682659e-01, 4.74353939e-01, 7.01280776e-04,
          3.68878916e-02, 3.36230904e-01, 1.96284920e-01, 0.,
          8.04579258e-02, 5.52294910e-01, 5.52294910e-01, 3.77895147e-01,
          3.77895147e-01, 2.65433997e-01, 3.22389781e-01, 3.77895147e-01,
          3.77895147e-01, 3.24547976e-01, 4.97912355e-02, 3.77895147e-01,
          4.55626965e-01, 2.57801652e-01, 7.34701082e-02, 4.24884021e-01,
          4.55626965e-01, 3.44987214e-01, 1.09054316e-02, 3.37660350e-02,
          4.55626965e-01, 3.38217348e-01, 3.38217348e-01, 3.27454865e-01,
          3.38217348e-01, 2.97753513e-01, 3.38217348e-01, 3.38217348e-01,
          3.38217348e-01, 3.38217348e-01, 2.52843231e-01, 8.90097991e-02,
          1.25617921e-01, 5.43254495e-01, 5.43254495e-01, 1.17629103e-01,
          7.69985244e-02, 4.24363613e-02, 5.43254495e-01, 5.02644777e-01,
          1.23247638e-01, 5.93543658e-03, 2.53146291e-01, 5.02644777e-01,
          4.83159095e-01, 1.65120978e-03, 1.35344674e-03, 4.20619696e-01,
          3.40436876e-01, 2.98997581e-01, 5.14670312e-02, 2.75748931e-02,
          5.93971908e-01, 5.93971908e-01, 2.79775709e-01, 3.49718221e-02,
          1.61354020e-02 ]
      - [ 5.53306878e-01, 5.53306878e-01, 4.52805683e-02, 2.37253588e-03,
          2.01715842e-01, 5.53306878e-01, 2.51118466e-02, 4.71071154e-03,
          1.80640787e-01, 4.94317830e-01, 9.22189280e-02, 1.41594959e-02,
          2.58643240e-01, 4.94317830e-01, 4.08388257e-01, 1.70314172e-03,
          1.40098333e-01, 4.94317830e-01, 2.68027067e-01, 0.,
          1.31284192e-01, 5.28660357e-01, 2.47781456e-01, 2.54200716e-02,
          7.18283057e-02, 5.28660357e-01, 5.28660357e-01, 3.52713555e-01,
          3.52713555e-01, 3.52713555e-01, 2.98446864e-01, 1.91200301e-01,
          3.52713555e-01, 3.52713555e-01, 3.52713555e-01, 3.52713555e-01,
          3.91220421e-01, 1.79486036e-01, 2.05871299e-01, 3.91220421e-01,
          3.91220421e-01, 3.91220421e-01, 5.63287400e-02, 3.91220421e-01,
          3.91220421e-01, 2.33224958e-01, 3.79173964e-01, 3.79173964e-01,
          3.79173964e-01, 1.35390982e-01, 3.28223020e-01, 3.79173964e-01,
          3.79173964e-01, 3.11275214e-01, 1.10558897e-01, 1.22339517e-01,
          3.62429857e-01, 5.10909438e-01, 5.10909438e-01, 3.15309912e-01,
          1.67104363e-01, 3.23601931e-01, 2.86762387e-01, 1.86099052e-01,
          6.71492219e-02, 5.27798794e-02, 4.73309010e-01, 4.73309010e-01,
          4.73309010e-01, 5.01318052e-02, 2.33978614e-01, 4.73309010e-01,
          2.97742009e-01, 3.69260192e-01, 1.08005404e-01, 1.70604989e-01,
          4.66475695e-01, 4.66475695e-01, 4.66475695e-01, 4.13344875e-02,
          2.73968488e-01 ]
      - [ 4.20914739e-01, 4.20914739e-01, 4.20914739e-01, 1.27018569e-02,
          1.80481195e-01, 4.20914739e-01, 3.43082935e-01, 3.39588165e-01,
          1.46142900e-01, 4.33035672e-01, 4.05618437e-02, 1.61402877e-02,
          4.33035672e-01, 4.33035672e-01, 4.33035672e-01, 1.61413535e-01,
          1.73536286e-01, 4.33035672e-01, 1.22739553e-01, 4.94440459e-03,
          3.59734327e-01, 4.90789145e-01, 3.42372447e-01, 5.16579533e-03,
          1.03597753e-01, 4.90789145e-01, 4.90789145e-01, 4.73248772e-02,
          4.34851468e-01, 4.34851468e-01, 4.02969606e-02, 1.94648370e-01,
          4.34851468e-01, 4.34851468e-01, 4.34851468e-01, 9.17919427e-02,
          3.32381994e-01, 1.06434040e-01, 6.10084236e-02, 2.99803853e-01,
          4.33915704e-01, 4.33915704e-01, 4.33915704e-01, 4.33915704e-01,
          1.64693281e-01, 2.15406820e-01, 4.30092484e-01, 4.30092484e-01,
          4.30092484e-01, 4.55279723e-02, 1.41656637e-01, 4.30092484e-01,
          4.30092484e-01, 4.76076119e-02, 5.71465157e-02, 1.31990597e-01,
          4.28457499e-01, 4.28457499e-01, 4.28457499e-01, 1.12498492e-01,
          2.10944682e-01, 4.28457499e-01, 4.28457499e-01, 4.73360986e-01,
          2.54693300e-01, 2.01433320e-02, 2.61614740e-01, 4.73360986e-01,
          3.75657916e-01, 1.24360537e-02, 2.19248399e-01, 4.73360986e-01,
          4.63613361e-01, 4.63613361e-01, 9.21578705e-02, 4.02431033e-04,
          3.91814262e-01, 4.63613361e-01, 4.32259262e-01, 3.56127135e-02,
          2.07173936e-02 ]
      - [ 6.22529447e-01, 6.22529447e-01, 3.22105587e-01, 4.18734131e-03,
          8.84360820e-02, 1.57915235e-01, 2.15864122e-01, 3.35872285e-02,
          1.85595289e-01, 4.42670822e-01, 1.37872666e-01, 7.77129605e-02,
          4.42670822e-01, 4.42670822e-01, 2.60890871e-01, 2.38173187e-01,
          2.48816565e-01, 4.42670822e-01, 1.05135322e-01, 2.25532381e-03,
          2.02200040e-01, 4.36532408e-01, 1.62147179e-01, 1.12386020e-02,
          2.66484559e-01, 5.71993172e-01, 5.71993172e-01, 8.10693055e-02,
          4.46681947e-01, 4.46681947e-01, 5.93235902e-02, 3.31938624e-01,
          4.46681947e-01, 4.46681947e-01, 2.72324413e-01, 5.48068322e-02,
          3.65213364e-01, 1.57724783e-01, 3.32974613e-01, 3.65213364e-01,
          3.65213364e-01, 3.65213364e-01, 3.65213364e-01, 2.69707561e-01,
          3.47787172e-01, 1.75182730e-01, 4.33388621e-01, 4.33388621e-01,
          4.33388621e-01, 4.59879562e-02, 1.22722000e-01, 4.33388621e-01,
          4.33388621e-01, 9.31543484e-02, 1.57266259e-01, 3.70872587e-01,
          3.72779816e-01, 3.72779816e-01, 3.72779816e-01, 3.72779816e-01,
          3.72779816e-01, 3.72779816e-01, 1.44175747e-02, 4.28929061e-01,
          4.28929061e-01, 2.20439196e-01, 2.79899359e-01, 4.28929061e-01,
          4.04843807e-01, 1.83326662e-01, 9.06909928e-02, 3.33325535e-01,
          4.35297012e-01, 4.35297012e-01, 1.90965533e-01, 2.05604360e-02,
          4.35297012e-01, 4.35297012e-01, 4.35297012e-01, 7.66372755e-02,
          7.39630908e-02 ]
      - [ 6.76238835e-01, 6.76238835e-01, 9.00766179e-02, 0.,
          5.29383235e-02, 1.60279676e-01, 8.70074183e-02, 4.26841620e-03,
          1.85625643e-01, 5.06823242e-01, 2.79145360e-01, 4.23324481e-02,
          1.35848716e-01, 5.06823242e-01, 3.52388889e-01, 4.09409367e-02,
          1.74820051e-02, 5.06823242e-01, 4.81626987e-01, 1.67616215e-02,
          1.79879948e-01, 1.80415779e-01, 2.11328387e-01, 1.46232434e-02,
          4.00094867e-01, 4.96457428e-01, 4.96457428e-01, 3.73204678e-01,
          3.73204678e-01, 3.73204678e-01, 3.73204678e-01, 3.73204678e-01,
          2.13978380e-01, 3.66333723e-01, 2.79143900e-01, 2.04827622e-01,
          3.56919289e-01, 3.56919289e-01, 1.77610397e-01, 3.56919289e-01,
          3.56919289e-01, 3.56919289e-01, 2.70460755e-01, 3.56919289e-01,
          3.56919289e-01, 2.39977390e-01, 4.08152074e-01, 4.08152074e-01,
          2.23635599e-01, 1.88535288e-01, 4.08152074e-01, 4.08152074e-01,
          4.08152074e-01, 1.40835002e-01, 1.68166518e-01, 2.14332223e-01,
          5.43741465e-01, 5.43741465e-01, 5.43741465e-01, 1.21717034e-02,
          4.39936593e-02, 1.02546141e-01, 1.44180730e-01, 3.98293287e-01,
          1.77540690e-01, 1.00851327e-01, 4.19415772e-01, 4.19415772e-01,
          4.19415772e-01, 1.71506077e-01, 2.49856606e-01, 4.19415772e-01,
          3.46867114e-01, 2.59795874e-01, 1.13729320e-01, 2.00622790e-02,
          4.71591532e-01, 4.71591532e-01, 4.71591532e-01, 1.33583128e-01,
          3.30305815e-01 ]
      - [ 4.84167725e-01, 4.84167725e-01, 4.55442250e-01, 1.34688616e-02,
          1.15197264e-01, 4.84167725e-01, 1.68520465e-01, 0.,
          2.06471756e-01, 4.07073587e-01, 2.41221800e-01, 1.98595703e-01,
          2.99045771e-01, 4.07073587e-01, 4.07073587e-01, 6.95272014e-02,
          3.75775307e-01, 4.07073587e-01, 7.64315501e-02, 2.86307782e-02,
          4.05939221e-01, 2.73712724e-01, 2.26910338e-01, 6.10114308e-03,
          4.76498216e-01, 4.84878510e-01, 4.84878510e-01, 1.35481387e-01,
          3.92690510e-01, 3.92690510e-01, 3.92690510e-01, 1.28171265e-01,
          3.92690510e-01, 3.92690510e-01, 3.01166892e-01, 3.15536469e-01,
          3.87412399e-01, 3.87412399e-01, 3.87412399e-01, 1.56192794e-01,
          3.87412399e-01, 3.87412399e-01, 3.34104270e-01, 2.82304943e-01,
          1.73117638e-01, 7.71006867e-02, 4.42293495e-01, 4.42293495e-01,
          9.39750448e-02, 4.31738496e-02, 4.42293495e-01, 4.42293495e-01,
          4.42293495e-01, 2.87137590e-02, 1.79750144e-01, 4.02894706e-01,
          4.02894706e-01, 4.02894706e-01, 4.02894706e-01, 3.19124460e-02,
          6.51444271e-02, 4.02894706e-01, 3.83121759e-01, 3.97639036e-01,
          3.97639036e-01, 6.05722591e-02, 3.97639036e-01, 3.97639036e-01,
          3.97639036e-01, 2.24436000e-01, 2.80025512e-01, 2.70164222e-01,
          2.29754984e-01, 4.24884528e-01, 3.00406646e-02, 0.,
          1.30019620e-01, 6.08427167e-01, 6.08427167e-01, 4.93558832e-02,
          0. ]
      - [ 5.54496825e-01, 5.54496825e-01, 1.02413014e-01, 0.,
          2.00335532e-01, 5.54496825e-01, 8.80894959e-02, 0.,
          1.16962090e-01, 4.77101862e-01, 5.45876920e-02, 1.34767955e-02,
          2.85442859e-01, 4.77101862e-01, 4.77101862e-01, 4.37849853e-03,
          8.46768357e-03, 4.77101862e-01, 3.48522395e-01, 3.96715850e-02,
          3.31767082e-01, 4.44530725e-01, 3.40367913e-01, 4.37887162e-02,
          2.27723330e-01, 4.44530725e-01, 4.44530725e-01, 3.04554492e-01,
          4.06169504e-01, 4.06169504e-01, 1.42998397e-01, 1.34452969e-01,
          4.06169504e-01, 4.06169504e-01, 2.94770807e-01, 3.43334287e-01,
          3.73222440e-01, 3.73222440e-01, 2.29016781e-01, 3.19531411e-01,
          3.73222440e-01, 3.73222440e-01, 7.71513730e-02, 3.73222440e-01,
          3.73222440e-01, 9.93371680e-02, 4.24625933e-01, 4.24625933e-01,
          3.26920301e-01, 1.10522173e-01, 3.79179806e-01, 4.24625933e-01,
          4.24625933e-01, 4.23367172e-02, 4.52213585e-02, 1.19944423e-01,
          4.09094334e-01, 4.09094334e-01, 4.09094334e-01, 4.09094334e-01,
          4.09094334e-01, 3.09389025e-01, 2.16723680e-01, 3.81181985e-01,
          2.93593496e-01, 1.95167303e-01, 3.81181985e-01, 3.81181985e-01,
          3.81181985e-01, 1.03024105e-02, 3.81181985e-01, 3.81181985e-01,
          3.54572117e-01, 5.09487092e-01, 4.66825254e-02, 2.09628213e-02,
          2.71555215e-01, 5.09487092e-01, 5.09487092e-01, 2.89827567e-02,
          1.15143776e-01 ]
      - [ 4.66502398e-01, 4.66502398e-01, 4.93880734e-02, 3.30739170e-02,
          3.61981094e-02, 4.22151126e-02, 3.96511734e-01, 4.22634602e-01,
          4.66502398e-01, 5.68115115e-01, 4.17106450e-01, 2.91646607e-02,
          5.35805300e-02, 2.40341723e-01, 2.80630350e-01, 9.84166637e-02,
          1.57844186e-01, 5.68115115e-01, 5.36239028e-01, 1.68502033e-02,
          1.54600322e-01, 8.24083760e-02, 1.87848940e-01, 1.14628479e-01,
          1.00552775e-01, 5.55601180e-01, 5.55601180e-01, 3.30876559e-01,
          3.47510666e-01, 3.47510666e-01, 3.47510666e-01, 2.90869027e-01,
          2.82875538e-01, 3.47510666e-01, 3.47510666e-01, 3.44393611e-01,
          4.21029061e-01, 4.21029061e-01, 1.24124631e-01, 2.85108954e-01,
          4.21029061e-01, 4.21029061e-01, 9.20551494e-02, 6.55637830e-02,
          4.21029061e-01, 3.60493064e-01, 3.61806065e-01, 3.61806065e-01,
          1.41019717e-01, 3.05228174e-01, 3.61806065e-01, 3.61806065e-01,
          3.61806065e-01, 3.14421743e-01, 1.68435425e-01, 3.11544407e-02,
          1.85829982e-01, 6.12548470e-01, 6.12548470e-01, 2.48267278e-02,
          1.55883059e-01, 1.51244730e-01, 3.63026321e-01, 5.51911354e-01,
          8.08343142e-02, 3.80206667e-03, 2.95586258e-01, 5.51911354e-01,
          3.88650030e-01, 1.14518004e-02, 1.38892895e-02, 3.74143869e-01,
          2.21759304e-01, 1.55519694e-01, 2.69546080e-02, 4.65296768e-03,
          5.83947241e-01, 5.83947241e-01, 4.87078220e-01, 1.71973109e-02,
          2.29697544e-02 ]
      - [ 6.74083054e-01, 6.74083054e-01, 2.35070232e-02, 0.,
          4.44915928e-02, 2.44401529e-01, 1.23027533e-01, 1.39293876e-02,
          8.30694512e-02, 4.52124417e-01, 3.24074954e-01, 8.35365653e-02,
          2.45851427e-01, 4.52124417e-01, 4.52124417e-01, 6.72043934e-02,
          2.92496085e-02, 4.52124417e-01, 3.42186064e-01, 1.63019765e-02,
          3.12981755e-01, 3.38132411e-01, 1.75669998e-01, 3.78049016e-02,
          2.23149285e-01, 5.39849937e-01, 5.39849937e-01, 3.84131938e-01,
          3.84131938e-01, 3.84131938e-01, 3.84131938e-01, 9.96963084e-02,
          3.25559616e-01, 3.84131938e-01, 3.76252681e-01, 2.96847224e-02,
          2.92553514e-01, 3.61716598e-01, 3.61716598e-01, 2.72368878e-01,
          3.61716598e-01, 3.61716598e-01, 3.61716598e-01, 3.61716598e-01,
          2.27112666e-01, 5.74717373e-02, 4.78079528e-01, 4.78079528e-01,
          2.13394001e-01, 6.93080649e-02, 1.45436734e-01, 4.78079528e-01,
          4.78079528e-01, 7.86726475e-02, 7.85076339e-03, 3.26726437e-02,
          5.13486564e-01, 5.13486564e-01, 4.22195613e-01, 1.72287859e-02,
          2.01089427e-01, 4.76731807e-01, 1.41949400e-01, 3.92772883e-01,
          3.50693852e-01, 1.20528162e-01, 3.92772883e-01, 3.92772883e-01,
          2.74784952e-01, 1.08182669e-01, 3.92772883e-01, 3.92772883e-01,
          2.60125488e-01, 4.67969954e-01, 2.15533376e-01, 2.83553861e-02,
          4.67969954e-01, 4.67969954e-01, 4.67969954e-01, 3.41061465e-02,
          5.70537820e-02 ]
      - [ 4.40042466e-01, 4.40042466e-01, 4.40042466e-01, 3.86942327e-02,
          2.12716591e-02, 1.08057223e-01, 1.17437854e-01, 4.40042466e-01,
          4.40042466e-01, 4.62531149e-01, 3.68265241e-01, 1.75440218e-02,
          2.50106603e-02, 4.62531149e-01, 4.62531149e-01, 1.51839079e-02,
          5.34479767e-02, 4.62531149e-01, 4.11212802e-01, 9.78074595e-02,
          2.23178178e-01, 1.63859993e-01, 4.45312321e-01, 9.19109136e-02,
          2.32235417e-01, 4.89441842e-01, 4.89441842e-01, 3.38636845e-01,
          3.38636845e-01, 3.38636845e-01, 3.38636845e-01, 3.38636845e-01,
          3.36139232e-01, 3.34801435e-01, 2.88938880e-01, 3.38636845e-01,
          3.98867011e-01, 3.98867011e-01, 7.46103004e-02, 2.35686228e-01,
          3.98867011e-01, 3.98867011e-01, 2.40655273e-01, 2.85501391e-01,
          3.98867011e-01, 3.73572201e-01, 3.73572201e-01, 3.73572201e-01,
          1.07858405e-01, 3.62623990e-01, 3.73572201e-01, 3.73572201e-01,
          3.73572201e-01, 1.25701651e-01, 8.20914190e-03, 1.26862317e-01,
          5.57324648e-01, 5.57324648e-01, 5.57324648e-01, 1.55226737e-01,
          7.58726969e-02, 7.45866597e-02, 1.05003200e-01, 3.24312180e-01,
          9.70826596e-02, 3.62521917e-01, 4.16110665e-01, 4.16110665e-01,
          4.16110665e-01, 2.10686386e-01, 1.13298908e-01, 4.16110665e-01,
          2.26131797e-01, 1.64958626e-01, 3.38083245e-02, 9.10351872e-02,
          5.47165155e-01, 5.47165155e-01, 5.47165155e-01, 7.94198066e-02,
          4.77697290e-02 ]
      - [ 5.59406519e-01, 5.59406519e-01, 2.04157695e-01, 6.16358034e-03,
          1.08903833e-01, 4.47326750e-02, 5.22659346e-03, 1.06965381e-04,
          5.59406519e-01, 6.67169452e-01, 4.82713915e-02, 5.13799209e-03,
          5.15456945e-02, 3.11627835e-01, 3.13662402e-02, 5.04089228e-04,
          7.18618903e-05, 6.67169452e-01, 5.56157529e-01, 1.22456392e-02,
          1.06415460e-02, 1.28212199e-02, 3.51515934e-02, 4.21003532e-03,
          2.54620999e-01, 5.56157529e-01, 5.56157529e-01, 3.44593436e-01,
          3.62667501e-01, 3.62667501e-01, 3.62667501e-01, 3.62667501e-01,
          2.05867752e-01, 3.50170970e-01, 2.34504148e-01, 3.62667501e-01,
          4.47583199e-01, 1.39494464e-01, 3.01782280e-01, 3.90985847e-01,
          4.47583199e-01, 3.41949582e-01, 8.73264894e-02, 8.11199769e-02,
          4.47583199e-01, 2.85853386e-01, 1.16474688e-01, 3.21692497e-01,
          8.44253078e-02, 3.97526503e-01, 3.97526503e-01, 3.97526503e-01,
          3.97526503e-01, 3.97526503e-01, 2.66301632e-02, 1.57565251e-02,
          2.39389256e-01, 6.70667529e-01, 6.70667529e-01, 2.10442785e-02,
          4.79927175e-02, 5.94241917e-02, 1.70799673e-01, 2.54111886e-01,
          2.99404506e-02, 2.86375228e-02, 4.12403822e-01, 5.91029108e-01,
          5.91029108e-01, 7.84439966e-03, 1.49769690e-02, 2.42518738e-01,
          6.77380189e-02, 3.27084027e-02, 4.63137589e-02, 9.66787860e-02,
          6.49551153e-01, 6.49551153e-01, 3.62897784e-01, 2.62106005e-02,
          1.22423340e-02 ]
      - [ 5.14368236e-01, 5.14368236e-01, 1.73341721e-01, 0.,
          2.66903847e-01, 5.14368236e-01, 2.98304617e-01, 2.87696552e-02,
          1.00203060e-01, 4.31910247e-01, 1.46449536e-01, 1.50846750e-01,
          4.31910247e-01, 4.31910247e-01, 4.31910247e-01, 7.09855855e-02,
          1.17098823e-01, 4.31910247e-01, 6.85499460e-02, 5.86385764e-02,
          4.82245594e-01, 4.82245594e-01, 1.50345996e-01, 2.36164182e-02,
          1.83414966e-01, 4.82245594e-01, 4.82245594e-01, 1.07672289e-01,
          3.44576150e-01, 4.45126146e-01, 1.88771218e-01, 1.48740560e-01,
          4.45126146e-01, 4.45126146e-01, 4.45126146e-01, 1.22148335e-01,
          4.22589988e-01, 4.22589988e-01, 3.59131515e-01, 2.29896903e-01,
          3.38090450e-01, 4.22589988e-01, 1.82733178e-01, 2.65067369e-01,
          2.45451361e-01, 2.85892338e-01, 4.16623026e-01, 4.16623026e-01,
          1.99982852e-01, 6.13521300e-02, 4.16623026e-01, 4.16623026e-01,
          4.16623026e-01, 4.97259423e-02, 1.71726882e-01, 3.13133486e-02,
          4.39975411e-01, 4.39975411e-01, 4.39975411e-01, 2.17735525e-02,
          1.01360135e-01, 4.39975411e-01, 4.24350172e-01, 4.53682095e-01,
          4.53682095e-01, 2.73142345e-02, 2.11498648e-01, 4.53682095e-01,
          4.53682095e-01, 1.68496873e-02, 1.19393602e-01, 3.34876150e-01,
          2.90565997e-01, 4.14173484e-01, 2.81098764e-02, 3.41561623e-03,
          4.29806858e-01, 6.53579950e-01, 3.52920145e-01, 1.58580132e-02,
          3.32807744e-04 ]
      - [ 6.50417447e-01, 6.50417447e-01, 6.27758354e-02, 0.,
          7.46682137e-02, 3.06526810e-01, 1.26122922e-01, 7.43659167e-03,
          1.67283028e-01, 4.63560164e-01, 2.53053844e-01, 3.34956162e-02,
          2.66479701e-01, 4.63560164e-01, 4.59483743e-01, 4.17811424e-02,
          4.08051014e-02, 4.63560164e-01, 2.36125097e-01, 1.01720318e-02,
          1.76888525e-01, 3.99237543e-01, 2.12386876e-01, 1.13646341e-02,
          2.76830167e-01, 5.59465051e-01, 5.59465051e-01, 3.15523326e-01,
          3.81938189e-01, 3.81938189e-01, 3.81938189e-01, 1.62516117e-01,
          3.72509360e-01, 3.81938189e-01, 3.81938189e-01, 4.55051698e-02,
          2.11810157e-01, 1.52371839e-01, 3.68204564e-01, 3.68204564e-01,
          3.68204564e-01, 3.68204564e-01, 3.68204564e-01, 3.68204564e-01,
          3.38811189e-01, 6.78292587e-02, 4.15242404e-01, 4.45679903e-01,
          4.45679903e-01, 8.84425342e-02, 1.14548057e-01, 4.45679903e-01,
          4.45679903e-01, 5.52768335e-02, 0., 5.46179824e-02,
          5.80231607e-01, 5.80231607e-01, 2.82850266e-01, 0.,
          1.05790257e-01, 4.49874520e-01, 1.55892834e-01, 4.17038679e-01,
          1.67303607e-01, 1.38902903e-01, 4.17038679e-01, 4.17038679e-01,
          2.75269926e-01, 5.63011132e-02, 4.17038679e-01, 4.17038679e-01,
          4.20109421e-01, 4.20109421e-01, 3.06063116e-01, 1.65261552e-02,
          4.20109421e-01, 4.20109421e-01, 4.20109421e-01, 4.66158278e-02,
          1.31235957e-01 ]
      - [ 5.30868530e-01, 5.30868530e-01, 1.26701310e-01, 1.48595860e-02,
          2.37666592e-01, 2.75571555e-01, 2.28134822e-02, 3.81859462e-03,
          5.30868530e-01, 5.64909816e-01, 3.90714966e-02, 9.24999919e-03,
          6.52725473e-02, 5.64909816e-01, 1.76277146e-01, 9.99491895e-04,
          6.51401514e-03, 5.64909816e-01, 5.12356520e-01, 9.74125192e-02,
          9.91973281e-02, 1.22347109e-01, 3.73961002e-01, 2.25182008e-02,
          1.80840880e-01, 5.12356520e-01, 5.12356520e-01, 3.32778692e-01,
          3.32778692e-01, 3.32778692e-01, 3.32778692e-01, 3.32778692e-01,
          3.32778692e-01, 3.32778692e-01, 3.32778692e-01, 3.32778692e-01,
          4.71097201e-01, 2.62474537e-01, 2.61756852e-02, 1.89801291e-01,
          4.71097201e-01, 4.71097201e-01, 2.42230613e-02, 3.70821804e-02,
          4.71097201e-01, 3.79701197e-01, 3.79701197e-01, 2.40868151e-01,
          1.61597624e-01, 3.79701197e-01, 3.79701197e-01, 3.79701197e-01,
          3.79701197e-01, 2.16881126e-01, 1.15025766e-01, 1.17638949e-02,
          2.47234941e-01, 6.23214424e-01, 6.23214424e-01, 2.65961755e-02,
          5.11453636e-02, 1.00036584e-01, 3.59388739e-01, 4.52722460e-01,
          3.46578397e-02, 0., 3.70522738e-01, 5.44592321e-01,
          5.44592321e-01, 2.22155475e-03, 6.45991927e-03, 2.40639895e-01,
          1.91043124e-01, 7.57388845e-02, 0., 0., 6.58413112e-01,
          6.58413112e-01, 2.89370775e-01, 1.25869522e-02, 1.68294329e-02 ]
      - [ 6.33330226e-01, 3.93888026e-01, 1.19603343e-01, 4.45838645e-02,
          1.01940475e-01, 8.59386995e-02, 4.46227305e-02, 1.59231592e-02,
          6.33330226e-01, 5.75268209e-01, 8.52264762e-02, 2.88287513e-02,
          3.41461450e-02, 5.26479185e-01, 2.13712379e-01, 1.65275279e-02,
          1.21094764e-03, 5.75268209e-01, 5.11953473e-01, 7.53488243e-02,
          1.06639788e-01, 5.92460893e-02, 1.50957987e-01, 5.82151972e-02,
          4.02319729e-01, 5.11953473e-01, 5.11953473e-01, 4.42733288e-01,
          1.46800831e-01, 2.36503139e-01, 4.42733288e-01, 4.42733288e-01,
          1.76023424e-01, 2.10588813e-01, 3.45321119e-01, 3.68071258e-01,
          3.88804108e-01, 3.88804108e-01, 9.15765613e-02, 3.70794147e-01,
          3.88804108e-01, 3.88804108e-01, 7.66357780e-02, 2.97531635e-01,
          3.88804108e-01, 3.12720031e-01, 4.28699642e-01, 2.16043815e-01,
          8.43415782e-02, 2.53191382e-01, 4.28699642e-01, 4.28699642e-01,
          4.02133703e-01, 2.58781374e-01, 1.59100592e-02, 1.28648058e-03,
          7.22659081e-02, 6.91763520e-01, 6.91763520e-01, 0.,
          2.66948249e-02, 1.16181128e-01, 1.27800748e-01, 2.78683752e-01,
          6.82834834e-02, 1.10358838e-02, 5.30221343e-01, 5.30221343e-01,
          5.30221343e-01, 1.40718697e-02, 4.96219583e-02, 2.57277220e-01,
          1.16466783e-01, 9.17659625e-02, 8.16817628e-04, 1.42889814e-02,
          6.02114677e-01, 6.02114677e-01, 4.95857239e-01, 1.83906574e-02,
          2.23788824e-02 ]
      - [ 5.63400149e-01, 5.63400149e-01, 2.73109917e-02, 0.,
          1.45313069e-01, 1.42313227e-01, 0., 0., 5.63400149e-01,
          5.60294330e-01, 8.43205024e-03, 0., 6.11616939e-04,
          5.60294330e-01, 2.29224876e-01, 0., 0., 5.60294330e-01,
          4.76029605e-01, 0., 1.82893891e-02, 4.50296374e-03,
          4.76029605e-01, 3.11947793e-01, 3.22824329e-01, 3.36973250e-01,
          4.76029605e-01, 3.47950131e-01, 3.47950131e-01, 3.47950131e-01,
          3.47950131e-01, 3.47950131e-01, 3.47950131e-01, 3.47950131e-01,
          1.67239696e-01, 3.47950131e-01, 4.92143601e-01, 9.47542563e-02,
          2.89348373e-03, 1.06566623e-01, 4.92143601e-01, 4.92143601e-01,
          4.59668301e-02, 6.17036149e-02, 4.92143601e-01, 3.87532800e-01,
          3.87532800e-01, 6.64018616e-02, 1.81296598e-02, 3.87532800e-01,
          3.87532800e-01, 3.87532800e-01, 3.00500393e-01, 3.87532800e-01,
          5.99180572e-02, 4.56103869e-03, 1.88711464e-01, 6.33172214e-01,
          6.33172214e-01, 2.97471471e-02, 9.80978087e-02, 1.12605013e-01,
          3.59796256e-01, 4.58178282e-01, 2.79046074e-02, 4.37355693e-03,
          4.97626066e-01, 4.97626066e-01, 2.89132386e-01, 5.11055207e-03,
          2.52115410e-02, 4.52528745e-01, 4.80612040e-01, 1.48578063e-01,
          0., 5.19470572e-02, 5.64994514e-01, 5.64994514e-01,
          3.02539647e-01, 6.32955357e-02, 6.79851174e-02 ]
      - [ 6.45164430e-01, 6.45164430e-01, 2.02020660e-01, 0.,
          8.43183473e-02, 3.07967037e-01, 1.00350209e-01, 0.,
          9.08232331e-02, 4.14801598e-01, 4.14801598e-01, 1.27113909e-02,
          2.86215842e-02, 4.14801598e-01, 4.14801598e-01, 3.66490692e-01,
          1.60696171e-02, 4.14801598e-01, 3.81554961e-01, 4.28266004e-02,
          1.50969839e-02, 3.81554961e-01, 3.81554961e-01, 3.81554961e-01,
          3.47305387e-01, 3.81554961e-01, 3.81554961e-01, 1.28839165e-01,
          4.32582766e-01, 4.32582766e-01, 3.24612588e-01, 7.62297213e-02,
          4.32582766e-01, 4.32582766e-01, 3.42565417e-01, 4.50839810e-02,
          3.91823530e-01, 3.30199063e-01, 1.06201306e-01, 1.09308966e-01,
          3.91823530e-01, 3.91823530e-01, 3.91823530e-01, 3.35981190e-01,
          3.69919986e-01, 3.76483083e-01, 3.76483083e-01, 1.03870042e-01,
          1.72556594e-01, 3.76483083e-01, 3.50525528e-01, 3.76483083e-01,
          3.52289915e-01, 3.76483083e-01, 4.05995958e-02, 7.66001940e-02,
          4.75997359e-01, 4.75997359e-01, 4.75997359e-01, 4.68185693e-02,
          2.03485608e-01, 4.64910448e-01, 2.19702438e-01, 4.45485204e-01,
          1.95077434e-01, 8.73959363e-02, 4.45485204e-01, 4.45485204e-01,
          2.35707000e-01, 1.23332679e-01, 2.91992724e-01, 4.45485204e-01,
          4.35857505e-01, 4.35857505e-01, 4.38320590e-03, 2.69728992e-02,
          4.35857505e-01, 4.35857505e-01, 4.35857505e-01, 8.83251801e-02,
          1.92974627e-01 ]
      - [ 5.25330663e-01, 5.25330663e-01, 8.49915892e-02, 8.01087823e-03,
          3.62574250e-01, 5.25330663e-01, 1.39699340e-01, 0.,
          9.25912559e-02, 4.38981503e-01, 1.03140317e-01, 1.82490926e-02,
          4.38981503e-01, 4.38981503e-01, 4.38981503e-01, 7.31768413e-03,
          1.45144075e-01, 4.38981503e-01, 9.03310850e-02, 2.79580411e-02,
          2.90717900e-01, 5.16124666e-01, 2.79495209e-01, 1.32688116e-02,
          1.54724225e-01, 5.16124666e-01, 5.16124666e-01, 1.68083221e-01,
          3.98433506e-01, 3.98113817e-01, 1.70641929e-01, 3.98433506e-01,
          3.98433506e-01, 3.98433506e-01, 8.95429254e-02, 3.70323360e-01,
          4.11081880e-01, 4.11081880e-01, 1.78574070e-01, 4.11081880e-01,
          4.11081880e-01, 4.11081880e-01, 1.11121185e-01, 3.43081243e-02,
          3.24866414e-01, 2.52817810e-01, 3.92248601e-01, 3.92248601e-01,
          3.92248601e-01, 6.14747666e-02, 3.92248601e-01, 3.92248601e-01,
          3.92248601e-01, 7.23304823e-02, 3.49156916e-01, 2.27935195e-01,
          3.56848180e-01, 4.67269659e-01, 4.67269659e-01, 6.70729727e-02,
          5.94681613e-02, 1.76264152e-01, 4.67269659e-01, 4.39038992e-01,
          4.39038992e-01, 4.18909155e-02, 1.60636395e-01, 4.39038992e-01,
          4.39038992e-01, 4.04087938e-02, 5.14431633e-02, 4.39038992e-01,
          4.08022016e-01, 5.10743082e-01, 1.11267725e-02, 8.06126650e-03,
          2.12667465e-01, 5.10743082e-01, 5.10743082e-01, 6.56200014e-03,
          1.95520055e-02 ]
      - [ 5.00606477e-01, 5.00606477e-01, 8.94894302e-02, 0.,
          1.22222991e-03, 9.97908711e-02, 2.42626324e-01, 4.07853007e-01,
          5.00606477e-01, 5.62037110e-01, 1.78548083e-01, 0., 0.,
          1.81899875e-01, 1.86656356e-01, 1.27055943e-01, 4.96654153e-01,
          5.62037110e-01, 5.38774669e-01, 1.02205634e-01, 5.52730300e-02,
          1.22864224e-01, 3.47230136e-01, 2.39945248e-01, 2.91504741e-01,
          3.49784285e-01, 5.38774669e-01, 3.63230079e-01, 3.63230079e-01,
          3.63230079e-01, 3.63230079e-01, 2.46752471e-01, 3.63230079e-01,
          3.63230079e-01, 2.38094449e-01, 2.95260370e-01, 4.86155331e-01,
          1.65107116e-01, 1.27998320e-02, 3.68526541e-02, 4.86155331e-01,
          4.86155331e-01, 8.42856169e-02, 1.17770493e-01, 4.86155331e-01,
          3.96195859e-01, 3.96195859e-01, 2.09816411e-01, 2.33848497e-01,
          3.96195859e-01, 3.96195859e-01, 3.96195859e-01, 2.43300974e-01,
          2.30830476e-01, 1.31047159e-01, 3.12252864e-02, 5.13502955e-01,
          5.13502955e-01, 5.13502955e-01, 2.06827819e-01, 1.87244698e-01,
          1.53893664e-01, 2.90079027e-01, 4.72586483e-01, 8.52388293e-02,
          2.25029308e-02, 4.72586483e-01, 4.72586483e-01, 3.03273708e-01,
          2.00030189e-02, 4.21977751e-02, 4.72586483e-01, 4.78954285e-01,
          4.68093246e-01, 9.57552157e-03, 6.33410290e-02, 4.82904911e-01,
          4.82904911e-01, 2.39295319e-01, 2.74534561e-02, 1.34737611e-01 ]
      - [ 6.85382783e-01, 6.85382783e-01, 1.21987961e-01, 2.79356231e-04,
          9.52469371e-03, 1.01405635e-01, 7.97265321e-02, 3.76212085e-03,
          1.48436710e-01, 4.47661638e-01, 1.37135446e-01, 2.29471549e-01,
          2.20076725e-01, 4.47661638e-01, 4.47661638e-01, 1.47046298e-01,
          2.28921384e-01, 4.47661638e-01, 1.24179825e-01, 2.34617125e-02,
          1.66820645e-01, 7.55008981e-02, 7.70966485e-02, 2.40271818e-02,
          2.94213355e-01, 6.52267098e-01, 6.52267098e-01, 2.42600352e-01,
          3.81497681e-01, 3.81497681e-01, 3.81497681e-01, 3.81497681e-01,
          3.81497681e-01, 3.81497681e-01, 1.52149841e-01, 2.02339768e-01,
          3.91064316e-01, 3.91064316e-01, 3.91064316e-01, 2.08478019e-01,
          3.09393853e-01, 3.91064316e-01, 3.91064316e-01, 1.35864869e-01,
          2.71642804e-01, 7.41738081e-02, 4.05421168e-01, 4.54862118e-01,
          6.86934516e-02, 1.63156629e-01, 3.75442713e-01, 4.54862118e-01,
          4.54862118e-01, 1.80537537e-01, 1.23563707e-01, 1.27183348e-01,
          4.08022046e-01, 6.04444444e-01, 6.04444444e-01, 8.79689530e-02,
          4.03491333e-02, 9.85003188e-02, 2.15090707e-01, 5.40219128e-01,
          1.77355990e-01, 2.18843743e-02, 3.56988251e-01, 5.53257644e-01,
          4.30649966e-01, 5.99488653e-02, 4.67964485e-02, 2.14304864e-01,
          4.88548353e-02, 7.10422322e-02, 2.15725154e-02, 1.82938371e-02,
          5.71367681e-01, 5.71367681e-01, 5.71367681e-01, 8.16948265e-02,
          1.87184324e-03 ]
      - [ 6.66199267e-01, 6.66199267e-01, 1.06418990e-01, 6.13729237e-03,
          2.72229090e-02, 2.17359900e-01, 1.67279586e-01, 9.09950435e-02,
          1.00472003e-01, 3.79159182e-01, 3.79159182e-01, 6.62437379e-02,
          2.91662008e-01, 3.79159182e-01, 3.79159182e-01, 3.19199473e-01,
          2.93360233e-01, 3.79159182e-01, 6.06801175e-02, 1.02779595e-02,
          4.65915054e-01, 4.65915054e-01, 3.12676758e-01, 8.72606561e-02,
          1.33678317e-01, 4.65915054e-01, 4.65915054e-01, 1.76198095e-01,
          4.09539908e-01, 4.09539908e-01, 2.91454911e-01, 2.43398070e-01,
          4.09539908e-01, 4.09539908e-01, 3.71252269e-01, 1.09336041e-01,
          2.13649884e-01, 1.49082661e-01, 1.14855215e-01, 1.26706883e-01,
          3.07574838e-01, 4.89446640e-01, 4.89446640e-01, 4.89446640e-01,
          2.91062027e-01, 1.75407022e-01, 4.33694750e-01, 4.33694750e-01,
          4.33694750e-01, 4.20396775e-02, 1.42475396e-01, 4.33694750e-01,
          4.33694750e-01, 4.87626679e-02, 6.17031474e-03, 8.93136337e-02,
          4.56769198e-01, 4.56769198e-01, 4.56769198e-01, 3.94262850e-01,
          1.32824406e-01, 4.04581666e-01, 1.57278374e-01, 4.20987606e-01,
          1.42575115e-01, 8.48362893e-02, 4.20987606e-01, 4.20987606e-01,
          2.76589394e-01, 7.49343187e-02, 4.20987606e-01, 4.20987606e-01,
          4.61963713e-01, 4.61963713e-01, 1.33496568e-01, 3.45349647e-02,
          3.29564601e-01, 4.61963713e-01, 4.61963713e-01, 4.96838205e-02,
          1.07928179e-01 ]
      - [ 5.25120199e-01, 5.25120199e-01, 2.70030767e-01, 1.52483329e-01,
          3.71497571e-01, 2.18942180e-01, 0., 0., 4.01421785e-01,
          5.37912250e-01, 1.39963672e-01, 7.82430544e-02, 1.06505476e-01,
          5.37912250e-01, 1.86119840e-01, 0., 2.34272495e-01,
          5.37912250e-01, 2.00496912e-01, 7.91023746e-02, 1.56531587e-01,
          1.00308202e-01, 2.80808389e-01, 1.09548343e-03, 1.71450540e-01,
          6.34191751e-01, 6.34191751e-01, 3.69433701e-01, 3.69433701e-01,
          3.69433701e-01, 3.69433701e-01, 3.69433701e-01, 3.69433701e-01,
          0., 2.02337250e-01, 3.69433701e-01, 4.39651787e-01,
          4.39651787e-01, 1.71189100e-01, 1.80017754e-01, 4.39651787e-01,
          4.39651787e-01, 3.77028366e-03, 5.84797822e-02, 3.96594673e-01,
          1.86191022e-01, 4.25297886e-01, 3.42643887e-01, 1.10329092e-01,
          2.62378126e-01, 4.25297886e-01, 4.25297886e-01, 4.25297886e-01,
          1.97867692e-01, 2.92107195e-01, 2.21270278e-01, 4.57583815e-01,
          4.57583815e-01, 4.57583815e-01, 1.15760945e-01, 0.,
          1.01043560e-01, 4.57583815e-01, 5.28670251e-01, 1.96619958e-01,
          7.75092421e-03, 2.23299801e-01, 5.28670251e-01, 5.28670251e-01,
          3.78877297e-03, 1.80554017e-02, 2.59462863e-01, 1.12170711e-01,
          1.48050636e-01, 3.35171865e-03, 4.46709193e-04, 5.68771005e-01,
          5.68771005e-01, 5.58125079e-01, 3.60384285e-02, 2.09869770e-03 ]
      - [ 6.57160938e-01, 6.57160938e-01, 1.47581249e-01, 0.,
          6.88822865e-02, 2.81950682e-01, 1.11801267e-01, 6.31458592e-04,
          1.05816215e-01, 3.93106163e-01, 2.19085932e-01, 2.31625855e-01,
          3.46392542e-01, 3.93106163e-01, 3.85701954e-01, 8.68337154e-02,
          3.93106163e-01, 3.93106163e-01, 8.24330598e-02, 3.72237945e-03,
          9.54806581e-02, 7.01309964e-02, 2.77361777e-02, 1.68202780e-04,
          3.93453091e-01, 6.39218032e-01, 6.39218032e-01, 1.73310816e-01,
          3.83072346e-01, 3.83072346e-01, 3.13612670e-01, 3.83072346e-01,
          3.83072346e-01, 3.83072346e-01, 2.05775797e-01, 3.02849263e-01,
          2.34120503e-01, 4.08913344e-01, 4.08913344e-01, 4.08913344e-01,
          2.31348559e-01, 4.08913344e-01, 4.08913344e-01, 9.28089917e-02,
          2.07162678e-01, 2.59249806e-02, 1.64898992e-01, 5.46887815e-01,
          1.33488104e-01, 1.21701919e-02, 2.10354537e-01, 5.46887815e-01,
          5.46887815e-01, 8.48505870e-02, 1.26198336e-01, 1.57757223e-01,
          4.58366960e-01, 4.58366960e-01, 4.58366960e-01, 1.00727849e-01,
          7.10444376e-02, 3.14664513e-01, 4.58366960e-01, 3.95558089e-01,
          3.95558089e-01, 2.49405831e-01, 3.69775921e-01, 3.95558089e-01,
          3.95558089e-01, 7.91746378e-02, 9.22559872e-02, 3.95558089e-01,
          1.51846081e-01, 2.39966229e-01, 2.19039217e-01, 7.35348603e-03,
          2.55973369e-01, 6.24550879e-01, 6.24550879e-01, 1.39394760e-01,
          3.20590846e-03 ]
      - [ 6.80924594e-01, 6.80924594e-01, 2.05678120e-01, 7.05410494e-04,
          1.14960661e-02, 2.43824665e-02, 4.73337620e-03, 2.66449206e-04,
          1.51104599e-01, 5.62015235e-01, 3.76842529e-01, 4.46446128e-02,
          3.24549004e-02, 3.51660937e-01, 2.99373001e-01, 9.62165743e-03,
          6.50120378e-02, 5.62015235e-01, 2.73794442e-01, 4.13467214e-02,
          8.42609107e-02, 4.56525646e-02, 1.30470976e-01, 3.61178480e-02,
          5.44786036e-01, 5.44786036e-01, 5.44786036e-01, 4.18164879e-01,
          4.18164879e-01, 4.18164879e-01, 4.18164879e-01, 2.28610095e-02,
          2.87794620e-01, 4.14608091e-01, 1.69495597e-01, 1.11348078e-01,
          3.31561238e-01, 3.83068293e-01, 3.06949288e-01, 1.69900253e-01,
          3.83068293e-01, 3.83068293e-01, 3.83068293e-01, 2.58248419e-01,
          3.30906212e-01, 4.84571978e-02, 4.83160019e-01, 4.18843150e-01,
          8.99652392e-02, 1.64701864e-01, 2.85857081e-01, 4.83160019e-01,
          4.83160019e-01, 1.14386762e-02, 1.57199800e-02, 1.58069525e-02,
          6.67846084e-01, 6.67846084e-01, 2.48912141e-01, 1.78115703e-02,
          9.57438275e-02, 1.20280340e-01, 1.22026064e-01, 4.19683307e-01,
          3.39981318e-01, 1.66057855e-01, 4.19683307e-01, 4.19683307e-01,
          2.86227077e-01, 1.64176628e-01, 1.98062599e-01, 4.19683307e-01,
          8.95507038e-02, 1.88005105e-01, 4.86010201e-02, 7.75672272e-02,
          3.46546799e-01, 6.38032198e-01, 6.38032198e-01, 8.24884400e-02,
          2.85771620e-02 ]
      - [ 6.71471596e-01, 6.71471596e-01, 1.74551941e-02, 9.50982620e-04,
          2.71420809e-03, 1.94408334e-04, 1.28873042e-04, 3.08417919e-04,
          3.02051842e-01, 6.75057471e-01, 2.68279344e-01, 9.16353427e-03,
          8.73399619e-03, 6.26957938e-02, 4.56644893e-02, 1.22829014e-03,
          6.08618222e-02, 6.75057471e-01, 5.70962727e-01, 4.16688761e-03,
          1.26816668e-02, 5.06849401e-03, 2.12001167e-02, 8.02099425e-03,
          1.24841832e-01, 5.70962727e-01, 5.70962727e-01, 4.58684415e-01,
          4.58684415e-01, 4.58684415e-01, 4.58684415e-01, 3.83823812e-01,
          2.63199322e-02, 5.95115907e-02, 3.01003326e-02, 3.73061039e-02,
          3.67320985e-01, 3.67320985e-01, 1.67721167e-01, 3.67320985e-01,
          3.67320985e-01, 3.67320985e-01, 3.40294212e-01, 2.07005814e-01,
          3.67320985e-01, 7.08473250e-02, 1.97227955e-01, 1.37544617e-01,
          3.52093577e-02, 1.72718778e-01, 4.92877007e-01, 4.92877007e-01,
          4.92877007e-01, 4.15193766e-01, 5.48723445e-04, 2.35193293e-03,
          1.34641454e-01, 6.97909653e-01, 6.97909653e-01, 9.67460871e-03,
          2.04861071e-02, 1.11242440e-02, 1.02976933e-02, 1.07830711e-01,
          8.34375769e-02, 1.82796363e-02, 6.47696495e-01, 6.47696495e-01,
          3.39370430e-01, 7.85800144e-02, 3.03290840e-02, 1.15419723e-01,
          1.80744007e-02, 3.73170972e-02, 9.67647880e-03, 5.91322891e-02,
          5.74115157e-01, 5.74115157e-01, 5.74115157e-01, 7.68126128e-03,
          8.60228855e-03 ]
      - [ 6.41308963e-01, 6.41308963e-01, 1.48236647e-01, 1.03637960e-03,
          8.06559399e-02, 3.52910757e-01, 6.48303702e-02, 2.26137531e-03,
          1.17508531e-01, 3.98327082e-01, 3.98327082e-01, 7.99597949e-02,
          1.88282311e-01, 3.98327082e-01, 3.98327082e-01, 4.67992052e-02,
          3.98327082e-01, 3.98327082e-01, 1.55128717e-01, 5.09646870e-02,
          2.97382116e-01, 3.19938540e-01, 1.89198390e-01, 7.64577091e-02,
          3.96834701e-01, 5.37611663e-01, 5.37611663e-01, 2.80595750e-01,
          3.94950241e-01, 3.94950241e-01, 3.94950241e-01, 4.37204055e-02,
          3.94950241e-01, 3.94950241e-01, 1.84440032e-01, 3.18531364e-01,
          3.78803343e-01, 3.78803343e-01, 3.78803343e-01, 2.38086328e-01,
          3.78803343e-01, 3.78803343e-01, 2.43168309e-01, 1.39456227e-01,
          3.78803343e-01, 3.10864210e-01, 4.08449262e-01, 4.08449262e-01,
          1.99724957e-01, 9.82253924e-02, 3.08138609e-01, 4.08449262e-01,
          4.08449262e-01, 2.95756817e-01, 1.33970052e-01, 8.82202238e-02,
          5.05836368e-01, 5.05836368e-01, 5.05836368e-01, 2.90923268e-01,
          1.44128963e-01, 1.02387160e-01, 2.92768449e-01, 2.48930812e-01,
          9.25231650e-02, 4.14987296e-01, 4.14987296e-01, 4.14987296e-01,
          4.14987296e-01, 2.08266005e-01, 1.44500732e-01, 4.14987296e-01,
          9.44531336e-02, 5.64313084e-02, 1.54547304e-01, 7.44387060e-02,
          5.59403121e-01, 5.59403121e-01, 5.59403121e-01, 7.22594261e-02,
          9.41538364e-02 ]
      - [ 5.97131312e-01, 5.22741914e-01, 8.69036913e-02, 0., 0.,
          7.92289339e-03, 5.47627802e-04, 5.61783696e-03, 5.97131312e-01,
          6.74017429e-01, 2.20988274e-01, 2.61596544e-03, 3.56644839e-02,
          1.25833020e-01, 7.11585209e-02, 1.98390661e-03, 1.16859458e-01,
          6.74017429e-01, 5.70893109e-01, 1.16930660e-02, 1.64365266e-02,
          3.17607485e-02, 2.92735770e-02, 5.85297728e-03, 1.19313285e-01,
          5.70893109e-01, 5.70893109e-01, 4.26796049e-01, 3.51758808e-01,
          3.74287754e-01, 4.26796049e-01, 4.26796049e-01, 2.19988972e-02,
          4.06806283e-02, 3.39502990e-02, 4.26796049e-01, 4.23782408e-01,
          2.80638993e-01, 2.32610218e-02, 4.23782408e-01, 4.23782408e-01,
          3.15247923e-01, 1.46098107e-01, 2.78164357e-01, 4.23782408e-01,
          2.50018895e-01, 1.60468355e-01, 1.40034199e-01, 1.80420443e-01,
          4.13629621e-01, 4.13629621e-01, 4.13629621e-01, 4.13629621e-01,
          4.13629621e-01, 3.49303358e-03, 1.67242542e-03, 9.75437015e-02,
          7.00279713e-01, 7.00279713e-01, 5.02411090e-02, 1.12126172e-02,
          6.62000710e-03, 1.59879285e-03, 6.01120852e-02, 2.36008242e-02,
          2.07173731e-03, 6.56082571e-01, 6.56082571e-01, 3.45958084e-01,
          1.98641941e-02, 3.27718034e-02, 8.50346237e-02, 3.18707787e-02,
          2.33967956e-02, 1.65705997e-02, 3.21806252e-01, 6.33651197e-01,
          6.33651197e-01, 2.89620221e-01, 2.25579944e-02, 2.93272566e-02 ]
      - [ 5.44663608e-01, 5.44663608e-01, 1.69368014e-01, 0.,
          1.13173828e-01, 5.44663608e-01, 2.35902756e-01, 1.97647978e-03,
          8.62427428e-02, 4.34460223e-01, 1.38848320e-01, 2.46002059e-02,
          4.34460223e-01, 4.34460223e-01, 4.34460223e-01, 4.48982194e-02,
          1.73152268e-01, 4.34460223e-01, 5.48377968e-02, 3.02011264e-04,
          1.13226369e-01, 5.65502167e-01, 1.30696326e-01, 0.,
          4.54514250e-02, 5.65502167e-01, 5.65502167e-01, 2.99896598e-01,
          4.43434000e-01, 4.43434000e-01, 8.86639282e-02, 4.24912311e-02,
          4.43434000e-01, 4.43434000e-01, 2.87957340e-01, 1.62823528e-01,
          3.96994233e-01, 1.90564051e-01, 1.20796837e-01, 3.96994233e-01,
          3.96994233e-01, 3.96994233e-01, 2.80191600e-01, 2.80353367e-01,
          3.96994233e-01, 3.74346375e-01, 3.74346375e-01, 3.74346375e-01,
          3.74346375e-01, 1.40753686e-01, 2.03893989e-01, 3.74346375e-01,
          3.74346375e-01, 3.06699276e-01, 6.39503524e-02, 1.57332629e-01,
          4.15861219e-01, 4.15861219e-01, 4.15861219e-01, 2.68451840e-01,
          4.15861219e-01, 4.15861219e-01, 1.73877433e-01, 3.22343647e-01,
          7.03630373e-02, 9.06978473e-02, 5.03906727e-01, 5.03906727e-01,
          1.14163689e-01, 2.46494681e-01, 2.05732509e-01, 5.03906727e-01,
          4.49573368e-01, 1.85563639e-01, 7.58684948e-02, 1.86117992e-01,
          5.22479951e-01, 5.22479951e-01, 3.74222398e-01, 6.74347505e-02,
          1.65153131e-01 ]
      - [ 5.22179544e-01, 5.22179544e-01, 4.05417740e-01, 7.84402937e-02,
          2.48286109e-02, 5.80306798e-02, 4.72539403e-02, 6.11178856e-03,
          5.22179544e-01, 5.56705415e-01, 6.64649671e-03, 2.35679895e-02,
          5.74823320e-02, 5.56705415e-01, 2.41169453e-01, 4.93420176e-02,
          1.32991550e-02, 5.56705415e-01, 3.64542365e-01, 6.50475100e-02,
          1.19893596e-01, 1.43921882e-01, 2.83228993e-01, 2.60389801e-02,
          1.21734180e-01, 6.02518737e-01, 6.02518737e-01, 2.99799055e-01,
          3.51037443e-01, 4.88605231e-01, 4.88605231e-01, 4.52098660e-02,
          1.75847545e-01, 4.88605231e-01, 1.36030972e-01, 1.19739071e-01,
          4.04853493e-01, 4.04853493e-01, 1.23167418e-01, 1.14129342e-01,
          4.04853493e-01, 4.04853493e-01, 4.04853493e-01, 1.85038030e-01,
          3.37622583e-01, 3.61688703e-01, 3.61688703e-01, 3.61688703e-01,
          1.57180324e-01, 3.19085270e-01, 3.61688703e-01, 3.61688703e-01,
          3.61688703e-01, 2.91467041e-01, 4.34949622e-02, 4.89157699e-02,
          5.58326900e-01, 5.58326900e-01, 5.58326900e-01, 7.29420036e-02,
          1.49882063e-01, 1.03165217e-01, 1.28549621e-01, 4.74843264e-01,
          1.37066007e-01, 2.20373664e-02, 4.74843264e-01, 4.74843264e-01,
          4.74843264e-01, 1.06814869e-01, 8.61892179e-02, 2.35036239e-01,
          1.79028198e-01, 1.48906291e-01, 3.24686826e-03, 1.12210885e-02,
          6.45849407e-01, 6.72186852e-01, 2.64234334e-01, 1.16426125e-02,
          4.11495660e-03 ]
      - [ 4.41743344e-01, 3.29759628e-01, 3.44380438e-01, 4.84744459e-03,
          4.17054802e-01, 4.41743344e-01, 8.00349116e-02, 4.97285500e-02,
          4.41743344e-01, 5.24760425e-01, 1.72915105e-02, 1.64073315e-02,
          1.64604917e-01, 5.24760425e-01, 3.72427046e-01, 4.05471679e-03,
          4.75114845e-02, 5.24760425e-01, 3.54553610e-01, 8.55355337e-03,
          2.41203725e-01, 4.52167571e-01, 4.02529657e-01, 1.85359456e-02,
          1.89162642e-01, 4.52167571e-01, 4.52167571e-01, 1.88403517e-01,
          1.18636049e-01, 4.16491032e-01, 2.70420849e-01, 3.82180691e-01,
          4.16491032e-01, 4.16491032e-01, 4.16491032e-01, 1.82264850e-01,
          3.63737077e-01, 4.48145837e-01, 3.00906003e-01, 2.71935970e-01,
          4.48145837e-01, 4.48145837e-01, 8.92408192e-02, 2.39404052e-01,
          1.75906420e-01, 8.63892138e-02, 4.22168106e-01, 4.22168106e-01,
          3.66217136e-01, 1.67739376e-01, 3.23281556e-01, 4.22168106e-01,
          4.22168106e-01, 9.30243880e-02, 8.75578076e-02, 2.89785247e-02,
          4.74169970e-01, 4.74169970e-01, 2.84226030e-01, 1.30655710e-03,
          8.13818127e-02, 4.74169970e-01, 4.74169970e-01, 4.09467041e-01,
          4.09467041e-01, 4.49722819e-02, 2.93315679e-01, 4.09467041e-01,
          4.09467041e-01, 4.08074819e-02, 2.60521293e-01, 4.09467041e-01,
          4.23562497e-01, 5.03038943e-01, 1.31896958e-01, 0.,
          1.91530988e-01, 5.03038943e-01, 5.03038943e-01, 3.22680995e-02,
          3.61118391e-02 ]
      - [ 4.74129587e-01, 4.74129587e-01, 4.74129587e-01, 3.62822227e-02,
          5.32786846e-02, 4.74129587e-01, 2.99876541e-01, 1.03605241e-02,
          4.33665216e-02, 3.61213923e-01, 3.61213923e-01, 1.47155523e-01,
          3.61213923e-01, 3.61213923e-01, 3.61213923e-01, 2.80228257e-01,
          3.36683095e-01, 3.61213923e-01, 2.33906657e-02, 1.65928144e-03,
          3.47007841e-01, 5.05888641e-01, 8.80365372e-02, 6.88549690e-03,
          3.13712329e-01, 5.05888641e-01, 5.05888641e-01, 1.08630680e-01,
          4.44685549e-01, 4.44685549e-01, 2.15211347e-01, 5.98907657e-03,
          4.44685549e-01, 4.44685549e-01, 3.41874510e-01, 1.71891123e-01,
          1.35523051e-01, 3.91794652e-01, 3.91794652e-01, 3.91794652e-01,
          1.21939600e-01, 3.91794652e-01, 3.91794652e-01, 3.91794652e-01,
          2.04528466e-01, 4.23969142e-02, 4.38604444e-01, 4.38604444e-01,
          4.38604444e-01, 9.50661115e-03, 1.66467220e-01, 4.38604444e-01,
          4.38604444e-01, 6.44225627e-02, 3.19117643e-02, 3.83173376e-01,
          4.27326292e-01, 4.27326292e-01, 1.94125250e-01, 8.20369422e-02,
          2.70269096e-01, 4.27326292e-01, 4.27326292e-01, 3.76058549e-01,
          3.76058549e-01, 8.24379399e-02, 3.76058549e-01, 3.76058549e-01,
          3.76058549e-01, 1.68316364e-01, 3.35553914e-01, 3.76058549e-01,
          4.27735955e-01, 5.12964070e-01, 1.07132852e-01, 6.62934594e-03,
          8.90428498e-02, 5.12964070e-01, 5.12964070e-01, 4.43883166e-02,
          3.31997536e-02 ]
      - [ 4.74014580e-01, 4.74014580e-01, 4.74014580e-01, 5.66343777e-02,
          9.82489344e-03, 4.74014580e-01, 2.53087997e-01, 1.68354228e-01,
          2.83802990e-02, 3.61859292e-01, 3.61859292e-01, 2.41027519e-01,
          3.61859292e-01, 3.61859292e-01, 3.61859292e-01, 1.47293240e-01,
          3.61859292e-01, 3.61859292e-01, 6.87974617e-02, 9.16581750e-02,
          4.08763796e-01, 4.49474305e-01, 8.12435672e-02, 2.40628030e-02,
          4.49474305e-01, 4.49474305e-01, 4.49474305e-01, 6.62608445e-02,
          4.43143368e-01, 4.43143368e-01, 4.43143368e-01, 2.78630219e-02,
          1.41711801e-01, 4.29906458e-01, 4.43143368e-01, 7.05382612e-04,
          4.84474413e-02, 4.36034769e-01, 4.36034769e-01, 2.98219830e-01,
          5.30729443e-02, 3.75481308e-01, 4.36034769e-01, 4.36034769e-01,
          7.33471848e-03, 5.37874596e-03, 4.69261140e-01, 4.69261140e-01,
          7.46677965e-02, 3.55129666e-03, 3.29809099e-01, 4.69261140e-01,
          4.69261140e-01, 9.90488380e-03, 2.52859946e-02, 1.52227446e-01,
          5.70069849e-01, 5.70069849e-01, 9.75982174e-02, 9.04830638e-04,
          2.07507551e-01, 5.10993719e-01, 8.26771781e-02, 3.43882442e-01,
          3.43882442e-01, 3.43882442e-01, 3.43882442e-01, 3.43882442e-01,
          3.43882442e-01, 3.43882442e-01, 3.43882442e-01, 2.24773377e-01,
          1.60634428e-01, 5.51585138e-01, 1.45014837e-01, 4.71915817e-03,
          5.36361635e-02, 5.51585138e-01, 5.51585138e-01, 1.78711340e-01,
          9.16151144e-03 ]
      - [ 6.33080781e-01, 6.33080781e-01, 1.16960526e-01, 0.,
          1.15358708e-02, 3.60814512e-01, 2.06404969e-01, 4.17305268e-02,
          6.12557679e-02, 3.96796107e-01, 3.96796107e-01, 1.57704279e-01,
          2.70672083e-01, 3.96796107e-01, 3.96796107e-01, 2.49927893e-01,
          2.19549924e-01, 3.96796107e-01, 7.34450296e-02, 1.37123913e-01,
          4.55939770e-01, 4.06786591e-01, 2.77831554e-01, 5.02380170e-02,
          3.20024908e-01, 4.55939770e-01, 4.55939770e-01, 1.37517020e-01,
          4.17032152e-01, 4.17032152e-01, 3.46545696e-01, 6.72841817e-02,
          3.98904026e-01, 4.17032152e-01, 4.10737067e-01, 5.22045195e-02,
          7.37195760e-02, 3.96461427e-01, 3.96461427e-01, 2.78612286e-01,
          1.24183379e-01, 3.96461427e-01, 3.96461427e-01, 3.96461427e-01,
          3.34140986e-01, 1.99709348e-02, 4.57096666e-01, 4.57096666e-01,
          6.70836866e-02, 3.29173654e-02, 3.87500733e-01, 4.57096666e-01,
          4.57096666e-01, 5.95426671e-02, 0., 8.74415413e-02,
          4.37552840e-01, 4.37552840e-01, 4.37552840e-01, 3.49693179e-01,
          4.37552840e-01, 3.15920085e-01, 9.08432715e-03, 2.19367653e-01,
          3.07810277e-01, 3.96247327e-01, 3.96247327e-01, 2.61540502e-01,
          2.92422652e-01, 2.66852081e-01, 3.96247327e-01, 3.96247327e-01,
          1.47941709e-01, 5.19332349e-01, 9.25949886e-02, 1.35434598e-01,
          1.99428588e-01, 5.51207364e-01, 5.51207364e-01, 9.47024375e-02,
          1.39953166e-01 ]
      - [ 5.60228825e-01, 5.60228825e-01, 2.29776025e-01, 7.77824374e-04,
          1.14695076e-03, 5.77164697e-04, 5.90310479e-03, 1.53397652e-03,
          5.60228825e-01, 5.32973409e-01, 5.32973409e-01, 3.83130051e-02,
          8.80813301e-02, 2.03188211e-01, 2.88402081e-01, 5.59063815e-02,
          7.53832012e-02, 5.32973409e-01, 4.91130352e-01, 1.05935531e-02,
          8.58483464e-02, 1.03263788e-01, 1.00584850e-01, 4.46739793e-02,
          4.91130352e-01, 4.91130352e-01, 4.91130352e-01, 4.05555964e-01,
          4.98545140e-01, 4.98545140e-01, 4.98545140e-01, 2.72675809e-02,
          2.28768252e-02, 2.14667261e-01, 6.24372549e-02, 1.83456346e-01,
          4.05285329e-01, 4.05285329e-01, 2.39397600e-01, 2.32569709e-01,
          2.31140599e-01, 4.05285329e-01, 4.05285329e-01, 3.12510282e-01,
          2.76474059e-01, 2.64800310e-01, 4.16488230e-01, 4.71884340e-01,
          1.88656121e-01, 9.71126556e-02, 3.07610422e-01, 4.71884340e-01,
          4.03671205e-01, 6.13093413e-02, 5.46404440e-03, 1.86798628e-02,
          5.81174552e-01, 6.98664248e-01, 4.06898826e-01, 2.81232991e-03,
          2.81808004e-02, 1.91979092e-02, 3.74826044e-03, 3.59542221e-01,
          1.37608781e-01, 4.54617180e-02, 4.70453411e-01, 4.70453411e-01,
          4.70453411e-01, 3.06998163e-01, 1.39154509e-01, 2.59684741e-01,
          1.11751564e-01, 8.55697468e-02, 3.07629239e-02, 3.28728966e-02,
          5.66616356e-01, 5.66616356e-01, 5.66616356e-01, 9.35475603e-02,
          2.43099369e-02 ]
      - [ 6.02746308e-01, 6.02746308e-01, 5.12233377e-01, 4.09254513e-04,
          5.40019944e-04, 7.48164067e-03, 3.60736102e-02, 2.96307448e-03,
          6.02148548e-02, 3.91034096e-01, 3.91034096e-01, 2.71165490e-01,
          1.66270643e-01, 3.91034096e-01, 3.91034096e-01, 2.89114565e-01,
          2.16313124e-01, 3.91034096e-01, 1.54561386e-01, 1.06150042e-02,
          2.02024639e-01, 1.11992940e-01, 1.09068125e-01, 3.40989083e-02,
          4.27729011e-01, 6.00265443e-01, 6.00265443e-01, 4.69783068e-01,
          4.69783068e-01, 4.69783068e-01, 4.69783068e-01, 9.58347395e-02,
          2.76906509e-02, 2.82072037e-01, 1.37454063e-01, 6.41391501e-02,
          9.58044305e-02, 3.67021978e-01, 3.93963426e-01, 1.91079244e-01,
          1.99081257e-01, 3.93963426e-01, 3.93963426e-01, 3.93963426e-01,
          3.93963426e-01, 5.22920452e-02, 3.89707118e-01, 5.08386016e-01,
          1.47701770e-01, 5.21362685e-02, 1.70466244e-01, 5.08386016e-01,
          5.08386016e-01, 1.06559046e-01, 1.69739331e-04, 2.96242218e-02,
          3.63599569e-01, 6.55520916e-01, 6.55520916e-01, 1.86129217e-03,
          1.77663267e-02, 2.51557380e-02, 2.44879210e-03, 1.96799666e-01,
          1.73981860e-01, 9.05709118e-02, 4.98874038e-01, 4.98874038e-01,
          1.21206313e-01, 8.52973089e-02, 3.87634069e-01, 4.97832686e-01,
          1.17862687e-01, 2.17289597e-01, 1.48165137e-01, 1.24728203e-01,
          5.34028590e-01, 5.34028590e-01, 5.34028590e-01, 1.67856738e-01,
          1.10972844e-01 ]
      - [ 6.81391358e-01, 6.81391358e-01, 5.43473437e-02, 0.,
          7.65216053e-02, 1.25809267e-01, 1.49386242e-01, 3.20574567e-02,
          1.28950670e-01, 4.74683523e-01, 3.51872623e-01, 5.20966761e-03,
          1.42931581e-01, 4.74683523e-01, 4.05254751e-01, 8.57302994e-02,
          5.85943386e-02, 4.74683523e-01, 2.95158863e-01, 0.,
          1.24112479e-01, 4.65783417e-01, 3.92506629e-01, 2.77165212e-02,
          7.93986470e-02, 5.07111788e-01, 5.07111788e-01, 3.95842642e-01,
          3.95842642e-01, 3.95842642e-01, 3.95842642e-01, 3.38010818e-01,
          2.08336651e-01, 3.05735350e-01, 3.27141345e-01, 1.05493374e-01,
          3.18199694e-01, 1.01289555e-01, 3.10055725e-02, 3.87384415e-01,
          3.87384415e-01, 3.87384415e-01, 3.65136415e-01, 3.87384415e-01,
          3.87384415e-01, 3.37427646e-01, 3.37427646e-01, 3.37427646e-01,
          3.37427646e-01, 3.32054019e-01, 2.98942834e-01, 3.37427646e-01,
          3.37427646e-01, 3.37427646e-01, 1.91430983e-04, 6.65920451e-02,
          3.44582886e-01, 5.55622280e-01, 5.55622280e-01, 5.00085056e-01,
          5.18998364e-03, 5.63257933e-02, 2.37233024e-02, 1.68919027e-01,
          1.29710520e-02, 1.71387766e-03, 5.40486038e-01, 5.40486038e-01,
          2.01046422e-01, 9.27409157e-03, 2.21396998e-01, 5.40486038e-01,
          4.16303873e-01, 2.64333874e-01, 7.12735653e-02, 1.75052732e-01,
          5.16063929e-01, 5.16063929e-01, 3.14618319e-01, 4.26282324e-02,
          2.87220478e-01 ]
      - [ 6.94596708e-01, 6.94596708e-01, 1.42885344e-02, 0.,
          7.47391582e-03, 4.82857414e-02, 6.86520385e-03, 0.,
          1.59681827e-01, 5.43409348e-01, 3.45271349e-01, 8.64131656e-03,
          3.73240709e-02, 3.10071915e-01, 4.31424052e-01, 5.36239427e-03,
          3.17143276e-02, 5.43409348e-01, 4.93706703e-01, 2.66989656e-02,
          1.68136641e-01, 2.46175319e-01, 3.52097273e-01, 1.24455325e-01,
          1.86503544e-01, 4.93706703e-01, 4.93706703e-01, 3.85779321e-01,
          3.85779321e-01, 3.85779321e-01, 3.85779321e-01, 3.85779321e-01,
          2.43916735e-01, 3.62415344e-01, 2.44606763e-01, 3.66749503e-02,
          3.37405890e-01, 2.89665073e-01, 1.50688812e-01, 1.34799749e-01,
          4.33466733e-01, 4.33466733e-01, 4.33466733e-01, 4.33466733e-01,
          7.39586055e-02, 6.39594644e-02, 4.05072451e-01, 4.05072451e-01,
          3.20778459e-01, 2.88758546e-01, 3.77813101e-01, 4.05072451e-01,
          4.05072451e-01, 8.06533247e-02, 0., 9.41721629e-03,
          5.65905511e-01, 5.65905511e-01, 4.54137176e-01, 1.71052385e-02,
          1.76352292e-01, 3.38235557e-01, 4.15392630e-02, 3.67433399e-01,
          3.54724705e-01, 1.87820956e-01, 3.67433399e-01, 3.67433399e-01,
          3.25071514e-01, 2.33484015e-01, 3.67433399e-01, 3.67433399e-01,
          3.85943949e-01, 5.02758384e-01, 1.73337936e-01, 1.87621526e-02,
          2.25582540e-01, 5.02758384e-01, 5.02758384e-01, 4.20542099e-02,
          6.83674887e-02 ]
      - [ 4.83065695e-01, 4.83065695e-01, 2.77397305e-01, 5.03279211e-04,
          2.34372735e-01, 2.99272716e-01, 2.66833544e-01, 4.97319736e-02,
          4.83065695e-01, 4.08332169e-01, 3.78963023e-01, 2.58795142e-01,
          2.98632830e-01, 4.08332169e-01, 4.08332169e-01, 1.62302554e-01,
          5.35593592e-02, 4.08332169e-01, 3.50042254e-01, 1.48856968e-01,
          4.18544918e-01, 4.18544918e-01, 1.68445945e-01, 5.08050583e-02,
          3.45624626e-01, 4.18544918e-01, 4.18544918e-01, 1.57897830e-01,
          3.52615148e-01, 3.98782641e-01, 3.98782641e-01, 2.24308819e-01,
          2.80589491e-01, 3.98782641e-01, 3.98782641e-01, 2.85642534e-01,
          3.85381520e-01, 3.85381520e-01, 2.34485745e-01, 1.36050493e-01,
          3.85381520e-01, 3.85381520e-01, 1.77603796e-01, 3.85381520e-01,
          3.85381520e-01, 3.09056640e-01, 4.26091254e-01, 4.26091254e-01,
          2.02769965e-01, 1.00810401e-01, 3.44459265e-01, 4.26091254e-01,
          4.26091254e-01, 6.38910308e-02, 6.15952685e-02, 1.06363799e-02,
          4.60320741e-01, 5.88102758e-01, 5.47012806e-01, 2.72965822e-02,
          1.83685664e-02, 2.82087266e-01, 2.29307458e-01, 4.42975491e-01,
          7.50361159e-02, 2.52682008e-02, 4.42975491e-01, 4.42975491e-01,
          4.42975491e-01, 1.28385471e-03, 9.03779939e-02, 4.42975491e-01,
          2.64499426e-01, 2.65446067e-01, 1.64048504e-02, 3.92934261e-03,
          5.32322764e-01, 5.32322764e-01, 5.32322764e-01, 2.00048834e-02,
          5.89496046e-02 ]
      - [ 5.25220335e-01, 5.25220335e-01, 4.72157001e-02, 1.94392621e-03,
          2.34297439e-01, 5.25220335e-01, 3.06859583e-01, 4.73844409e-02,
          1.16829261e-01, 4.34182078e-01, 1.44194499e-01, 1.73193708e-01,
          4.34182078e-01, 4.34182078e-01, 4.34182078e-01, 4.09710407e-02,
          2.50156298e-02, 4.34182078e-01, 3.59879404e-01, 2.83638816e-02,
          3.18728834e-01, 3.51305842e-01, 1.03476271e-01, 7.32738525e-03,
          4.58018392e-01, 4.58018392e-01, 4.58018392e-01, 1.51492417e-01,
          3.78410071e-01, 3.78410071e-01, 3.78410071e-01, 2.62270212e-01,
          3.78410071e-01, 3.78410071e-01, 3.78410071e-01, 2.12882489e-01,
          6.35560080e-02, 3.73680204e-01, 3.73680204e-01, 3.73680204e-01,
          3.73680204e-01, 3.73680204e-01, 2.16245860e-01, 3.73680204e-01,
          3.28091055e-01, 2.75287963e-02, 4.72609669e-01, 4.72609669e-01,
          1.69692606e-01, 2.03303192e-02, 2.68008173e-01, 4.72609669e-01,
          4.72609669e-01, 6.68895012e-03, 0., 2.39860956e-02,
          5.52718103e-01, 5.52718103e-01, 1.84085160e-01, 4.03037481e-03,
          3.05259898e-02, 5.52718103e-01, 2.06344649e-01, 3.17927718e-01,
          3.66198719e-01, 2.95541286e-01, 3.66198719e-01, 3.66198719e-01,
          3.66198719e-01, 5.75303435e-02, 3.66198719e-01, 3.66198719e-01,
          1.15977772e-01, 5.49684882e-01, 2.01541305e-01, 6.11285074e-03,
          1.66269064e-01, 5.49684882e-01, 5.49684882e-01, 6.44009635e-02,
          4.63728160e-02 ]
      - [ 6.55673742e-01, 6.55673742e-01, 7.46884104e-03, 0.,
          5.15766256e-02, 7.02330843e-02, 2.50767190e-02, 1.04222363e-02,
          3.53909403e-01, 6.00492895e-01, 8.00522193e-02, 3.77056701e-03,
          9.61065069e-02, 4.87610459e-01, 1.38730630e-01, 9.29730106e-03,
          8.06770008e-03, 6.00492895e-01, 5.64984560e-01, 9.16035660e-03,
          2.78438739e-02, 1.05323121e-01, 1.41953990e-01, 3.11363512e-03,
          6.79902360e-02, 5.64984560e-01, 5.64984560e-01, 3.68702322e-01,
          3.68702322e-01, 3.68702322e-01, 3.68702322e-01, 3.68702322e-01,
          3.68702322e-01, 3.38568807e-01, 2.36134976e-01, 1.01387024e-01,
          3.79062474e-01, 2.75977343e-01, 1.22731358e-01, 3.79062474e-01,
          3.79062474e-01, 3.79062474e-01, 2.07017779e-01, 3.79062474e-01,
          3.79062474e-01, 2.35380128e-01, 3.52296531e-01, 3.52296531e-01,
          3.07397276e-01, 3.19227666e-01, 3.52296531e-01, 3.52296531e-01,
          3.52296531e-01, 3.52296531e-01, 1.97089091e-03, 8.11400414e-02,
          3.33786547e-01, 5.28761566e-01, 5.28761566e-01, 5.28761566e-01,
          1.77814022e-01, 6.61758631e-02, 4.42157425e-02, 2.62074143e-01,
          1.06547803e-01, 4.10376340e-02, 4.81930107e-01, 4.81930107e-01,
          4.19787198e-01, 2.37520337e-02, 1.99779481e-01, 4.81930107e-01,
          1.87704384e-01, 2.18113035e-01, 5.83665445e-02, 9.09469426e-02,
          5.45605719e-01, 5.45605719e-01, 5.45605719e-01, 1.75924860e-02,
          8.18585157e-02 ]
      - [ 5.72077930e-01, 5.72077930e-01, 4.16926742e-02, 0.,
          1.83059543e-01, 5.25992572e-01, 1.46479532e-01, 1.87546667e-02,
          7.75621906e-02, 4.32870001e-01, 3.16334963e-01, 5.92102483e-02,
          3.74690056e-01, 4.32870001e-01, 4.32870001e-01, 2.94978470e-02,
          3.65199558e-02, 4.32870001e-01, 2.23944500e-01, 9.17579699e-03,
          3.30076396e-01, 4.39066797e-01, 2.40946025e-01, 8.51748809e-02,
          4.39066797e-01, 4.39066797e-01, 4.39066797e-01, 3.42583954e-01,
          3.60028416e-01, 3.60028416e-01, 3.14434439e-01, 3.60028416e-01,
          3.60028416e-01, 3.60028416e-01, 3.60028416e-01, 4.94698361e-02,
          1.72964439e-01, 3.12567741e-01, 3.72909874e-01, 3.43457073e-01,
          3.72909874e-01, 3.72909874e-01, 3.72909874e-01, 3.72909874e-01,
          2.35345095e-01, 5.50166070e-02, 4.44868147e-01, 4.44868147e-01,
          4.44868147e-01, 2.61551123e-02, 4.61093783e-02, 4.44868147e-01,
          4.44868147e-01, 1.34502519e-02, 2.54443008e-02, 1.04151011e-01,
          4.92353827e-01, 4.92353827e-01, 2.77332634e-01, 4.15577218e-02,
          1.91828266e-01, 4.92353827e-01, 3.75382930e-01, 4.18163121e-01,
          2.71153659e-01, 6.76366165e-02, 4.18163121e-01, 4.18163121e-01,
          1.95682541e-01, 7.16250911e-02, 4.18163121e-01, 4.18163121e-01,
          4.68592465e-01, 4.68592465e-01, 1.27432406e-01, 1.29189538e-02,
          2.57187724e-01, 4.68592465e-01, 4.68592465e-01, 1.44166261e-01,
          1.16913192e-01 ]
      - [ 4.89616364e-01, 5.73091447e-01, 5.04846632e-01, 0., 0.,
          3.07315290e-01, 2.48987198e-01, 1.18098207e-01, 2.94057559e-02,
          3.45227212e-01, 3.45227212e-01, 3.45227212e-01, 3.45227212e-01,
          2.07596511e-01, 3.45227212e-01, 3.45227212e-01, 3.45227212e-01,
          3.45227212e-01, 6.41674995e-02, 5.41445287e-03, 3.47952664e-01,
          2.34284461e-01, 4.35803309e-02, 0., 6.06935441e-01,
          6.06935441e-01, 2.74212301e-01, 3.05322614e-02, 4.88119662e-01,
          4.88119662e-01, 3.89489353e-01, 1.21304737e-02, 1.69607922e-01,
          4.79270011e-01, 3.27221096e-01, 1.67828426e-02, 2.36765668e-02,
          4.05911058e-01, 4.05911058e-01, 4.05911058e-01, 1.83317624e-02,
          4.05911058e-01, 4.05911058e-01, 4.05911058e-01, 8.04086775e-02,
          7.72012491e-03, 2.31693760e-01, 5.44422805e-01, 2.24258482e-01,
          2.11210037e-03, 3.64588797e-02, 5.44422805e-01, 5.44422805e-01,
          2.77167838e-03, 0., 2.46631697e-01, 5.76983154e-01,
          5.76983154e-01, 1.84063479e-01, 5.16056828e-02, 2.10964516e-01,
          4.28820968e-01, 5.15412353e-02, 2.97441393e-01, 3.36927712e-01,
          3.36927712e-01, 3.36927712e-01, 3.36927712e-01, 3.36927712e-01,
          3.36927712e-01, 3.36927712e-01, 3.36927712e-01, 1.22127935e-01,
          5.34038723e-01, 1.69619024e-01, 1.25114368e-02, 1.22104153e-01,
          5.34038723e-01, 5.34038723e-01, 2.79079288e-01, 4.93735261e-02 ]
      - [ 6.37084186e-01, 6.37084186e-01, 1.17269255e-01, 7.33729675e-02,
          1.14607118e-01, 2.36515820e-01, 1.25466421e-01, 2.68259235e-02,
          2.77876049e-01, 5.11792362e-01, 6.94397092e-02, 1.53115606e-02,
          2.65228122e-01, 5.11792362e-01, 3.62726152e-01, 4.45576161e-02,
          1.16909072e-02, 5.11792362e-01, 4.91084307e-01, 2.21776962e-02,
          1.34457961e-01, 3.27631950e-01, 2.10956141e-01, 6.81343209e-03,
          2.22567171e-01, 5.16564906e-01, 5.16564906e-01, 3.75156969e-01,
          3.41975182e-01, 3.75156969e-01, 3.75156969e-01, 3.02208781e-01,
          2.75911182e-01, 3.75156969e-01, 3.75156969e-01, 9.01895463e-02,
          3.47445935e-01, 3.47445935e-01, 1.75439641e-01, 3.47445935e-01,
          3.47445935e-01, 3.47445935e-01, 3.47445935e-01, 3.47445935e-01,
          3.47445935e-01, 2.05579922e-01, 3.82620454e-01, 3.82620454e-01,
          3.82620454e-01, 1.98106408e-01, 3.82620454e-01, 3.82620454e-01,
          3.82620454e-01, 1.90466896e-01, 5.61023392e-02, 8.43916535e-02,
          5.53902328e-01, 5.53902328e-01, 4.48126704e-01, 0.,
          8.65065828e-02, 3.45749676e-01, 2.06736222e-01, 4.20155853e-01,
          2.28905141e-01, 1.02639988e-01, 4.20155853e-01, 4.20155853e-01,
          4.20155853e-01, 5.27448170e-02, 2.17792571e-01, 4.20155853e-01,
          2.55578548e-01, 3.82481188e-01, 1.90770123e-02, 3.14506097e-03,
          4.23754066e-01, 5.48317790e-01, 5.48317790e-01, 8.41789506e-03,
          3.99402194e-02 ]
      - [ 5.58997929e-01, 5.58997929e-01, 5.58997929e-01, 1.42614432e-02,
          1.44871026e-01, 1.06936410e-01, 4.24129739e-02, 3.06676254e-02,
          1.47024050e-01, 4.28057045e-01, 4.26923513e-01, 1.93538487e-01,
          5.78316040e-02, 3.00902128e-01, 3.59703004e-01, 5.50622493e-02,
          4.28057045e-01, 4.28057045e-01, 1.45611435e-01, 3.02394386e-02,
          1.43496275e-01, 5.42461909e-02, 9.30139273e-02, 3.32223475e-02,
          5.59466064e-01, 5.59466064e-01, 5.59466064e-01, 1.55559406e-01,
          5.61494291e-01, 5.61494291e-01, 7.03845993e-02, 2.37851385e-02,
          4.84390318e-01, 2.46455058e-01, 1.88579395e-01, 5.64501062e-02,
          3.96153539e-01, 4.08382326e-01, 4.08382326e-01, 8.93044621e-02,
          2.96120167e-01, 4.08382326e-01, 3.85998935e-01, 2.61538088e-01,
          1.59983233e-01, 2.57307533e-02, 3.83342505e-01, 3.14324319e-01,
          3.53431702e-02, 5.32767884e-02, 4.73271847e-01, 4.97998208e-01,
          4.97998208e-01, 1.56635940e-01, 9.74764675e-02, 3.04056764e-01,
          5.25929272e-01, 5.25929272e-01, 5.14301538e-01, 3.42016555e-02,
          7.09094182e-02, 1.92452297e-01, 1.78466469e-01, 3.78084928e-01,
          3.78084928e-01, 2.47895062e-01, 3.78084928e-01, 3.78084928e-01,
          3.78084928e-01, 3.78084928e-01, 1.46006986e-01, 2.36142680e-01,
          5.25636710e-02, 2.04072833e-01, 2.41374020e-02, 8.11864156e-03,
          1.91861227e-01, 6.74095094e-01, 6.74095094e-01, 5.09328097e-02,
          0. ]
      - [ 4.92017508e-01, 4.92017508e-01, 4.92017508e-01, 3.38177048e-02,
          1.42956302e-02, 6.82883561e-02, 4.23326671e-01, 1.52740031e-01,
          2.45552197e-01, 3.40027004e-01, 3.40027004e-01, 3.40027004e-01,
          3.40027004e-01, 3.40027004e-01, 2.67686009e-01, 3.40027004e-01,
          3.40027004e-01, 3.40027004e-01, 7.33900368e-02, 5.84072880e-02,
          4.25107569e-01, 4.25107569e-01, 2.88313240e-01, 1.57850292e-02,
          4.25107569e-01, 4.25107569e-01, 4.25107569e-01, 8.95316675e-02,
          4.45172369e-01, 4.45172369e-01, 4.06054348e-01, 1.91620495e-02,
          2.67992646e-01, 4.45172369e-01, 3.90775323e-01, 5.68270348e-02,
          2.60163397e-01, 3.85818541e-01, 3.85818541e-01, 1.49748161e-01,
          1.13579802e-01, 3.85818541e-01, 3.85818541e-01, 3.85818541e-01,
          3.85818541e-01, 1.05766661e-01, 4.74117249e-01, 4.74117249e-01,
          7.63630643e-02, 3.41819040e-02, 2.77460605e-01, 4.74117249e-01,
          4.74117249e-01, 3.07405423e-02, 1.00644026e-02, 1.18799359e-01,
          5.85135639e-01, 5.85135639e-01, 1.58665523e-01, 3.55428681e-02,
          9.14960653e-02, 4.56259161e-01, 2.28458136e-01, 4.01201785e-01,
          2.07958087e-01, 1.41536072e-01, 4.01201785e-01, 4.01201785e-01,
          3.10689181e-01, 1.77117839e-01, 4.01201785e-01, 4.01201785e-01,
          4.61425573e-01, 4.82605338e-01, 7.63363168e-02, 8.00144374e-02,
          1.74362913e-01, 4.90134865e-01, 4.90134865e-01, 9.65992212e-02,
          1.29828379e-01 ]
      - [ 5.59164703e-01, 5.59164703e-01, 2.32666656e-02, 0.,
          2.16181770e-01, 5.59164703e-01, 9.02039260e-02, 0.,
          3.17494571e-02, 4.10019010e-01, 2.61438787e-01, 3.82221907e-01,
          2.55247086e-01, 4.10019010e-01, 4.10019010e-01, 3.18678804e-02,
          2.06957161e-01, 4.10019010e-01, 9.39759463e-02, 7.38283023e-02,
          4.79787081e-01, 1.79535806e-01, 1.63889542e-01, 3.24130021e-02,
          4.79787081e-01, 4.79787081e-01, 4.79787081e-01, 2.18474999e-01,
          3.92939925e-01, 3.65584940e-01, 1.83226153e-01, 9.54469368e-02,
          3.92939925e-01, 3.92939925e-01, 3.92939925e-01, 3.92939925e-01,
          3.68301451e-01, 4.54440981e-01, 4.54440981e-01, 1.10034257e-01,
          3.30319315e-01, 4.54440981e-01, 5.32277524e-02, 7.38166422e-02,
          3.32813203e-01, 3.57542485e-02, 4.75090832e-01, 4.75090832e-01,
          4.35477719e-02, 1.48735438e-02, 2.98293918e-01, 4.75090832e-01,
          4.75090832e-01, 5.85389230e-03, 1.11287713e-01, 1.82169490e-02,
          2.14090437e-01, 5.15345037e-01, 5.15345037e-01, 2.15301141e-02,
          9.30932164e-02, 3.61151338e-01, 5.15345037e-01, 4.02714729e-01,
          4.02714729e-01, 1.04069203e-01, 4.02714729e-01, 4.02714729e-01,
          4.02714729e-01, 5.47472276e-02, 9.52587649e-02, 4.02714729e-01,
          9.69696566e-02, 3.87377352e-01, 7.03268126e-02, 3.24251363e-03,
          1.95919365e-01, 6.27489507e-01, 6.27489507e-01, 5.82297519e-02,
          7.26952823e-03 ]
      - [ 6.01094425e-01, 6.01094425e-01, 2.98756778e-01, 1.89075470e-02,
          1.44320756e-01, 3.50362986e-01, 8.62834230e-02, 0.,
          1.75295338e-01, 4.33866084e-01, 4.33866084e-01, 1.66510209e-01,
          8.58577415e-02, 4.05426472e-01, 4.33866084e-01, 8.99613649e-02,
          1.87472850e-01, 4.33866084e-01, 1.38881192e-01, 8.60505626e-02,
          2.70731449e-01, 1.38379365e-01, 3.67833078e-01, 2.18463555e-01,
          2.49753669e-01, 5.61183870e-01, 5.61183870e-01, 2.27287695e-01,
          4.65218693e-01, 4.65218693e-01, 8.63012075e-02, 1.77141801e-01,
          4.65218693e-01, 4.65218693e-01, 1.71298295e-01, 9.90434289e-02,
          3.03773880e-01, 4.87773240e-01, 3.58209223e-01, 3.87973487e-02,
          1.87049240e-01, 4.87773240e-01, 4.87773240e-01, 2.27411129e-02,
          1.54136002e-01, 1.16999596e-01, 4.41938311e-01, 4.41938311e-01,
          8.63718092e-02, 1.73191920e-01, 4.01041329e-01, 4.41938311e-01,
          4.41938311e-01, 4.86725569e-02, 2.80311882e-01, 1.51984438e-01,
          4.35580641e-01, 4.35580641e-01, 4.35580641e-01, 1.22371554e-01,
          3.21683764e-01, 1.99656799e-01, 4.08001870e-01, 4.43207413e-01,
          3.07093024e-01, 4.25300188e-02, 2.17547685e-01, 4.43207413e-01,
          4.43207413e-01, 2.51002222e-01, 5.82883731e-02, 4.43207413e-01,
          3.61920357e-01, 4.59814399e-01, 1.11610845e-01, 9.03563981e-04,
          4.59814399e-01, 4.59814399e-01, 4.59814399e-01, 5.99347502e-02,
          5.15139885e-02 ]
      - [ 6.50299013e-01, 6.50299013e-01, 0., 0., 3.08355968e-02,
          9.45224520e-03, 0., 0., 3.83000940e-01, 6.62404776e-01,
          2.13002324e-01, 0., 4.37531136e-02, 1.71403065e-01,
          1.92615062e-01, 3.90295386e-02, 2.32272409e-02, 6.62404776e-01,
          5.37901938e-01, 6.10062061e-03, 4.61392626e-02, 2.68496245e-01,
          1.52998984e-01, 1.01875246e-01, 1.36269167e-01, 5.37901938e-01,
          5.37901938e-01, 4.28995848e-01, 4.28995848e-01, 2.83228159e-01,
          4.28995848e-01, 4.28995848e-01, 3.94215405e-01, 1.02732256e-01,
          8.07058439e-02, 8.29063952e-02, 4.07111496e-01, 1.46594018e-01,
          4.92270552e-02, 4.07111496e-01, 4.07111496e-01, 4.07111496e-01,
          1.62293911e-01, 3.42025757e-01, 4.07111496e-01, 3.39672983e-01,
          3.06316644e-01, 3.39672983e-01, 3.39672983e-01, 3.08434933e-01,
          3.39672983e-01, 3.39672983e-01, 3.39672983e-01, 3.39672983e-01,
          4.27767634e-02, 1.11956313e-01, 2.49386057e-01, 5.51620722e-01,
          5.51620722e-01, 5.51620722e-01, 5.33071198e-02, 4.20148820e-02,
          2.16978900e-02, 2.21096903e-01, 1.92155782e-02, 2.22636852e-02,
          5.65661609e-01, 5.65661609e-01, 2.91708052e-01, 1.89286452e-02,
          1.22365214e-01, 4.51919675e-01, 3.45452905e-01, 1.17367975e-01,
          7.83907846e-02, 1.36931956e-01, 5.27227044e-01, 5.27227044e-01,
          5.06866992e-01, 4.61530313e-02, 1.47462621e-01 ]
      - [ 5.28441429e-01, 5.28441429e-01, 5.28441429e-01, 0.,
          7.51396595e-03, 1.58085138e-01, 1.49960756e-01, 1.08204009e-02,
          3.30634028e-01, 3.43514830e-01, 3.43514830e-01, 3.07915896e-01,
          3.43514830e-01, 3.43514830e-01, 3.43514830e-01, 2.96294898e-01,
          3.25500131e-01, 3.43514830e-01, 6.35077283e-02, 1.97935547e-03,
          3.25187564e-01, 4.16966140e-01, 9.86503661e-02, 4.67280783e-02,
          3.79772276e-01, 5.42689562e-01, 5.10177851e-01, 4.23635721e-01,
          4.23635721e-01, 4.23635721e-01, 4.23635721e-01, 3.26599984e-04,
          1.46384224e-01, 4.23635721e-01, 2.07196116e-01, 1.84589729e-01,
          1.91640258e-01, 3.84300590e-01, 3.88837129e-01, 3.88837129e-01,
          5.90800419e-02, 3.88837129e-01, 3.88837129e-01, 3.88837129e-01,
          2.28561357e-01, 6.71639740e-02, 4.40085322e-01, 4.40085322e-01,
          4.37888652e-01, 9.32660885e-03, 1.56251028e-01, 4.40085322e-01,
          4.40085322e-01, 1.20335314e-02, 1.60520617e-02, 4.65111285e-02,
          6.19926691e-01, 6.19926691e-01, 1.98827967e-01, 1.46390935e-02,
          1.99925467e-01, 3.56053948e-01, 1.27592042e-01, 3.80005836e-01,
          3.46406251e-01, 9.35976207e-02, 3.80005836e-01, 3.80005836e-01,
          3.54895502e-01, 1.39544979e-01, 3.80005836e-01, 3.80005836e-01,
          3.31759840e-01, 5.19745052e-01, 1.59985676e-01, 3.78267728e-02,
          1.59726009e-01, 5.19745052e-01, 5.19745052e-01, 1.14791550e-01,
          9.28666517e-02 ]
      - [ 5.11894405e-01, 5.11894405e-01, 5.11894405e-01, 2.59760499e-01,
          5.37424497e-02, 2.16630682e-01, 1.54918745e-01, 2.83281766e-02,
          2.58234710e-01, 4.02499348e-01, 1.29444405e-01, 5.85610233e-02,
          3.71284246e-01, 4.02499348e-01, 3.27091396e-01, 4.02499348e-01,
          2.87975818e-01, 4.02499348e-01, 1.22580819e-01, 1.72387471e-03,
          2.21509308e-01, 4.80526537e-01, 4.80526537e-01, 1.81920584e-02,
          8.45648423e-02, 4.80526537e-01, 4.80526537e-01, 1.83781087e-01,
          4.69574988e-01, 4.69574988e-01, 1.43978953e-01, 5.02806529e-02,
          4.69574988e-01, 4.69574988e-01, 1.87746421e-01, 1.44999221e-01,
          7.90975839e-02, 1.23346314e-01, 9.25933421e-02, 4.12818432e-01,
          4.23658192e-01, 4.23658192e-01, 4.23658192e-01, 4.23658192e-01,
          2.78135777e-01, 1.54850945e-01, 4.11960900e-01, 4.11960900e-01,
          4.11960900e-01, 2.59583473e-01, 2.25779325e-01, 4.11960900e-01,
          4.11960900e-01, 7.06200004e-02, 1.98764615e-02, 1.67576343e-01,
          4.34305191e-01, 4.34305191e-01, 3.06617647e-01, 6.71140775e-02,
          3.37908447e-01, 4.34305191e-01, 4.34305191e-01, 4.36890274e-01,
          8.38065594e-02, 8.96831695e-03, 4.36890274e-01, 4.36890274e-01,
          1.32141367e-01, 1.29247814e-01, 4.36890274e-01, 4.36890274e-01,
          4.56174523e-01, 4.56174523e-01, 8.38224590e-02, 2.65556723e-02,
          3.63165408e-01, 4.56174523e-01, 4.56174523e-01, 2.33644396e-02,
          1.51315153e-01 ]
      - [ 5.72938919e-01, 5.72938919e-01, 5.72938919e-01, 0., 0.,
          1.60519369e-02, 7.27000684e-02, 2.97869295e-02, 5.54217435e-02,
          3.74586314e-01, 3.45092356e-01, 2.88996339e-01, 2.01810360e-01,
          3.16984266e-01, 3.74586314e-01, 3.72984588e-01, 3.03942859e-01,
          3.74586314e-01, 1.80676922e-01, 4.96502556e-02, 5.01813233e-01,
          2.01763496e-01, 1.29174292e-01, 1.05957784e-01, 3.68520856e-01,
          5.01813233e-01, 5.01813233e-01, 4.63312939e-02, 5.63447654e-01,
          5.63447654e-01, 4.20858502e-01, 0., 1.63942561e-01,
          3.78107429e-01, 1.00870110e-01, 1.18893748e-02, 9.57311243e-02,
          4.40833181e-01, 4.40833181e-01, 9.28253457e-02, 7.09449574e-02,
          4.40833181e-01, 4.40833181e-01, 4.40833181e-01, 3.33581567e-02,
          3.65392864e-02, 4.77470011e-01, 4.77470011e-01, 8.19983184e-02,
          2.01760177e-02, 2.72422075e-01, 4.77470011e-01, 4.77470011e-01,
          2.53140107e-02, 0., 1.83191761e-01, 5.77875793e-01,
          5.77875793e-01, 2.00091764e-01, 3.42696309e-02, 4.50572520e-01,
          2.16799393e-01, 3.95098180e-02, 3.66202831e-01, 3.66202831e-01,
          1.79839000e-01, 3.66202831e-01, 3.66202831e-01, 3.66202831e-01,
          3.66202831e-01, 3.66202831e-01, 1.58957884e-01, 2.21317813e-01,
          5.26276469e-01, 2.22113550e-01, 4.23898511e-02, 2.28975847e-01,
          5.26276469e-01, 5.26276469e-01, 1.06191322e-01, 4.88335639e-03 ]
      - [ 6.09711587e-01, 6.09711587e-01, 8.50813314e-02, 1.43101057e-02,
          3.14187020e-01, 2.36881599e-01, 1.18262144e-02, 0.,
          2.96658188e-01, 4.82237160e-01, 2.25465164e-01, 5.55068739e-02,
          8.13204497e-02, 4.82237160e-01, 4.82237160e-01, 0.,
          6.66649714e-02, 4.82237160e-01, 3.22848618e-01, 1.29280120e-01,
          1.97436735e-01, 1.49455518e-01, 2.53221542e-01, 1.00195855e-01,
          4.96192545e-01, 4.96192545e-01, 4.96192545e-01, 3.67480755e-01,
          2.72962064e-01, 3.64398748e-01, 3.67480755e-01, 3.67480755e-01,
          3.67480755e-01, 3.17309707e-01, 1.14621043e-01, 3.67480755e-01,
          4.38905925e-01, 4.38905925e-01, 2.75857240e-01, 9.39880237e-02,
          4.38905925e-01, 4.38905925e-01, 3.04262135e-02, 1.31393867e-02,
          3.72871101e-01, 8.94864425e-02, 4.53844398e-01, 3.94879103e-01,
          8.31300393e-02, 1.24465793e-01, 4.36180383e-01, 4.53844398e-01,
          4.53844398e-01, 3.08145136e-02, 4.33954567e-01, 7.93468729e-02,
          4.45927918e-01, 4.45927918e-01, 4.45927918e-01, 5.87402694e-02,
          3.32309119e-02, 3.11700907e-02, 4.45927918e-01, 4.35311854e-01,
          2.71409512e-01, 1.22222034e-02, 3.96984845e-01, 4.35311854e-01,
          4.35311854e-01, 7.90643468e-02, 2.32440326e-03, 4.35311854e-01,
          1.56145319e-01, 2.36654162e-01, 2.17190143e-02, 3.64820444e-04,
          2.37012267e-01, 6.52649045e-01, 6.52649045e-01, 6.67354241e-02,
          9.78974998e-03 ]
      - [ 5.82013607e-01, 5.82013607e-01, 3.09530675e-01, 0.,
          9.27995220e-02, 3.84741843e-01, 1.91642061e-01, 2.39551608e-02,
          1.64198160e-01, 4.45125103e-01, 1.86077833e-01, 5.27264550e-02,
          3.89550179e-01, 4.45125103e-01, 4.45125103e-01, 9.24443826e-02,
          7.28549734e-02, 4.45125103e-01, 2.56422490e-01, 1.91411339e-02,
          2.64449447e-01, 4.83534724e-01, 2.39041552e-01, 1.39487274e-02,
          3.16804647e-01, 4.83534724e-01, 4.83534724e-01, 6.96336627e-02,
          3.89516443e-01, 3.89516443e-01, 3.89516443e-01, 4.19938564e-02,
          3.16943765e-01, 3.89516443e-01, 3.89516443e-01, 3.61148030e-01,
          8.78292248e-02, 1.58350110e-01, 3.64291549e-01, 3.24633688e-01,
          3.80870312e-01, 3.80870312e-01, 3.80870312e-01, 3.80870312e-01,
          3.80870312e-01, 5.73880747e-02, 4.26618308e-01, 4.26618308e-01,
          4.26618308e-01, 1.92085877e-01, 2.08889738e-01, 4.26618308e-01,
          4.26618308e-01, 4.35589962e-02, 7.99715612e-03, 4.45484966e-02,
          6.34077311e-01, 6.34077311e-01, 1.06160820e-01, 8.59182999e-02,
          2.45954558e-01, 3.07324022e-01, 1.17978469e-01, 3.75665218e-01,
          1.24597862e-01, 1.90143645e-01, 3.75665218e-01, 3.75665218e-01,
          3.12764525e-01, 3.75665218e-01, 3.75665218e-01, 3.75665218e-01,
          4.12849665e-01, 4.12849665e-01, 2.81681627e-01, 1.09438427e-01,
          2.60255039e-01, 4.12849665e-01, 4.12849665e-01, 1.04712613e-01,
          3.79575759e-01 ]
      - [ 6.53113663e-01, 6.53113663e-01, 1.08326368e-01, 0.,
          9.00403757e-05, 2.87188709e-01, 2.00866327e-01, 7.48054683e-02,
          1.44739607e-02, 4.68468904e-01, 4.68468904e-01, 1.23218936e-03,
          4.67916578e-02, 4.68468904e-01, 4.68468904e-01, 1.57713071e-01,
          6.86996505e-02, 2.92718858e-01, 3.47045988e-01, 2.66029328e-01,
          2.10927635e-01, 3.57980341e-01, 3.57980341e-01, 3.57980341e-01,
          3.46368015e-01, 3.57980341e-01, 3.57980341e-01, 2.19256610e-01,
          4.47603762e-01, 4.47603762e-01, 4.47603762e-01, 1.39599293e-01,
          1.03234753e-01, 3.38437945e-01, 4.47603762e-01, 3.70601639e-02,
          2.12365955e-01, 1.64497033e-01, 2.33307332e-02, 1.84234604e-01,
          1.32182315e-01, 4.81798500e-01, 4.81798500e-01, 4.81798500e-01,
          4.17948365e-01, 3.79985332e-01, 4.06541348e-01, 4.06541348e-01,
          1.80808857e-01, 1.43755972e-01, 3.87182683e-01, 4.06541348e-01,
          2.77317107e-01, 2.74862528e-01, 0., 8.97975042e-02,
          3.97916317e-01, 6.88780010e-01, 5.67832828e-01, 1.04857953e-02,
          8.02135542e-02, 1.51886687e-01, 1.60459056e-02, 3.57435822e-01,
          2.86054891e-02, 9.54532623e-03, 4.56633896e-01, 4.56633896e-01,
          1.19978122e-01, 1.35337487e-01, 4.56633896e-01, 4.56633896e-01,
          4.48169619e-01, 4.48169619e-01, 5.95983565e-02, 5.87453768e-02,
          4.48169619e-01, 4.48169619e-01, 2.89969891e-01, 2.56944522e-02,
          3.16786319e-01 ]
      - [ 6.24124408e-01, 6.24124408e-01, 1.18893184e-01, 0.,
          2.73510832e-02, 4.21225905e-01, 1.28459498e-01, 1.40609583e-02,
          7.54417554e-02, 4.50346798e-01, 3.24185371e-01, 1.60855755e-01,
          2.10272416e-01, 4.50346798e-01, 4.50346798e-01, 7.05752000e-02,
          6.39261976e-02, 4.50346798e-01, 2.14709640e-01, 9.61897597e-02,
          4.46920455e-01, 2.60618210e-01, 2.87711889e-01, 5.87955900e-02,
          4.32218105e-01, 4.46920455e-01, 4.46920455e-01, 3.46361339e-01,
          3.61837149e-01, 3.61837149e-01, 3.50723118e-01, 2.86833733e-01,
          3.61837149e-01, 3.61837149e-01, 3.61837149e-01, 1.28482953e-01,
          9.26249847e-02, 3.78808826e-01, 3.78808826e-01, 2.42069378e-01,
          3.47308666e-01, 3.78808826e-01, 3.01553607e-01, 3.78808826e-01,
          3.78808826e-01, 1.77717283e-02, 4.86928999e-01, 4.86928999e-01,
          8.00102875e-02, 5.22744954e-02, 1.88436359e-01, 4.86928999e-01,
          4.86928999e-01, 4.21775766e-02, 0., 2.45808531e-02,
          4.48616654e-01, 4.48616654e-01, 4.48616654e-01, 2.12101102e-01,
          4.48616654e-01, 3.73949617e-01, 7.11469576e-02, 2.25869462e-01,
          4.00500625e-01, 1.51288629e-01, 4.28738505e-01, 4.28738505e-01,
          1.34027913e-01, 9.04481933e-02, 4.28738505e-01, 4.28738505e-01,
          1.15175091e-01, 4.75587845e-01, 1.86069191e-01, 1.40009850e-01,
          4.75587845e-01, 4.75587845e-01, 4.75587845e-01, 1.19493045e-01,
          9.35210511e-02 ]
      - [ 6.58087432e-01, 6.58087432e-01, 3.48852664e-01, 0.,
          8.46318319e-04, 1.99025380e-03, 3.51337949e-04, 0.,
          7.46244565e-02, 5.84668159e-01, 2.65156060e-01, 1.60311116e-03,
          2.67341938e-02, 1.87494904e-01, 2.76130080e-01, 1.12961352e-01,
          3.39559525e-01, 5.84668159e-01, 4.98840362e-01, 8.57160520e-03,
          1.26810551e-01, 2.13558465e-01, 3.58397037e-01, 9.88432765e-02,
          3.68663408e-02, 5.21827340e-01, 5.21827340e-01, 4.29752350e-01,
          5.05598903e-01, 5.05598903e-01, 5.05598903e-01, 9.10851657e-02,
          1.25875339e-01, 1.27614856e-01, 4.86974567e-02, 2.39684340e-02,
          4.54106808e-01, 1.92087710e-01, 2.41671093e-02, 1.01648018e-01,
          4.10991848e-01, 4.54106808e-01, 4.54106808e-01, 1.15294382e-01,
          3.83150220e-01, 3.43103707e-01, 3.43103707e-01, 3.43103707e-01,
          3.06023926e-01, 3.43103707e-01, 3.43103707e-01, 3.43103707e-01,
          3.22336376e-01, 3.04466367e-01, 2.44415421e-02, 5.51396050e-02,
          5.72388351e-01, 5.72388351e-01, 5.72388351e-01, 3.13784406e-02,
          6.71022236e-02, 4.20577079e-02, 2.24752463e-02, 4.89246905e-01,
          3.90158668e-02, 1.19363209e-02, 4.36772794e-01, 5.42226136e-01,
          3.95624042e-01, 1.23002678e-01, 6.53193071e-02, 3.04735512e-01,
          4.43741769e-01, 1.69130966e-01, 8.69568065e-03, 6.94173761e-03,
          5.86891830e-01, 5.86891830e-01, 2.77678311e-01, 1.60506666e-02,
          4.75073196e-02 ]
      - [ 5.47986448e-01, 5.47986448e-01, 1.20234765e-01, 8.34192522e-03,
          5.59488349e-02, 2.01232925e-01, 1.83640346e-01, 4.22560982e-02,
          5.47986448e-01, 4.62662667e-01, 2.94105440e-01, 5.66050671e-02,
          2.05375418e-01, 4.62662667e-01, 4.62662667e-01, 7.41714165e-02,
          4.20600027e-02, 4.62662667e-01, 4.00133222e-01, 1.24021210e-01,
          3.07854176e-01, 2.93031305e-01, 3.08333427e-01, 2.18744334e-02,
          3.13371330e-01, 4.71914917e-01, 4.71914917e-01, 2.71250129e-01,
          3.67512673e-01, 3.67512673e-01, 3.67512673e-01, 3.67512673e-01,
          3.15478981e-01, 3.67512673e-01, 3.67512673e-01, 1.13275327e-01,
          1.33083269e-01, 3.72771978e-01, 3.72771978e-01, 2.63280034e-01,
          3.72771978e-01, 3.72771978e-01, 3.72771978e-01, 3.72771978e-01,
          2.74762630e-01, 2.44059414e-02, 4.49088544e-01, 4.49088544e-01,
          1.80480048e-01, 1.46152392e-01, 4.49088544e-01, 4.49088544e-01,
          3.52163970e-01, 1.01209544e-01, 0., 1.79124158e-02,
          5.41639984e-01, 5.41639984e-01, 5.41639984e-01, 5.51248528e-02,
          3.90549041e-02, 3.26954842e-01, 5.18179312e-02, 2.58557647e-01,
          3.88937205e-01, 2.54817367e-01, 3.88937205e-01, 3.88937205e-01,
          3.12995195e-01, 1.00019254e-01, 3.88937205e-01, 3.88937205e-01,
          1.65965721e-01, 5.24389863e-01, 1.86945960e-01, 7.86544830e-02,
          2.82968074e-01, 5.24389863e-01, 5.24389863e-01, 9.30336639e-02,
          1.11367650e-01 ]
      - [ 6.24742329e-01, 6.24742329e-01, 1.34876847e-01, 0.,
          5.06496578e-02, 3.31636906e-01, 2.06247002e-01, 1.00020673e-02,
          1.99445009e-01, 4.74442691e-01, 1.66573718e-01, 7.11417645e-02,
          2.03168362e-01, 4.74442691e-01, 4.74442691e-01, 1.40238807e-01,
          3.35482806e-02, 4.74442691e-01, 2.75819480e-01, 1.34625316e-01,
          4.39039946e-01, 3.61210525e-01, 3.11937541e-01, 4.51544710e-02,
          3.05497557e-01, 4.39039946e-01, 4.39039946e-01, 3.73294532e-01,
          3.73294532e-01, 3.73294532e-01, 3.73120785e-01, 1.37772813e-01,
          3.73294532e-01, 3.73294532e-01, 3.73294532e-01, 4.44674082e-02,
          1.78076506e-01, 4.10973758e-01, 4.10973758e-01, 1.51271537e-01,
          4.10973758e-01, 4.10973758e-01, 4.10973758e-01, 2.81402349e-01,
          1.32724077e-01, 3.92266586e-02, 5.04855633e-01, 5.04855633e-01,
          1.44166216e-01, 1.26126066e-01, 2.12288275e-01, 5.04855633e-01,
          3.72339070e-01, 9.15808827e-02, 4.76656854e-02, 6.51413798e-02,
          4.68795627e-01, 4.68795627e-01, 3.49927634e-01, 3.41957361e-02,
          3.64929169e-01, 4.68795627e-01, 2.69633383e-01, 3.77177179e-01,
          3.77177179e-01, 8.65829512e-02, 3.77177179e-01, 3.77177179e-01,
          3.77177179e-01, 1.17559269e-01, 3.48337919e-01, 3.77177179e-01,
          2.42951348e-01, 5.36157489e-01, 1.38591006e-01, 4.85789916e-03,
          2.31496111e-01, 5.36157489e-01, 5.36157489e-01, 9.82576981e-03,
          1.75367184e-02 ]
      - [ 5.72331965e-01, 5.72331965e-01, 2.12144747e-01, 3.55103007e-03,
          1.16724283e-01, 3.31475645e-01, 9.71072819e-03, 5.11664385e-03,
          4.12938267e-01, 4.97944325e-01, 9.12081003e-02, 2.02439260e-02,
          8.68376195e-02, 4.97944325e-01, 4.83430773e-01, 4.78183938e-04,
          3.47305872e-02, 4.97944325e-01, 4.72793400e-01, 1.48595721e-01,
          1.67216763e-01, 2.28813738e-01, 3.72970760e-01, 5.99632896e-02,
          2.82092422e-01, 4.72793400e-01, 4.72793400e-01, 3.61431748e-01,
          3.27730745e-01, 3.65399331e-01, 3.65399331e-01, 2.29890183e-01,
          3.65399331e-01, 3.65399331e-01, 3.65399331e-01, 1.94618225e-01,
          3.11535150e-01, 3.82621199e-01, 3.82621199e-01, 1.84607551e-01,
          3.82621199e-01, 3.82621199e-01, 1.34414911e-01, 3.39088589e-01,
          3.82621199e-01, 5.66137247e-02, 4.32452053e-01, 4.32452053e-01,
          1.83413625e-01, 2.11594313e-01, 4.32452053e-01, 4.32452053e-01,
          3.97080034e-01, 9.12719741e-02, 4.26980704e-02, 2.42554434e-02,
          4.21948642e-01, 5.65100968e-01, 2.59072721e-01, 4.45263786e-03,
          8.32756683e-02, 5.65100968e-01, 3.18045974e-01, 4.24231827e-01,
          2.50419855e-01, 9.66912284e-02, 4.24231827e-01, 4.24231827e-01,
          3.50914448e-01, 2.47716624e-02, 2.82944620e-01, 4.24231827e-01,
          3.08887601e-01, 4.74906504e-01, 2.56600440e-01, 6.07764488e-03,
          3.61254066e-01, 4.74906504e-01, 4.74906504e-01, 5.62144034e-02,
          1.53920099e-01 ]
      - [ 5.68335533e-01, 5.68335533e-01, 7.24547952e-02, 0.,
          1.28694072e-01, 5.68335533e-01, 2.55902521e-02, 0.,
          5.33126183e-02, 4.32669252e-01, 4.32669252e-01, 6.89979047e-02,
          1.98023647e-01, 4.32669252e-01, 4.32669252e-01, 6.75998926e-02,
          1.05454974e-01, 4.32669252e-01, 1.82625294e-01, 4.85267341e-02,
          4.07971233e-01, 4.34780359e-01, 3.35697234e-01, 1.28891975e-01,
          3.11611652e-01, 4.34780359e-01, 4.34780359e-01, 3.67863148e-01,
          3.84281427e-01, 3.84281427e-01, 3.05772752e-01, 1.25770003e-01,
          3.84281427e-01, 3.84281427e-01, 3.84281427e-01, 1.14722967e-01,
          1.42985433e-01, 4.33078259e-01, 4.56309080e-01, 1.36792794e-01,
          4.56309080e-01, 4.56309080e-01, 2.38182187e-01, 2.45047495e-01,
          1.65213078e-01, 1.60132796e-02, 4.80205506e-01, 4.80205506e-01,
          2.23447502e-01, 6.74663037e-02, 1.34008020e-01, 4.80205506e-01,
          4.80205506e-01, 1.09330928e-02, 1.43692242e-02, 1.05872964e-02,
          4.86012191e-01, 4.86012191e-01, 1.71669647e-01, 2.54335664e-02,
          1.40990779e-01, 4.86012191e-01, 4.86012191e-01, 4.11771446e-01,
          2.61596382e-01, 1.61804542e-01, 4.11771446e-01, 4.11771446e-01,
          2.29350358e-01, 2.98807528e-02, 4.11771446e-01, 4.11771446e-01,
          4.36555386e-01, 4.36555386e-01, 4.36555386e-01, 3.72390747e-02,
          1.64048672e-01, 4.36555386e-01, 4.36555386e-01, 6.87228888e-02,
          9.85630453e-02 ]
      - [ 4.20003146e-01, 4.20003146e-01, 3.42743784e-01, 1.32333785e-02,
          3.14117879e-01, 3.40248346e-01, 3.80894750e-01, 2.13327661e-01,
          3.46875042e-01, 3.57304722e-01, 3.57304722e-01, 3.57304722e-01,
          3.57304722e-01, 3.57304722e-01, 3.57304722e-01, 3.57304722e-01,
          1.68070957e-01, 2.72975534e-01, 9.12230387e-02, 1.56375598e-02,
          4.74555880e-01, 4.74555880e-01, 1.21791348e-01, 2.08581220e-02,
          3.55388612e-01, 4.74555880e-01, 4.11721766e-01, 1.26556650e-01,
          3.80568147e-01, 4.17467922e-01, 4.17467922e-01, 2.33071774e-01,
          1.74051836e-01, 4.17467922e-01, 4.17467922e-01, 2.30752036e-01,
          1.19252652e-01, 3.66312653e-01, 3.66312653e-01, 2.24615321e-01,
          3.62843663e-01, 3.59286577e-01, 3.66312653e-01, 3.66312653e-01,
          3.66312653e-01, 3.13501544e-02, 4.83667135e-01, 4.83667135e-01,
          1.58143133e-01, 1.41625497e-02, 1.82237417e-01, 4.83667135e-01,
          4.83667135e-01, 5.51127037e-03, 2.22861883e-03, 8.77412222e-03,
          5.43045282e-01, 5.43045282e-01, 1.51798368e-01, 0.,
          2.97570601e-02, 5.43045282e-01, 2.93039650e-01, 3.98436189e-01,
          3.49554002e-01, 1.29440844e-01, 3.98436189e-01, 3.98436189e-01,
          2.47977808e-01, 4.27414328e-02, 3.98436189e-01, 3.98436189e-01,
          3.07287991e-01, 4.77788538e-01, 1.52246401e-01, 1.54187297e-02,
          4.09970075e-01, 4.77788538e-01, 4.77788538e-01, 9.78694707e-02,
          1.22006819e-01 ]
      - [ 6.18439913e-01, 6.18439913e-01, 1.12047996e-02, 2.33365936e-04,
          8.98450986e-02, 2.96715647e-02, 0., 0., 4.68840212e-01,
          6.55319571e-01, 7.16226250e-02, 5.58927190e-03, 2.28746887e-02,
          3.52064759e-01, 4.61178049e-02, 0., 5.30038811e-02,
          6.55319571e-01, 5.71201980e-01, 3.52802733e-03, 1.48461666e-02,
          3.04409862e-02, 7.80216008e-02, 9.43558291e-03, 9.02497321e-02,
          5.71201980e-01, 5.71201980e-01, 4.03436482e-01, 4.03436482e-01,
          3.11771572e-01, 4.03436482e-01, 4.03436482e-01, 4.03436482e-01,
          8.02429169e-02, 5.25416434e-02, 2.75251925e-01, 4.54430103e-01,
          1.90746590e-01, 2.19177648e-01, 2.85493731e-01, 4.54430103e-01,
          4.54430103e-01, 1.29939876e-02, 5.77521808e-02, 4.54430103e-01,
          2.69395083e-01, 1.76238626e-01, 2.98361272e-01, 1.10226966e-01,
          3.27878654e-01, 4.13389266e-01, 4.13389266e-01, 4.13389266e-01,
          4.13389266e-01, 6.56935349e-02, 9.92456749e-02, 3.53683293e-01,
          6.13688409e-01, 6.13688409e-01, 2.83325464e-01, 1.59135051e-02,
          3.08976863e-02, 1.41092613e-01, 3.88322979e-01, 3.70707922e-02,
          3.54548097e-02, 5.63484907e-01, 5.63484907e-01, 4.06530082e-01,
          1.41452381e-03, 1.08954813e-02, 2.01318845e-01, 1.09499656e-01,
          4.97563444e-02, 4.25826162e-02, 3.74766998e-02, 6.49347961e-01,
          6.49347961e-01, 3.59766364e-01, 5.30357957e-02, 1.68316867e-02 ]
      - [ 5.93078494e-01, 5.93078494e-01, 3.44808400e-01, 1.02372654e-03,
          1.98696628e-02, 1.18822623e-02, 2.43402440e-02, 5.39786462e-03,
          4.12967712e-01, 5.81723690e-01, 3.77917111e-01, 3.37721780e-02,
          9.74659622e-02, 3.61872524e-01, 5.67386262e-02, 6.48974404e-02,
          1.59819290e-01, 5.81723690e-01, 2.45403856e-01, 3.83369555e-03,
          2.47289035e-02, 2.86053251e-02, 4.07284051e-02, 1.68522191e-03,
          2.37852648e-01, 6.60870314e-01, 6.60870314e-01, 3.29303443e-01,
          5.54580808e-01, 5.54580808e-01, 2.37696409e-01, 3.29615176e-01,
          1.23417780e-01, 2.29312435e-01, 1.52212694e-01, 1.21534437e-01,
          3.45422357e-01, 3.45422357e-01, 3.29057068e-01, 3.45422357e-01,
          3.45422357e-01, 2.30335057e-01, 3.45422357e-01, 3.45422357e-01,
          3.45422357e-01, 9.43089277e-02, 1.62411913e-01, 2.86476523e-01,
          1.16635375e-01, 9.22929719e-02, 4.64659244e-01, 5.50454259e-01,
          5.50454259e-01, 1.82024211e-01, 3.45247588e-03, 2.11531997e-01,
          3.69869351e-01, 5.20609796e-01, 5.20609796e-01, 5.20609796e-01,
          4.77550039e-03, 8.22813809e-03, 6.75223628e-03, 1.01559900e-01,
          2.87418161e-02, 1.28087895e-02, 6.74027681e-01, 6.74027681e-01,
          2.17318118e-01, 1.21556344e-02, 3.39286253e-02, 1.57523721e-01,
          2.08019949e-02, 1.45146316e-02, 1.32483067e-02, 1.31727487e-01,
          5.68880320e-01, 5.68880320e-01, 5.68880320e-01, 7.04799294e-02,
          1.75069757e-02 ]
      - [ 3.52929503e-01, 3.52929503e-01, 3.52929503e-01, 3.52929503e-01,
          3.52929503e-01, 0., 3.52929503e-01, 3.52929503e-01,
          3.52929503e-01, 3.51929724e-01, 1.76918004e-02, 6.93080127e-02,
          5.30130267e-01, 5.30130267e-01, 0., 4.49410975e-02,
          1.43529281e-01, 5.30130267e-01, 1.98815420e-01, 9.24985036e-02,
          4.00290191e-01, 4.70339984e-01, 2.02005953e-01, 2.85037514e-03,
          2.87250251e-01, 4.70339984e-01, 4.70339984e-01, 5.30679189e-02,
          2.26981476e-01, 4.49800730e-01, 4.49800730e-01, 6.31096810e-02,
          7.94071984e-03, 4.49800730e-01, 4.49800730e-01, 3.57549489e-01,
          3.67866129e-01, 3.67866129e-01, 3.67866129e-01, 3.67866129e-01,
          3.67866129e-01, 1.39207300e-02, 2.21026182e-01, 3.67866129e-01,
          3.67866129e-01, 6.90314025e-02, 4.50614303e-01, 4.50614303e-01,
          2.35318795e-01, 3.33163328e-02, 4.38417077e-01, 4.50614303e-01,
          3.62022966e-01, 4.26481254e-02, 8.25487450e-03, 6.53899880e-03,
          4.13206160e-01, 4.69245493e-01, 4.31231827e-01, 1.86607009e-03,
          3.55721563e-02, 4.69245493e-01, 4.43678260e-01, 3.89502525e-01,
          3.79696399e-01, 3.77707146e-02, 3.89502525e-01, 3.89502525e-01,
          3.89502525e-01, 3.66367446e-03, 3.03213209e-01, 3.89502525e-01,
          2.86179841e-01, 5.02686381e-01, 9.78044793e-02, 1.35872327e-02,
          3.80136669e-01, 5.02686381e-01, 5.02686381e-01, 1.57958139e-02,
          2.22736783e-02 ]
      - [ 4.46259588e-01, 4.46259588e-01, 2.22737610e-01, 2.88893301e-02,
          9.15560033e-03, 1.00369053e-02, 3.85124147e-01, 4.46259588e-01,
          4.46259588e-01, 5.67266583e-01, 4.86912847e-01, 6.75115222e-03,
          2.05338094e-02, 2.59849161e-01, 2.07862616e-01, 1.40180821e-02,
          4.77119647e-02, 5.67266583e-01, 5.49630821e-01, 2.90796906e-02,
          8.33781660e-02, 9.99775901e-02, 2.40605727e-01, 4.42010835e-02,
          1.02913074e-01, 5.49630821e-01, 5.49630821e-01, 3.68597835e-01,
          3.68597835e-01, 3.68597835e-01, 3.68597835e-01, 6.83187246e-02,
          2.20710337e-01, 3.57422739e-01, 3.68597835e-01, 3.68597835e-01,
          4.25847679e-01, 4.25847679e-01, 4.70980890e-02, 1.57338843e-01,
          4.25847679e-01, 4.25847679e-01, 2.10780561e-01, 1.32712066e-01,
          4.25847679e-01, 3.09385747e-01, 3.54876757e-01, 3.54876757e-01,
          1.69278666e-01, 3.54876757e-01, 3.54876757e-01, 3.54876757e-01,
          3.54876757e-01, 3.41254085e-01, 3.68515216e-02, 1.75579675e-02,
          3.33945155e-01, 6.49866521e-01, 6.49866521e-01, 4.22793850e-02,
          8.44137147e-02, 6.65566623e-02, 1.49433136e-01, 4.15160835e-01,
          7.91171342e-02, 1.09849554e-02, 4.50553656e-01, 4.50553656e-01,
          4.50553656e-01, 4.70964797e-02, 5.04804067e-02, 4.50553656e-01,
          2.48317420e-01, 2.49674693e-01, 2.41359361e-02, 4.50571775e-02,
