%YAML:1.0
---
opencv_ml_svm:
   format: 3
   svmType: C_SVC
   kernel:
      type: RBF
      gamma: 5.0624999999999998e-01
   C: 1.2500000000000000e+01
   term_criteria: { epsilon:1.1920928955078125e-07, iterations:1000 }
   var_count: 144
   class_count: 10
   class_labels: !!opencv-matrix
      rows: 10
      cols: 1
      dt: i
      data: [ 0, 1, 2, 3, 4, 5, 6, 7, 8, 9 ]
   sv_total: 1505
   support_vectors:
      - [ 4.98689324e-01, 4.98689324e-01, 4.98689324e-01, 1.45944487e-02,
          6.48217276e-03, 0., 0., 0., 4.98689324e-01, 6.84305608e-01,
          1.84114113e-01, 1.26458317e-01, 2.70191617e-02, 7.19655901e-02,
          2.86645181e-02, 0., 0., 6.84305608e-01, 5.86131871e-01,
          2.73781210e-01, 3.61048826e-03, 8.77428427e-03, 4.03619558e-02,
          1.24708727e-01, 3.23837340e-01, 3.31583977e-01, 5.86131871e-01,
          4.90244210e-01, 8.10031313e-03, 0., 0., 0., 1.83522657e-01,
          4.90244210e-01, 4.90244210e-01, 4.90244210e-01, 4.07414734e-01,
          4.07414734e-01, 4.07414734e-01, 4.07414734e-01, 4.07414734e-01,
          3.06758378e-03, 0., 0., 4.07414734e-01, 4.21123654e-01,
          1.43417627e-01, 4.21123654e-01, 4.19025898e-01, 4.21123654e-01,
          3.00435156e-01, 0., 0., 4.21123654e-01, 3.75654161e-01,
          2.46984974e-01, 3.75654161e-01, 1.39237419e-01, 3.34100276e-01,
          3.75654161e-01, 3.75654161e-01, 3.14094365e-01, 3.75654161e-01,
          4.46214586e-01, 2.31449911e-03, 0., 0., 0., 4.46214586e-01,
          4.46214586e-01, 4.46214586e-01, 4.46214586e-01, 4.07877773e-01,
          4.07877773e-01, 4.07877773e-01, 3.99514735e-01, 4.07877773e-01,
          7.93604627e-02, 0., 0., 4.05657768e-01, 5.38073659e-01,
          7.32360706e-02, 8.59022886e-02, 1.66675016e-01, 5.38073659e-01,
          2.92461336e-01, 0., 0., 5.38073659e-01, 4.73378181e-01,
          1.99681103e-01, 1.78670049e-01, 1.95228666e-01, 4.73378181e-01,
          3.08142304e-01, 2.67702132e-01, 2.15604559e-01, 4.73378181e-01,
          3.99385184e-01, 0., 0., 2.03374863e-01, 3.99385184e-01,
          3.96366358e-01, 3.99385184e-01, 3.99385184e-01, 3.99385184e-01,
          0., 7.71410987e-02, 3.76751244e-01, 6.21068418e-01,
          6.67964160e-01, 1.16349801e-01, 0., 0., 0., 0., 4.10126959e-04,
          6.84128888e-03, 9.58575085e-02, 9.41290498e-01, 3.08781266e-01,
          0., 0., 0., 0., 0., 0., 2.82353461e-01, 9.04866040e-01,
          3.04081976e-01, 0., 0., 0., 0., 0., 0., 3.52596462e-01,
          7.02913344e-01, 5.52067339e-01, 2.53549308e-01, 7.42047578e-02,
          0. ]
      - [ 6.90626204e-01, 6.90626204e-01, 0., 0., 0., 0., 0., 0.,
          1.97930992e-01, 5.75688422e-01, 5.75688422e-01, 0., 0., 0., 0.,
          0., 0., 5.75688422e-01, 5.15082300e-01, 5.15082300e-01, 0., 0.,
          0., 0., 1.41880333e-01, 4.22843516e-01, 5.15082300e-01,
          4.60723728e-01, 6.16672859e-02, 0., 0., 0., 0., 5.09523332e-01,
          5.09523332e-01, 5.09523332e-01, 6.48176134e-01, 6.48176134e-01,
          4.55008261e-02, 2.64589861e-03, 8.83479118e-02, 2.39637360e-01,
          9.22604837e-03, 1.60945475e-03, 2.93032020e-01, 4.82388407e-01,
          4.82388407e-01, 8.40221941e-02, 1.08913206e-01, 4.82388407e-01,
          4.82388407e-01, 3.21510155e-03, 3.72472947e-04, 2.13202775e-01,
          3.46876681e-01, 3.46876681e-01, 3.46876681e-01, 3.39016438e-01,
          3.46876681e-01, 3.09186786e-01, 3.46876681e-01, 3.46876681e-01,
          2.53110677e-01, 2.90987398e-02, 2.25756168e-02, 3.72348763e-02,
          1.49817648e-03, 0., 0., 7.02300787e-01, 7.02300787e-01,
          6.15751222e-02, 5.13568819e-01, 1.75982147e-01, 2.08493918e-01,
          3.44892174e-01, 5.13568819e-01, 5.13568819e-01, 4.67441641e-02,
          1.55895529e-03, 8.96362960e-02, 7.49716163e-02, 2.28757530e-01,
          5.53059459e-01, 1.32438585e-01, 5.53059459e-01, 5.53059459e-01,
          3.63418795e-02, 5.72333869e-04, 6.40493212e-03, 0.,
          5.07436812e-01, 5.14032543e-01, 4.25456762e-01, 1.23116031e-01,
          2.30146453e-01, 4.63919729e-01, 9.37267914e-02, 0., 0.,
          2.06481740e-02, 8.61067250e-02, 2.52283588e-02, 8.12211353e-03,
          3.46927017e-01, 6.57470405e-01, 6.57470405e-01, 0., 0., 0.,
          1.95564236e-02, 3.33053619e-01, 6.64087713e-01, 6.64087713e-01,
          6.17550407e-03, 0., 0., 0., 3.18611592e-01, 5.05872488e-01,
          5.05872488e-01, 3.54321331e-01, 5.05872488e-01, 1.30287055e-02,
          0., 0., 0., 9.13635194e-02, 4.70076412e-01, 4.70076412e-01,
          4.70076412e-01, 4.70076412e-01, 3.21022123e-01, 3.86271812e-03,
          0., 0., 3.15344939e-03, 5.26046008e-02, 3.01176727e-01,
          5.39245009e-01, 5.39245009e-01, 5.39245009e-01, 1.69631615e-01,
          0. ]
      - [ 6.91330433e-01, 6.10106401e-02, 1.83031917e-01, 0., 0., 0., 0.,
          0., 6.91330433e-01, 7.04463661e-01, 2.02404764e-02,
          4.47883736e-03, 0., 0., 0., 0., 0., 7.04463661e-01,
          6.96355104e-01, 1.49424905e-02, 0., 0., 0., 0., 0.,
          1.51672095e-01, 6.96355104e-01, 6.74511671e-01, 0., 0., 0., 0.,
          0., 0., 2.88676709e-01, 6.74511671e-01, 6.04518175e-01,
          6.04518175e-01, 1.74199000e-01, 6.93869218e-02, 2.65166432e-01,
          1.22410685e-01, 0., 0., 3.77653390e-01, 5.51153004e-01,
          5.32024801e-02, 1.68465893e-03, 0., 5.51153004e-01,
          2.83467412e-01, 0., 0., 5.51153004e-01, 5.28373420e-01,
          8.59419815e-03, 4.57287719e-03, 2.75331736e-01, 5.28373420e-01,
          1.86576322e-01, 1.38576934e-03, 2.15575188e-01, 5.28373420e-01,
          1.82334319e-01, 0., 3.06172110e-02, 2.71601945e-01,
          1.28452063e-01, 2.12246436e-03, 2.95261264e-01, 6.25348568e-01,
          6.25348568e-01, 4.07679200e-01, 4.26483452e-01, 3.66816282e-01,
          3.57057512e-01, 4.38631684e-01, 4.38631684e-01, 0., 0.,
          2.62372419e-02, 3.03834558e-01, 1.37760192e-02, 0., 0.,
          6.69760704e-01, 6.69760704e-01, 0., 0., 6.04123622e-02,
          6.77730963e-02, 2.96333954e-02, 2.96834797e-01, 5.76537311e-01,
          5.76537311e-01, 4.61169362e-01, 2.41154945e-03, 3.03013269e-02,
          1.49228290e-01, 1.20358600e-03, 2.12682970e-02, 3.99293095e-01,
          3.99293095e-01, 3.99293095e-01, 3.99293095e-01, 3.99293095e-01,
          3.99293095e-01, 1.97350889e-01, 0., 1.81408804e-02,
          1.35348424e-01, 2.62321264e-01, 6.72986209e-01, 6.72986209e-01,
          0., 0., 0., 0., 0., 0., 0., 9.51406896e-01, 2.92119056e-01, 0.,
          0., 0., 0., 2.34117046e-01, 5.59642971e-01, 5.59642971e-01,
          5.59642971e-01, 0., 0., 0., 0., 0., 6.71973601e-02,
          3.90150934e-01, 5.00550687e-01, 5.00550687e-01, 5.00550687e-01,
          2.94201374e-01, 7.75157427e-03, 0. ]
      - [ 5.73218107e-01, 5.73218107e-01, 9.24064964e-02, 0., 0., 0., 0.,
          0., 5.73218107e-01, 6.81914687e-01, 5.84789589e-02, 0., 0., 0.,
          0., 0., 2.44453475e-01, 6.81914687e-01, 5.74106455e-01, 0., 0.,
          0., 0., 0., 7.39761740e-02, 5.74106455e-01, 5.74106455e-01,
          6.76912785e-01, 2.77059108e-01, 0., 0., 0., 0., 7.27083161e-03,
          2.42361031e-03, 6.76912785e-01, 5.24547040e-01, 5.24547040e-01,
          5.24547040e-01, 1.82250738e-01, 1.39347836e-01, 1.33538023e-01,
          2.01199487e-01, 1.56791866e-01, 1.83799744e-01, 3.78108412e-01,
          3.78108412e-01, 2.67400563e-01, 3.46368819e-01, 3.78108412e-01,
          1.91049591e-01, 2.31124014e-01, 3.78108412e-01, 3.78108412e-01,
          5.43022633e-01, 1.68302298e-01, 1.02777176e-01, 4.30306718e-02,
          4.16691117e-02, 6.12162426e-02, 2.52452433e-01, 5.43022633e-01,
          5.43022633e-01, 5.15805483e-01, 5.15805483e-01, 0., 0.,
          1.01694800e-01, 5.15805483e-01, 2.17817843e-01, 2.09406003e-01,
          3.08294296e-01, 5.74619286e-02, 3.23807955e-01, 6.00917518e-01,
          6.00917518e-01, 9.44571942e-02, 1.13779165e-01, 1.88620567e-01,
          3.00328702e-01, 1.26490980e-01, 1.96519867e-01, 3.61864030e-01,
          3.55808675e-01, 3.61864030e-01, 3.61864030e-01, 3.61864030e-01,
          2.98867434e-01, 2.95152575e-01, 3.61864030e-01, 5.27929306e-01,
          9.63693336e-02, 5.31553179e-02, 1.36898886e-02, 5.27929306e-01,
          5.27929306e-01, 6.24278709e-02, 2.30848044e-01, 2.98515648e-01,
          5.35849094e-01, 9.52069983e-02, 0., 0., 5.86599529e-01,
          5.86599529e-01, 9.18954909e-02, 2.68270224e-02, 2.41192337e-02,
          4.35730256e-03, 4.13734391e-02, 5.49089611e-01, 5.49089611e-01,
          5.49089611e-01, 2.94471204e-01, 3.23675647e-02, 0.,
          2.29525361e-02, 1.06268125e-02, 2.25119037e-03, 1.05196185e-01,
          5.25278389e-01, 5.25278389e-01, 5.25278389e-01, 3.90748203e-01,
          0., 5.59778176e-02, 0., 0., 0., 3.89586738e-03, 7.03253686e-01,
          7.03253686e-01, 6.19135275e-02, 0., 0., 0., 0., 0., 0.,
          7.04615593e-01, 7.04615593e-01, 0., 0., 0. ]
      - [ 4.25450772e-01, 4.25450772e-01, 2.98576176e-01, 0., 0.,
          3.95030044e-02, 4.25450772e-01, 4.25450772e-01, 4.25450772e-01,
          1.43990025e-01, 0., 0., 0., 0., 2.75045279e-02, 6.62679493e-01,
          6.62679493e-01, 3.05951655e-01, 6.99520350e-01, 6.99520350e-01,
          1.16041198e-01, 0., 0., 0., 0., 0., 2.98985317e-02,
          4.45989281e-01, 4.45989281e-01, 3.18250917e-02, 0., 0., 0.,
          4.45989281e-01, 4.45989281e-01, 4.45989281e-01, 3.69763970e-02,
          4.97765213e-01, 4.97765213e-01, 2.14081015e-02, 0.,
          3.03273257e-02, 4.97765213e-01, 4.97765213e-01, 3.46751623e-02,
          5.20759881e-01, 5.20759881e-01, 0., 0., 0., 4.38427813e-02,
          5.20759881e-01, 3.71226639e-01, 2.03703895e-01, 5.59564233e-01,
          5.59564233e-01, 7.34447762e-02, 7.99055025e-02, 1.94489479e-01,
          5.59564233e-01, 7.38966763e-02, 0., 3.16120102e-03,
          4.06092823e-01, 4.57708836e-01, 2.26002932e-01, 1.50151268e-01,
          2.73432881e-01, 1.86309412e-01, 4.57708836e-01, 4.57708836e-01,
          1.37568966e-01, 2.99766868e-01, 1.04559675e-01, 4.04409170e-01,
          4.04409170e-01, 2.70267069e-01, 6.62497282e-02, 4.04409170e-01,
          4.04409170e-01, 4.04409170e-01, 4.64911669e-01, 4.64911669e-01,
          1.97494915e-03, 4.40782607e-02, 4.64911669e-01, 4.64911669e-01,
          1.05177797e-01, 1.23559214e-01, 3.20170313e-01, 4.58460748e-01,
          4.70253468e-01, 4.70253468e-01, 3.40742730e-02, 3.03752661e-01,
          4.70253468e-01, 1.68105498e-01, 2.86689959e-03, 2.71958346e-03,
          6.70779403e-03, 5.03789246e-01, 5.03789246e-01, 1.02960654e-01,
          1.26420975e-01, 4.35380429e-01, 5.03789246e-01, 1.31808206e-01,
          0., 4.67975698e-02, 2.16104686e-02, 3.02063495e-01,
          6.34859085e-01, 6.34859085e-01, 2.81737596e-01, 1.42271293e-03,
          3.08608040e-02, 1.15497448e-01, 1.60266683e-01, 3.62156332e-02,
          1.92254304e-03, 1.78779438e-01, 6.80759907e-01, 6.80759907e-01,
          5.87879866e-02, 1.38836941e-02, 6.10279553e-02, 5.45385946e-03,
          3.87998551e-01, 4.89346415e-01, 3.42348039e-01, 4.89346415e-01,
          4.89346415e-01, 9.22005996e-02, 2.13782862e-02, 0., 0.,
          1.78274587e-01, 4.36550289e-01, 4.31150168e-01, 4.36550289e-01,
          4.36550289e-01, 4.36550289e-01, 1.25149518e-01, 0. ]
      - [ 7.02329099e-01, 7.02329099e-01, 5.78463413e-02, 0.,
          2.60703489e-02, 4.93039265e-02, 0., 0., 0., 5.88155091e-01,
          5.88155091e-01, 1.32051692e-03, 0., 1.11295156e-01,
          4.80855078e-01, 2.07034513e-01, 2.93676406e-02, 1.22223936e-01,
          5.29791534e-01, 3.29382837e-01, 2.79162196e-03, 0.,
          5.29791534e-01, 5.29791534e-01, 1.46475270e-01, 4.60065901e-02,
          1.43525586e-01, 3.53146434e-01, 2.17776932e-02, 4.28350503e-03,
          0., 4.17283267e-01, 4.17283267e-01, 4.17283267e-01,
          4.17283267e-01, 4.17283267e-01, 4.77594703e-01, 5.33223450e-01,
          5.33223450e-01, 3.94092768e-01, 1.09960720e-01, 5.12453951e-02,
          1.65367812e-01, 1.76631138e-02, 1.54473353e-02, 4.55265343e-01,
          4.55265343e-01, 1.33791178e-01, 1.81199819e-01, 1.73610568e-01,
          4.55265343e-01, 4.55265343e-01, 2.57930577e-01, 1.37783274e-01,
          1.11178696e-01, 4.41480875e-01, 2.32828930e-01, 0.,
          4.41480875e-01, 4.41480875e-01, 4.41480875e-01, 3.84005308e-01,
          4.40293513e-02, 4.00324911e-01, 4.00324911e-01, 2.54349589e-01,
          0., 3.46814454e-01, 9.86230075e-02, 4.00324911e-01,
          4.00324911e-01, 4.00324911e-01, 4.48292159e-02, 3.54681224e-01,
          5.86774170e-01, 5.86774170e-01, 4.19890761e-01, 8.43150483e-04,
          3.68820131e-02, 2.12842389e-03, 7.13570649e-03, 1.14625715e-01,
          1.56787977e-01, 4.83342946e-01, 4.83342946e-01, 7.85601586e-02,
          9.13744122e-02, 4.83342946e-01, 4.83342946e-01, 9.19148847e-02,
          4.85435784e-01, 4.85435784e-01, 1.23842604e-01, 8.12729355e-03,
          8.67538445e-04, 2.62605935e-01, 4.85435784e-01, 4.26782340e-01,
          1.47305816e-01, 1.69737339e-01, 5.27164519e-01, 7.90278986e-02,
          0., 0., 5.27164519e-01, 5.27164519e-01, 3.52791250e-01,
          3.88602540e-02, 0., 2.50030160e-01, 6.81515396e-01,
          6.81515396e-01, 4.18912470e-02, 0., 0., 0., 0., 9.17498618e-02,
          3.43871862e-02, 4.81274605e-01, 4.81274605e-01, 4.67190117e-01,
          3.41287218e-02, 1.31828114e-01, 4.81274605e-01, 2.32178107e-01,
          4.23424065e-01, 4.23424065e-01, 2.41068415e-02, 3.43368024e-01,
          4.23424065e-01, 4.23424065e-01, 1.91335008e-01, 2.00908333e-01,
          2.88379192e-01, 1.46169260e-01, 3.16380560e-01, 1.77425763e-03,
          0., 1.46776408e-01, 6.50582969e-01, 6.50582969e-01,
          6.30875006e-02, 0. ]
      - [ 4.61956650e-01, 4.61956650e-01, 1.61208063e-01, 0., 0.,
          1.98184699e-01, 4.61956650e-01, 2.76594996e-01, 4.61956650e-01,
          4.24236864e-01, 4.24236864e-01, 1.76575318e-01, 0., 0.,
          2.54359186e-01, 4.24236864e-01, 4.24236864e-01, 4.24236864e-01,
          5.61363816e-01, 5.61363816e-01, 2.80008037e-02, 4.09321636e-02,
          1.14434242e-01, 5.70810288e-02, 1.79078951e-02, 1.72837272e-01,
          5.61363816e-01, 5.05720079e-01, 9.31829214e-03, 0.,
          6.51972219e-02, 5.71162477e-02, 9.88698006e-03, 1.07862242e-01,
          5.99553525e-01, 5.99553525e-01, 1.45876184e-01, 4.37581152e-01,
          4.37581152e-01, 5.26790768e-02, 0., 4.37581152e-01,
          4.37581152e-01, 4.37581152e-01, 1.19111769e-01, 2.61087805e-01,
          4.60066617e-01, 4.60066617e-01, 0., 0., 3.68665785e-01,
          4.60066617e-01, 3.27563196e-01, 2.21453786e-01, 3.79338324e-01,
          3.79338324e-01, 3.79338324e-01, 2.60218292e-01, 3.79338324e-01,
          3.79338324e-01, 3.79338324e-01, 2.09016278e-01, 1.46366984e-01,
          8.84599760e-02, 2.83017814e-01, 4.68775004e-01, 3.13346982e-01,
          1.33157134e-01, 1.73236653e-01, 4.68775004e-01, 4.68775004e-01,
          3.19711477e-01, 2.11346336e-02, 1.16326436e-01, 4.66750383e-01,
          4.66750383e-01, 1.57506123e-01, 3.51207331e-02, 2.89644837e-01,
          4.66750383e-01, 4.66750383e-01, 3.81699592e-01, 3.81699592e-01,
          3.81699592e-01, 3.81699592e-01, 3.81699592e-01, 1.02878278e-02,
          1.04528248e-01, 3.33147466e-01, 3.81699592e-01, 3.63307685e-01,
          3.63307685e-01, 3.63307685e-01, 1.10259920e-01, 2.45490864e-01,
          3.63307685e-01, 3.63307685e-01, 3.63307685e-01, 3.63307685e-01,
          2.83854842e-01, 4.32893395e-01, 2.21846312e-01, 2.00889427e-02,
          5.86605258e-02, 5.65397322e-01, 5.65397322e-01, 1.79435998e-01,
          4.21634465e-02, 1.03076631e-02, 9.14975442e-03, 2.24761277e-01,
          6.84723020e-01, 6.84723020e-01, 0., 0., 2.72480529e-02,
          6.34301081e-02, 1.53817549e-01, 1.71108544e-02, 3.26583423e-02,
          6.83658481e-01, 6.83658481e-01, 5.95149444e-03, 0.,
          8.79539549e-03, 1.82387859e-01, 7.46961236e-02, 1.70732122e-02,
          2.97349691e-02, 5.69860697e-01, 5.69860697e-01, 5.69860697e-01,
          9.79369208e-02, 9.20053385e-03, 6.04511239e-02, 2.63454225e-02,
          5.60433092e-03, 0., 0., 4.78570700e-01, 7.36379206e-01,
          4.69383180e-01, 1.46049159e-02, 1.03098480e-02 ]
      - [ 5.52796483e-01, 5.52796483e-01, 2.62298316e-01, 3.35154757e-02,
          3.25653367e-02, 5.93319945e-02, 0., 5.67760617e-02,
          5.52796483e-01, 5.60356975e-01, 3.99659798e-02, 9.31642577e-03,
          5.96293062e-02, 2.39960868e-02, 1.88197307e-02, 0.,
          5.05845129e-01, 6.46142423e-01, 5.78036129e-01, 5.16882658e-01,
          9.74019337e-03, 0., 0., 0., 0., 2.42309824e-01, 5.78036129e-01,
          5.71632206e-01, 6.17418401e-02, 1.62308700e-02, 0., 0., 0.,
          9.96304005e-02, 5.71632206e-01, 5.71632206e-01, 3.27795953e-01,
          3.79602849e-01, 3.79602849e-01, 3.79602849e-01, 2.42012128e-01,
          1.18057281e-01, 3.79602849e-01, 3.79602849e-01, 3.09448451e-01,
          2.91575253e-01, 2.08607689e-01, 1.65698156e-01, 4.47151870e-01,
          4.47151870e-01, 4.26055118e-02, 1.94807917e-01, 4.47151870e-01,
          4.47151870e-01, 3.82463455e-01, 3.82463455e-01, 2.22286150e-01,
          2.81834453e-01, 2.32773170e-01, 3.29187810e-01, 3.45942527e-01,
          3.82463455e-01, 3.82463455e-01, 3.67180049e-01, 3.20323497e-01,
          3.85506511e-01, 2.84154981e-01, 1.66535512e-01, 2.36180604e-01,
          3.85506511e-01, 3.85506511e-01, 3.85506511e-01, 1.37919169e-02,
          4.29917686e-02, 6.02939248e-01, 6.02939248e-01, 1.07870333e-01,
          3.84483719e-05, 1.41014084e-01, 3.86502355e-01, 2.89766908e-01,
          3.70879352e-01, 3.70879352e-01, 3.70879352e-01, 3.70879352e-01,
          1.66580826e-01, 3.14529449e-01, 3.70879352e-01, 2.10494220e-01,
          3.70879352e-01, 3.32337111e-01, 1.90574080e-01, 1.86019659e-01,
          4.31123316e-01, 4.31123316e-01, 4.31123316e-01, 4.31123316e-01,
          1.72462866e-01, 2.02758715e-01, 2.68834025e-01, 2.06845269e-01,
          2.00839072e-01, 4.40176010e-01, 4.40176010e-01, 4.40176010e-01,
          4.40176010e-01, 2.02944636e-01, 1.54931799e-01, 5.08820033e-03,
          5.41576564e-01, 5.41576564e-01, 5.41576564e-01, 3.38600248e-01,
          0., 0., 0., 0., 2.52483729e-02, 4.51658219e-01, 4.51658219e-01,
          4.51658219e-01, 4.86556515e-02, 4.17574286e-01, 4.51658219e-01,
          4.62036878e-02, 4.94348176e-04, 9.17524192e-03, 8.63557458e-02,
          1.53356910e-01, 3.32271576e-01, 3.38278681e-01, 5.95039427e-01,
          5.95039427e-01, 1.73256770e-01, 3.84471088e-04, 0., 0.,
          7.94496201e-03, 5.64534187e-01, 5.79097331e-01, 5.79097331e-01,
          6.85079992e-02, 7.39966799e-03, 0. ]
      - [ 4.97207552e-01, 4.97207552e-01, 4.97207552e-01, 6.12939782e-02,
          0., 8.67059734e-03, 1.83568581e-03, 4.83448952e-02,
          4.97207552e-01, 6.30791903e-01, 2.62482435e-01, 1.69065744e-01,
          1.13817928e-02, 2.17690900e-01, 1.89236328e-01, 4.96111857e-03,
          1.30656734e-01, 6.30791903e-01, 4.90492642e-01, 3.25066894e-02,
          0., 0., 2.85120040e-01, 4.90492642e-01, 3.77388805e-01,
          2.20407516e-01, 4.90492642e-01, 3.92683387e-01, 0., 0., 0.,
          7.52958804e-02, 4.57046241e-01, 4.57046241e-01, 4.57046241e-01,
          4.57046241e-01, 7.44559839e-02, 6.34147942e-01, 6.34147942e-01,
          1.73093691e-01, 0., 2.04962194e-01, 3.13052475e-01,
          2.58723609e-02, 1.14871837e-01, 4.01430041e-01, 3.17006290e-01,
          3.99682969e-01, 3.10983192e-02, 4.09023732e-01, 4.09023732e-01,
          4.09023732e-01, 6.93916604e-02, 2.58543491e-01, 5.41293740e-01,
          1.82160333e-01, 0., 0., 5.41293740e-01, 5.41293740e-01,
          1.99416146e-01, 5.02735265e-02, 2.00302616e-01, 5.18191516e-01,
          5.18191516e-01, 0., 0., 1.56691685e-01, 5.18191516e-01,
          2.82478869e-01, 1.24530844e-01, 2.63444781e-01, 1.01259928e-02,
          5.13304353e-01, 5.13304353e-01, 5.13304353e-01, 5.69067113e-02,
          4.59627658e-02, 3.79243642e-01, 2.07477078e-01, 1.10016659e-01,
          3.78585279e-01, 2.43735239e-01, 2.41071984e-01, 2.49943331e-01,
          3.78585279e-01, 3.15577954e-01, 3.78585279e-01, 3.78585279e-01,
          3.78585279e-01, 5.22088468e-01, 5.22088468e-01, 0.,
          2.24967953e-03, 3.76263589e-01, 5.22088468e-01, 1.47832809e-02,
          1.15249762e-02, 1.87419355e-01, 5.28978527e-01, 3.86359841e-01,
          0., 0., 5.28978527e-01, 5.28978527e-01, 7.41892308e-02,
          1.70789920e-02, 1.38823576e-02, 8.12505279e-03, 1.22738004e-01,
          5.70171893e-01, 5.70171893e-01, 5.70171893e-01, 0.,
          1.06716761e-02, 3.17689590e-02, 5.25811650e-02, 1.93027169e-01,
          1.07651176e-02, 7.57731795e-02, 5.37190557e-01, 5.37190557e-01,
          5.37190557e-01, 5.10986615e-03, 4.07300815e-02, 2.90021271e-01,
          3.46412897e-01, 4.76411209e-02, 0., 1.83398873e-02,
          6.57749414e-01, 6.57749414e-01, 5.64993825e-03, 1.27532682e-03,
          7.43194148e-02, 3.34649384e-02, 1.31842159e-02, 0., 0.,
          7.04156935e-01, 7.04156935e-01, 1.82297616e-03, 0., 0. ]
      - [ 5.21362603e-01, 5.21362603e-01, 5.21362603e-01, 1.36135846e-01,
          0., 0., 0., 0., 4.01002854e-01, 6.68047011e-01, 2.66809553e-01,
          9.63833854e-02, 2.22700872e-02, 0., 0., 0., 1.40655756e-01,
          6.68047011e-01, 5.74481130e-01, 0., 0., 0., 0., 0.,
          6.46363422e-02, 5.74481130e-01, 5.74481130e-01, 6.50565565e-01,
          0., 0., 0., 0., 0., 6.33435324e-02, 3.78181875e-01,
          6.50565565e-01, 4.46188062e-01, 4.46188062e-01, 4.46188062e-01,
          4.46188062e-01, 1.01409648e-02, 4.61186655e-03, 0., 0.,
          4.46188062e-01, 4.34831202e-01, 4.34831202e-01, 4.34831202e-01,
          4.34831202e-01, 1.41247615e-01, 1.52290640e-02, 4.94656526e-03,
          1.73373476e-01, 4.34831202e-01, 5.47512352e-01, 4.78705354e-02,
          7.88324848e-02, 6.07591271e-02, 2.56860882e-01, 1.23893388e-01,
          4.12071720e-02, 5.47512352e-01, 5.47512352e-01, 4.47577864e-01,
          0., 0., 1.67062636e-02, 3.72885555e-01, 2.34313220e-01,
          4.47577864e-01, 4.47577864e-01, 4.47577864e-01, 4.61992413e-01,
          3.09313804e-01, 4.61992413e-01, 4.61992413e-01, 4.61992413e-01,
          1.10328466e-01, 0., 0., 1.83820903e-01, 2.81921923e-01,
          1.36935994e-01, 4.94942516e-01, 4.94942516e-01, 4.94942516e-01,
          3.75049949e-01, 5.42639233e-02, 1.97002273e-02, 1.33887067e-01,
          6.98284954e-02, 2.81924792e-02, 2.71806002e-01, 4.61062282e-01,
          4.61062282e-01, 4.61062282e-01, 4.61062282e-01, 2.45981261e-01,
          7.08863288e-02, 6.81388527e-02, 0., 0., 2.30169922e-01,
          5.37133932e-01, 5.37133932e-01, 5.37133932e-01, 2.57554948e-01,
          7.17047974e-02, 0., 4.07836819e-03, 4.82990108e-02,
          6.93317533e-01, 6.93317533e-01, 1.71321556e-01, 0., 0., 0., 0.,
          3.49443741e-02, 5.64297616e-01, 5.64297616e-01, 5.64297616e-01,
          1.92939818e-01, 2.36773547e-02, 7.89245125e-03, 0., 0.,
          2.70473724e-03, 2.08786070e-01, 4.75582600e-01, 4.75582600e-01,
          4.75582600e-01, 4.75582600e-01, 2.16646418e-01, 0., 0., 0., 0.,
          1.64147183e-01, 5.24235785e-01, 5.24235785e-01, 5.24235785e-01,
          3.78616959e-01, 0. ]
      - [ 6.82822645e-01, 6.82822645e-01, 9.28085521e-02, 2.09994687e-04,
          9.73513052e-02, 0., 3.36935446e-02, 4.05661529e-03,
          2.03586742e-01, 4.54089701e-01, 4.54089701e-01, 1.70624629e-02,
          3.95474897e-04, 7.95949996e-02, 0., 4.05028224e-01,
          4.54089701e-01, 4.54089701e-01, 5.29570520e-01, 5.29570520e-01,
          1.07161682e-02, 3.07446346e-02, 6.60032108e-02, 1.10085599e-01,
          1.34032935e-01, 3.43331188e-01, 5.29570520e-01, 5.38203657e-01,
          7.19669238e-02, 5.03542162e-02, 6.60078898e-02, 7.81777427e-02,
          3.55417207e-02, 3.25866163e-01, 5.38203657e-01, 5.38203657e-01,
          3.34176660e-01, 5.52410781e-01, 3.68156075e-01, 4.01562713e-02,
          2.29791984e-01, 5.52410781e-01, 2.87063152e-01, 1.30764185e-03,
          1.14579042e-02, 3.51835996e-01, 3.51835996e-01, 3.51835996e-01,
          1.77784368e-01, 3.51835996e-01, 3.51835996e-01, 3.51835996e-01,
          3.51835996e-01, 3.13619792e-01, 4.64136571e-01, 4.64136571e-01,
          2.64164180e-01, 1.97407186e-01, 1.33679926e-01, 4.64136571e-01,
          3.91224116e-01, 2.06163779e-01, 1.64052993e-01, 1.54858246e-01,
          3.18119258e-01, 4.12067503e-01, 4.12067503e-01, 1.53751582e-01,
          3.17071050e-01, 4.12067503e-01, 4.12067503e-01, 2.59481221e-01,
          2.24189460e-01, 4.67825949e-01, 4.67825949e-01, 1.05293162e-01,
          2.32286811e-01, 4.67825949e-01, 4.67825949e-01, 6.68705031e-02,
          1.03127528e-02, 2.34543771e-01, 3.64708751e-01, 3.64708751e-01,
          3.64708751e-01, 3.64708751e-01, 3.64708751e-01, 3.64708751e-01,
          3.64708751e-01, 1.01282336e-01, 3.78007531e-01, 3.89018238e-01,
          2.70385444e-01, 1.26990378e-01, 8.55178311e-02, 3.89018238e-01,
          3.89018238e-01, 3.89018238e-01, 3.89018238e-01, 1.84121743e-01,
          5.23946047e-01, 3.51012439e-01, 2.35591922e-02, 3.31180878e-02,
          5.23946047e-01, 5.23946047e-01, 1.07666701e-01, 2.92305984e-02,
          4.33459543e-02, 2.63257653e-01, 4.38339531e-01, 4.39430088e-01,
          4.39430088e-01, 4.39430088e-01, 3.90037537e-01, 2.92826574e-02,
          1.56418490e-03, 2.59852111e-02, 1.89127594e-01, 4.83138710e-01,
          4.83138710e-01, 4.83138710e-01, 4.83138710e-01, 3.50571722e-02,
          1.46908313e-01, 4.71899435e-02, 2.78655648e-01, 2.12237537e-01,
          1.78328097e-01, 4.27937359e-01, 4.27937359e-01, 4.27937359e-01,
          1.72982484e-01, 2.80688465e-01, 4.27937359e-01, 1.43272758e-01,
          2.36728474e-01, 9.42930055e-04, 0., 4.76537704e-01,
          5.86325347e-01, 5.86325347e-01, 2.65683960e-02, 4.72043045e-02 ]
      - [ 4.55549926e-01, 4.55549926e-01, 4.55549926e-01, 1.62662834e-01,
          0., 0., 9.13275331e-02, 4.55549926e-01, 3.61312479e-01,
          2.28693917e-01, 4.28692997e-01, 4.35719401e-01, 1.27834687e-02,
          0., 0., 4.35719401e-01, 4.35719401e-01, 4.35719401e-01,
          4.07680988e-01, 4.07680988e-01, 4.07680988e-01, 0., 0., 0.,
          4.06088978e-01, 4.07680988e-01, 4.07680988e-01, 4.54890341e-01,
          5.55481482e-03, 8.63414374e-04, 0., 0., 0., 5.12485743e-01,
          5.12485743e-01, 5.12485743e-01, 4.31673042e-03, 6.34331882e-01,
          6.34331882e-01, 6.22567758e-02, 0., 6.36362331e-03,
          4.01815742e-01, 1.53347731e-01, 2.52205599e-03, 4.75137979e-02,
          4.97389078e-01, 4.97389078e-01, 3.39163514e-03, 0.,
          1.93422884e-02, 4.97389078e-01, 4.97389078e-01, 5.29671274e-02,
          3.32945466e-01, 4.61353153e-01, 4.61353153e-01, 0.,
          9.43693332e-03, 8.90308991e-03, 4.61353153e-01, 4.61353153e-01,
          1.81614652e-01, 4.75861460e-01, 1.52694881e-01, 3.75637319e-04,
          2.53429567e-03, 9.33814570e-02, 2.39641786e-01, 4.75861460e-01,
          4.75861460e-01, 4.75861460e-01, 1.86743110e-03, 6.39517188e-01,
          6.39517188e-01, 2.36548930e-01, 9.46836025e-02, 5.06256782e-02,
          3.09228063e-01, 1.04999438e-01, 3.89496945e-02, 3.77450079e-01,
          3.77450079e-01, 2.93366551e-01, 9.92468670e-02, 3.77450079e-01,
          2.61852175e-01, 3.77450079e-01, 3.45551550e-01, 3.77450079e-01,
          3.63135397e-01, 4.52920884e-01, 1.90433353e-01, 2.51979753e-02,
          4.52920884e-01, 4.52920884e-01, 4.26821977e-01, 8.25735703e-02,
          1.49336666e-01, 4.13023829e-01, 5.28149121e-02, 0.,
          3.48029821e-03, 6.17529511e-01, 6.17529511e-01, 1.85776040e-01,
          7.32060149e-02, 1.33741468e-01, 7.86425371e-04, 3.28739613e-01,
          5.06618917e-01, 5.06618917e-01, 5.06618917e-01, 3.41641098e-01,
          8.49763956e-03, 5.01663843e-03, 8.10898095e-03, 7.79234692e-02,
          4.41280603e-02, 4.89243269e-01, 4.89243269e-01, 4.89243269e-01,
          4.89243269e-01, 1.65828615e-01, 1.11054750e-02, 4.51183729e-02,
          1.70898214e-02, 7.66722066e-03, 1.72497720e-01, 2.13331312e-01,
          5.49635410e-01, 5.49635410e-01, 5.49635410e-01, 1.12216957e-01,
          2.16819323e-03, 0., 0., 0., 0., 6.92898750e-01, 6.92898750e-01,
          1.74298838e-01, 4.98567522e-02, 0. ]
      - [ 6.72652185e-01, 6.72652185e-01, 2.73625821e-01, 0., 0.,
          2.05722842e-02, 7.33055323e-02, 0., 8.77215266e-02,
          4.88662481e-01, 4.88662481e-01, 7.53590837e-02, 0.,
          7.03890100e-02, 2.98384070e-01, 2.83517778e-01, 3.14161301e-01,
          4.88662481e-01, 4.57721859e-01, 4.57721859e-01, 1.01753160e-01,
          9.61791798e-02, 2.60338277e-01, 2.06002325e-01, 1.66053057e-01,
          4.57721859e-01, 4.57721859e-01, 2.23163322e-01, 2.18522381e-02,
          6.26437664e-02, 5.22830747e-02, 4.74719629e-02, 2.46790927e-02,
          5.42564332e-01, 5.65762639e-01, 5.65762639e-01, 2.05131963e-01,
          6.02914989e-01, 6.02914989e-01, 0., 0., 1.14635192e-01,
          4.57666159e-01, 4.47238870e-02, 1.69745199e-02, 4.14833367e-01,
          4.14833367e-01, 4.14833367e-01, 1.81707010e-01, 1.44158304e-01,
          4.14833367e-01, 4.14833367e-01, 2.06418619e-01, 1.97521418e-01,
          3.60808879e-01, 3.60808879e-01, 3.60808879e-01, 1.80004537e-01,
          2.29591563e-01, 3.60808879e-01, 3.60808879e-01, 3.60808879e-01,
          3.60808879e-01, 4.42506969e-02, 2.55088121e-01, 1.95268095e-01,
          4.20595407e-02, 2.54098978e-02, 5.41893244e-01, 5.41893244e-01,
          5.41893244e-01, 7.79169053e-02, 6.07543960e-02, 4.67553228e-01,
          4.67553228e-01, 4.67553228e-01, 4.67553228e-01, 9.15694684e-02,
          3.03283036e-01, 8.83031040e-02, 9.51411724e-02, 3.76227498e-01,
          2.36849502e-01, 2.74605691e-01, 3.76227498e-01, 3.76227498e-01,
          3.76227498e-01, 3.76227498e-01, 1.24308251e-01, 3.76227498e-01,
          2.97327220e-01, 2.09827513e-01, 3.73885661e-01, 3.73885661e-01,
          3.73885661e-01, 3.73885661e-01, 3.73885661e-01, 3.73885661e-01,
          1.58400178e-01, 1.90611500e-02, 4.62488756e-02, 3.83269042e-02,
          1.97958518e-02, 0., 5.74231386e-01, 5.74231386e-01,
          5.74231386e-01, 2.60345843e-02, 8.69516656e-03, 2.23241206e-02,
          2.83376992e-01, 6.63548648e-01, 6.63548648e-01, 1.77763820e-01,
          0., 8.27732263e-04, 1.74593907e-02, 2.39083059e-02,
          4.11084853e-02, 2.68475175e-01, 5.53658187e-01, 5.53658187e-01,
          5.53658187e-01, 0., 5.93701610e-04, 2.27638781e-02, 0.,
          8.07700232e-02, 4.84440297e-01, 4.84440297e-01, 3.15937519e-01,
          1.38432533e-01, 4.84440297e-01, 4.06934947e-01, 3.79160582e-03,
          0., 0., 2.39332572e-01, 2.29980841e-01, 8.04377943e-02,
          2.20328704e-01, 6.43576920e-01, 6.43576920e-01, 2.46021431e-03 ]
      - [ 6.00655854e-01, 5.18533707e-01, 0., 0., 0., 0., 0.,
          5.95841706e-02, 6.00655854e-01, 5.95764816e-01, 2.92614698e-02,
          0., 0., 0., 0., 0., 5.32281578e-01, 5.95764816e-01,
          5.79195201e-01, 5.67685127e-01, 0., 0., 0., 0., 0.,
          3.18743885e-02, 5.79195201e-01, 6.34622276e-01, 1.11069709e-01,
          0., 0., 0., 0., 1.21193208e-01, 4.01433527e-01, 6.34622276e-01,
          4.08310890e-01, 4.08310890e-01, 1.42061308e-01, 2.95733333e-01,
          3.95652622e-01, 4.08310890e-01, 2.65852422e-01, 1.09704629e-01,
          3.85842532e-01, 4.62353051e-01, 1.90303579e-01, 2.56096274e-01,
          4.62353051e-01, 1.60934940e-01, 7.96593130e-02, 7.90825710e-02,
          4.62353051e-01, 4.62353051e-01, 4.21914309e-01, 4.21914309e-01,
          1.65166631e-01, 1.72890320e-01, 3.41941506e-01, 4.21914309e-01,
          2.76872128e-01, 1.81618422e-01, 4.21914309e-01, 4.16988850e-01,
          2.53486782e-01, 2.83350140e-01, 2.24319950e-01, 1.21977776e-01,
          1.10593893e-01, 4.47095245e-01, 4.47095245e-01, 4.47095245e-01,
          6.03186116e-02, 4.00740385e-01, 4.00740385e-01, 3.80687773e-01,
          2.10862949e-01, 4.00740385e-01, 4.00740385e-01, 4.00740385e-01,
          2.74877460e-03, 1.66057259e-01, 2.93866485e-01, 4.52444702e-01,
          4.52444702e-01, 4.52444702e-01, 3.11837524e-01, 3.03583801e-01,
          1.72862440e-01, 2.19413757e-01, 3.33267391e-01, 3.33267391e-01,
          3.33267391e-01, 3.33267391e-01, 3.33267391e-01, 3.33267391e-01,
          3.33267391e-01, 3.28835875e-01, 3.33267391e-01, 3.38577151e-01,
          4.77960527e-01, 3.01035255e-01, 8.55867565e-02, 1.74599528e-01,
          4.78175789e-01, 4.78175789e-01, 2.54413605e-01, 4.09942530e-02,
          0., 6.97342157e-02, 4.16157454e-01, 4.42337483e-01,
          4.42337483e-01, 4.42337483e-01, 4.42337483e-01, 1.86767235e-01,
          0., 0., 1.68059945e-01, 5.32459795e-01, 5.32459795e-01,
          5.32459795e-01, 2.82553256e-01, 1.84304640e-01, 4.57545742e-02,
          0., 1.39143348e-01, 4.15334217e-02, 2.02695593e-01,
          5.55612504e-01, 5.55612504e-01, 5.55612504e-01, 4.28882465e-02,
          2.23346055e-02, 6.18556254e-02, 1.04473509e-01, 4.09475975e-02,
          5.37725491e-03, 1.21144034e-01, 5.68940461e-01, 5.68940461e-01,
          5.64017653e-01, 3.79926004e-02, 8.75229016e-03 ]
      - [ 6.64237499e-01, 6.64237499e-01, 0., 0., 0., 0., 0., 0.,
          3.33085150e-01, 6.65633380e-01, 2.16055781e-01, 0., 0.,
          1.20536283e-01, 9.55642201e-03, 0., 2.14286819e-01,
          6.65633380e-01, 5.38562000e-01, 0., 0., 0., 5.25626801e-02,
          2.16070656e-03, 3.48865688e-01, 5.38562000e-01, 5.38562000e-01,
          6.91529393e-01, 0., 0., 0., 0., 0., 1.81669667e-01,
          6.05565570e-02, 6.91529393e-01, 4.87036079e-01, 4.87036079e-01,
          4.87036079e-01, 3.83215100e-02, 8.13177153e-02, 4.75645185e-01,
          1.86151162e-01, 1.08139127e-01, 5.34545667e-02, 4.07111853e-01,
          4.07111853e-01, 1.05383992e-01, 1.62822843e-01, 4.07111853e-01,
          4.07111853e-01, 1.45894557e-01, 3.29135954e-01, 4.07111853e-01,
          4.55199569e-01, 3.06431353e-01, 1.06402636e-01, 6.31678104e-02,
          2.04825729e-01, 1.24342285e-01, 4.55199569e-01, 4.55199569e-01,
          4.55199569e-01, 5.23082912e-01, 1.78678229e-01, 0., 0.,
          3.55745435e-01, 4.78512943e-01, 1.36126637e-01, 2.03859866e-01,
          5.23082912e-01, 1.96010113e-01, 4.60517794e-01, 4.60517794e-01,
          4.60517794e-01, 4.60517794e-01, 1.29567921e-01, 1.74708828e-01,
          1.46620989e-01, 1.99662104e-01, 4.45977509e-01, 4.45977509e-01,
          5.02728820e-02, 3.71512890e-01, 4.45977509e-01, 4.45977509e-01,
          7.76346028e-02, 1.35248318e-01, 1.87330991e-01, 5.35632789e-01,
          1.22863822e-01, 8.62129964e-03, 8.11651628e-03, 5.53159535e-01,
          5.53159535e-01, 1.21935092e-01, 1.88049480e-01, 1.73598036e-01,
          5.38859427e-01, 6.09115884e-02, 0., 0., 5.79949081e-01,
          5.79949081e-01, 7.03107864e-02, 5.63067384e-02, 1.39044583e-01,
          0., 6.13955036e-02, 2.91241914e-01, 6.71700716e-01,
          6.71700716e-01, 4.83671427e-02, 0., 0., 0., 0., 0.,
          4.41188226e-03, 4.25186694e-01, 6.37507617e-01, 6.37507617e-01,
          0., 0., 0., 0., 0., 0., 0., 7.04615593e-01, 7.04615593e-01, 0.,
          0., 0., 0., 0., 0., 0., 8.64492714e-01, 4.93989766e-01, 0., 0.,
          0. ]
      - [ 6.60597444e-01, 6.60597444e-01, 0., 0., 0., 0., 0., 0.,
          3.47314000e-01, 6.64589942e-01, 2.77064621e-01, 8.06797743e-02,
          0., 0., 0., 0., 1.63498148e-01, 6.64589942e-01, 3.63757938e-01,
          1.36609063e-01, 3.63757938e-01, 3.63757938e-01, 3.63757938e-01,
          2.26858512e-01, 3.63757938e-01, 3.63757938e-01, 3.63757938e-01,
          4.12138313e-01, 1.04611721e-02, 9.36947763e-02, 1.58541113e-01,
          4.12138313e-01, 3.35513532e-01, 4.12138313e-01, 4.12138313e-01,
          4.12138313e-01, 5.43515205e-01, 5.43515205e-01, 5.43515205e-01,
          1.22456804e-01, 2.92310100e-02, 2.13040516e-01, 2.13734776e-01,
          3.45681161e-02, 1.52342916e-02, 3.77047569e-01, 3.77047569e-01,
          3.35060179e-01, 1.18097790e-01, 3.77047569e-01, 3.77047569e-01,
          3.26414704e-01, 2.29455635e-01, 3.77047569e-01, 4.48090762e-01,
          3.48696142e-01, 1.69716969e-01, 4.17333357e-02, 1.13072313e-01,
          1.65719151e-01, 4.48090762e-01, 4.48090762e-01, 4.48090762e-01,
          4.29530919e-01, 3.50830972e-01, 0., 0., 7.78300017e-02,
          4.29530919e-01, 4.29530919e-01, 3.58583570e-01, 4.29530919e-01,
          5.25578074e-02, 4.25050110e-01, 5.53332031e-01, 5.53332031e-01,
          1.50036201e-01, 1.72401950e-01, 3.32576185e-01, 1.68862358e-01,
          8.56565610e-02, 3.53071451e-01, 3.53071451e-01, 3.53071451e-01,
          3.53071451e-01, 3.53071451e-01, 3.53071451e-01, 3.53071451e-01,
          2.21895695e-01, 2.73163646e-01, 4.94549841e-01, 3.86591256e-01,
          4.92696352e-02, 1.35404998e-02, 4.69476908e-01, 4.94549841e-01,
          2.68849134e-01, 1.38938203e-01, 2.04562321e-01, 4.13858116e-01,
          1.34747714e-01, 0., 0., 6.04202211e-01, 6.04202211e-01,
          2.31869787e-01, 1.17021710e-01, 8.33857730e-02, 7.52612622e-03,
          1.56423554e-01, 5.98006248e-01, 5.98006248e-01, 5.01912415e-01,
          3.27537395e-02, 0., 0., 3.59445773e-02, 3.26855145e-02,
          1.72342420e-01, 4.39075589e-01, 5.06598830e-01, 5.06598830e-01,
          5.06598830e-01, 0., 1.14618870e-03, 3.81371453e-02,
          9.57861915e-03, 1.95812155e-02, 2.69992976e-03, 3.90010588e-02,
          7.03802168e-01, 7.03802168e-01, 4.06145072e-03, 2.54104449e-03,
          1.65252872e-02, 0., 0., 0., 0., 7.04085112e-01, 7.04085112e-01,
          3.87273431e-02, 0., 0. ]
      - [ 4.48174864e-01, 4.48174864e-01, 4.48174864e-01, 0., 0., 0.,
          8.49128589e-02, 4.29965466e-01, 4.48174864e-01, 4.92076367e-01,
          1.62142605e-01, 1.54408608e-02, 0., 0., 0., 4.92076367e-01,
          4.92076367e-01, 4.92076367e-01, 7.04615593e-01, 0., 0., 0., 0.,
          0., 0., 0., 7.04615593e-01, 7.04248786e-01, 0., 0., 0., 0., 0.,
          0., 3.22080925e-02, 7.04248786e-01, 1.72974959e-01,
          4.39210564e-01, 4.39210564e-01, 3.40971202e-02, 0., 0.,
          4.39210564e-01, 4.39210564e-01, 4.39210564e-01, 4.43827450e-01,
          4.43827450e-01, 8.57341737e-02, 1.54417036e-02, 5.44630326e-02,
          9.87381302e-03, 4.43827450e-01, 4.43827450e-01, 4.43827450e-01,
          5.55374384e-01, 5.55374384e-01, 1.20044770e-02, 1.89239066e-02,
          1.96428448e-01, 1.68981239e-01, 3.86116020e-02, 0.,
          5.55374384e-01, 5.25326431e-01, 0., 0., 4.75660525e-02,
          5.25326431e-01, 2.54881054e-01, 1.15943819e-01, 2.93564975e-01,
          5.25326431e-01, 5.83577417e-02, 4.61211950e-01, 4.84998047e-01,
          4.84998047e-01, 4.84998047e-01, 1.33707270e-01, 1.36436358e-01,
          1.20056152e-01, 1.49861395e-01, 4.55323756e-01, 8.83596763e-02,
          3.24501932e-01, 3.62163067e-01, 4.55323756e-01, 4.55323756e-01,
          8.80210027e-02, 9.31780338e-02, 3.35845143e-01, 3.84450227e-01,
          1.23600945e-01, 4.00113493e-01, 4.00113493e-01, 4.00113493e-01,
          4.00113493e-01, 4.00113493e-01, 1.11279190e-01, 1.41726896e-01,
          1.93513811e-01, 0., 0., 6.56331554e-02, 6.03543639e-01,
          6.03543639e-01, 3.88947010e-01, 1.27763450e-01, 2.36823365e-01,
          0., 8.59690905e-02, 3.72393191e-01, 6.42401814e-01,
          6.42401814e-01, 1.48858309e-01, 0., 0., 0., 0., 1.10609598e-01,
          5.00163972e-01, 4.81952339e-01, 5.00163972e-01, 5.00163972e-01,
          0., 0., 0., 0., 7.09685311e-02, 4.37380880e-01, 4.37380880e-01,
          4.37380880e-01, 4.37380880e-01, 4.37380880e-01, 1.84619263e-01,
          0., 0., 0., 0., 0., 5.30142546e-01, 5.30142546e-01,
          5.30142546e-01, 3.89297068e-01, 0. ]
      - [ 4.55471426e-01, 4.55471426e-01, 4.55471426e-01, 4.55471426e-01,
          9.45760012e-02, 0., 0., 0., 3.95839483e-01, 5.15990853e-01,
          1.29562825e-01, 3.13498139e-01, 2.78401226e-01, 5.15990853e-01,
          5.94329946e-02, 0., 0., 5.15990853e-01, 4.86543477e-01,
          1.01420823e-02, 1.24532737e-01, 1.59896880e-01, 4.86543477e-01,
          6.70899749e-02, 5.06267734e-02, 4.86543477e-01, 4.86543477e-01,
          8.71527791e-02, 8.71809386e-03, 9.21785980e-02, 5.09804040e-02,
          3.48464139e-02, 4.81586065e-03, 5.69884300e-01, 5.69884300e-01,
          5.69884300e-01, 4.75273192e-01, 1.68249264e-01, 4.75273192e-01,
          4.66974735e-01, 2.66881764e-01, 0., 0., 0., 4.75273192e-01,
          4.96126086e-01, 3.69152352e-02, 1.77909061e-01, 4.41649139e-01,
          4.96126086e-01, 1.42816961e-01, 0., 9.03132558e-02,
          4.96126086e-01, 9.96087939e-02, 4.05359000e-01, 4.05359000e-01,
          3.47823679e-01, 4.05359000e-01, 6.95308372e-02, 4.05359000e-01,
          4.05359000e-01, 1.96553469e-01, 9.31297720e-04, 2.06479728e-01,
          3.84400368e-01, 4.15155776e-02, 1.94515921e-02, 7.73909390e-02,
          6.28182769e-01, 6.28182769e-01, 7.75322542e-02, 4.49766695e-01,
          1.12039782e-01, 4.16886300e-01, 4.49766695e-01, 4.49766695e-01,
          0., 0., 0., 4.49766695e-01, 4.67870802e-01, 5.72004775e-03,
          1.48257855e-02, 4.67870802e-01, 4.67870802e-01, 1.84480357e-03,
          6.75361662e-05, 3.45627576e-01, 4.67870802e-01, 3.57378393e-01,
          3.18979084e-01, 3.57378393e-01, 3.57378393e-01, 3.57378393e-01,
          2.54279263e-02, 3.57378393e-01, 3.57378393e-01, 3.57378393e-01,
          9.27811936e-02, 1.09311692e-01, 2.64492035e-01, 9.90684777e-02,
          7.00406358e-02, 6.54611588e-02, 6.32875443e-01, 6.32875443e-01,
          2.88270205e-01, 1.11944799e-03, 8.26833490e-03, 6.50218055e-02,
          7.03094363e-01, 7.03094363e-01, 0., 0., 0., 9.16287652e-04,
          5.65167563e-03, 0., 0., 7.02732980e-01, 7.02732980e-01,
          1.60293479e-03, 5.86816313e-05, 1.06185060e-02, 7.19054565e-02,
          1.12368025e-01, 7.54955458e-03, 1.30988676e-02, 6.57277524e-01,
          6.57277524e-01, 4.41604108e-03, 1.30264729e-01, 2.78590888e-01,
          1.48169801e-01, 1.60744302e-02, 2.20799283e-03, 3.83098191e-03,
          4.53339875e-01, 4.53339875e-01, 3.74984503e-01, 4.53339875e-01,
          4.53339875e-01, 1.80311546e-01 ]
      - [ 6.90918386e-01, 6.90918386e-01, 1.95873171e-01, 0., 0., 0., 0.,
          0., 0., 6.94639146e-01, 6.94639146e-01, 3.11946310e-02,
          7.99452048e-03, 6.73920065e-02, 3.93132074e-03, 0.,
          1.11684692e-03, 1.49744034e-01, 4.89027172e-01, 1.94488674e-01,
          3.36395926e-04, 8.85815267e-03, 2.31506694e-02, 9.22075100e-03,
          4.89027172e-01, 4.89027172e-01, 4.89027172e-01, 3.14068012e-02,
          0., 0., 0., 0., 3.79058868e-02, 6.51285708e-01, 6.51285708e-01,
          3.77794176e-01, 6.22049689e-01, 6.22049689e-01, 9.81054455e-02,
          0., 9.42333322e-03, 4.53922361e-01, 6.01682588e-02, 0.,
          2.27682777e-02, 4.57912117e-01, 4.57912117e-01, 3.32770288e-01,
          1.96454599e-01, 4.57912117e-01, 4.57912117e-01, 8.56992155e-02,
          2.33888088e-04, 4.14469652e-03, 2.31067210e-01, 2.95595497e-01,
          4.61052656e-01, 2.50047088e-01, 2.68085003e-01, 2.70322353e-01,
          4.61052656e-01, 4.61052656e-01, 9.72113609e-02, 4.91085261e-01,
          6.89914227e-02, 0., 0., 0., 1.60238996e-01, 4.91085261e-01,
          4.91085261e-01, 4.91085261e-01, 1.90158844e-01, 4.75986063e-01,
          4.75986063e-01, 2.94122007e-02, 4.58822787e-01, 4.75986063e-01,
          2.60791302e-01, 0., 1.32520171e-03, 2.00995162e-01,
          5.48615813e-01, 5.48615813e-01, 3.79425213e-02, 1.09131590e-01,
          5.48615813e-01, 1.94512323e-01, 0., 0., 4.17722851e-01,
          4.17722851e-01, 4.17722851e-01, 3.37189138e-02, 5.52264787e-02,
          4.17722851e-01, 4.17722851e-01, 1.63205013e-01, 3.04208010e-01,
          5.10954201e-01, 1.72180071e-01, 0., 0., 1.66092310e-02,
          5.10954201e-01, 5.10954201e-01, 2.61628866e-01, 3.36605281e-01,
          1.91582039e-01, 4.88477916e-01, 4.88477916e-01, 3.65356058e-02,
          4.88477916e-01, 4.88477916e-01, 5.13817668e-02, 0., 0.,
          4.76480812e-01, 4.76480812e-01, 4.76480812e-01, 2.41595749e-02,
          2.86630303e-01, 4.76480812e-01, 6.42170236e-02, 1.55074606e-02,
          0., 1.33162990e-01, 4.18817401e-01, 1.85368106e-01, 0.,
          2.85410076e-01, 7.84296691e-01, 2.59908617e-01, 8.47398024e-03,
          2.15928443e-02, 3.45364213e-02, 9.97173227e-03, 0., 0.,
          4.15459871e-02, 8.53117764e-01, 5.10256231e-01, 8.62390362e-03,
          1.49280606e-02 ]
      - [ 5.64770103e-01, 5.64770103e-01, 1.03138171e-01, 0., 0., 0., 0.,
          1.63789898e-01, 5.64770103e-01, 4.46193069e-01, 4.46193069e-01,
          4.46193069e-01, 9.62861162e-03, 0., 0., 3.02635925e-03,
          4.46193069e-01, 4.46193069e-01, 4.43593025e-01, 4.43593025e-01,
          4.43593025e-01, 4.47755866e-02, 9.49575156e-02, 2.37237029e-02,
          1.05129769e-02, 4.43593025e-01, 4.43593025e-01, 2.63868302e-01,
          5.76767735e-02, 1.43851656e-02, 1.68554373e-02, 3.94593738e-02,
          1.61404517e-02, 1.93256736e-01, 6.63613260e-01, 6.63613260e-01,
          5.99754393e-01, 5.99754393e-01, 3.49193603e-01, 8.20811838e-02,
          1.45982146e-01, 1.87505126e-01, 1.68771759e-01, 1.08656637e-01,
          2.21739098e-01, 2.18216643e-01, 3.07115287e-01, 3.58260572e-01,
          4.68063116e-01, 1.65014908e-01, 1.18062429e-01, 5.82506955e-02,
          4.80244398e-01, 4.80244398e-01, 8.78079534e-02, 4.22830820e-01,
          4.22830820e-01, 4.22830820e-01, 4.22830820e-01, 1.65993035e-01,
          4.28911187e-02, 4.22830820e-01, 2.54446626e-01, 4.64553013e-03,
          1.02538779e-01, 4.88055408e-01, 3.30329806e-01, 1.28829479e-01,
          3.47160585e-02, 5.29162049e-01, 5.41993320e-01, 2.12519199e-01,
          1.70537010e-02, 4.28650141e-01, 4.28650141e-01, 4.28650141e-01,
          2.76822567e-01, 4.28650141e-01, 4.28650141e-01, 9.58024804e-03,
          3.79302161e-04, 1.38258003e-03, 1.64280087e-02, 4.82701540e-01,
          4.82701540e-01, 6.79679587e-02, 3.60288411e-01, 3.34347069e-01,
          4.82701540e-01, 2.22911254e-01, 3.75066847e-01, 3.96294206e-01,
          3.96294206e-01, 3.96294206e-01, 1.72230393e-01, 1.95014045e-01,
          4.92607169e-02, 3.96294206e-01, 3.96294206e-01, 1.40515938e-01,
          4.40246433e-01, 4.40246433e-01, 5.66909947e-02, 2.09455658e-02,
          4.40246433e-01, 4.40246433e-01, 4.40246433e-01, 5.58617227e-02,
          0., 9.64789763e-02, 3.31844270e-01, 4.67797279e-01,
          4.67797279e-01, 4.67797279e-01, 4.67797279e-01, 2.36952659e-02,
          0., 0., 3.60598825e-02, 6.61794722e-01, 6.61794722e-01,
          1.76124990e-01, 1.80955708e-01, 2.06809059e-01, 8.71126726e-02,
          4.49960269e-02, 1.56369209e-01, 7.60286748e-02, 1.88936681e-01,
          5.25948226e-01, 5.25948226e-01, 5.25948226e-01, 2.59518865e-02,
          1.03290170e-01, 2.95992821e-01, 7.95796290e-02, 8.05259869e-02,
          8.08744505e-03, 5.14707938e-02, 4.91942734e-01, 6.05865180e-01,
          6.05865180e-01, 2.84591783e-02, 3.81533876e-02 ]
      - [ 5.68498790e-01, 5.68498790e-01, 1.56916305e-01, 0., 0., 0.,
          3.96694243e-03, 1.05794929e-02, 5.68498790e-01, 5.69151223e-01,
          5.56899458e-02, 0., 0., 0., 0., 3.68849337e-01, 4.55301195e-01,
          5.69151223e-01, 4.27202493e-01, 4.32146609e-01, 2.57251650e-01,
          0., 0., 0., 4.32146609e-01, 4.32146609e-01, 4.32146609e-01,
          4.62061018e-01, 4.62061018e-01, 1.76489294e-01, 0., 0.,
          2.54288148e-02, 4.62061018e-01, 3.31040621e-01, 4.62061018e-01,
          5.32914102e-01, 5.32914102e-01, 5.32914102e-01, 4.78803217e-02,
          7.03935400e-02, 2.09448040e-01, 1.91321075e-01, 2.57322472e-02,
          2.33031705e-01, 3.88569623e-01, 3.88569623e-01, 2.64753830e-02,
          1.11399926e-01, 2.77649343e-01, 3.88569623e-01, 3.88569623e-01,
          3.88569623e-01, 3.88569623e-01, 4.43102658e-01, 4.43102658e-01,
          9.03202444e-02, 5.49481623e-02, 4.71783914e-02, 2.17079595e-02,
          4.43102658e-01, 4.43102658e-01, 4.43102658e-01, 4.01028633e-01,
          5.08415580e-01, 7.91178346e-02, 0., 0., 5.08415580e-01,
          5.08415580e-01, 2.12734908e-01, 8.44005421e-02, 5.45497462e-02,
          4.43309128e-01, 4.43309128e-01, 4.43309128e-01, 4.43309128e-01,
          4.43309128e-01, 6.18098564e-02, 5.46887936e-03, 7.83003941e-02,
          8.06292817e-02, 1.10321872e-01, 4.72875655e-01, 4.81920391e-01,
          4.81920391e-01, 4.81920391e-01, 3.16016115e-02, 1.56138137e-01,
          1.75452530e-01, 3.61012340e-01, 3.18934262e-01, 3.33129406e-01,
          3.61012340e-01, 3.61012340e-01, 3.61012340e-01, 4.14672792e-02,
          3.61012340e-01, 3.61012340e-01, 2.41992980e-01, 3.66458565e-01,
          4.98862751e-03, 1.30567513e-03, 3.02487880e-01, 5.94205976e-01,
          5.94205976e-01, 4.59359065e-02, 3.76457460e-02, 0.,
          1.91204492e-02, 1.10207133e-01, 5.72065413e-01, 5.72065413e-01,
          5.72065413e-01, 0., 0., 0., 0., 5.59645258e-02, 4.65205997e-01,
          5.08387625e-01, 5.08387625e-01, 5.08387625e-01, 0., 0., 0.,
          1.07321097e-02, 5.51934028e-03, 1.07253045e-01, 5.72272420e-01,
          5.72272420e-01, 5.72272420e-01, 1.09869456e-02, 3.52514256e-03,
          4.04792512e-03, 2.59222952e-03, 0., 0., 1.21057630e-02,
          6.73654795e-01, 6.73654795e-01, 2.87126362e-01, 5.52950874e-02,
          9.77734104e-04 ]
      - [ 2.48010084e-01, 5.39011180e-01, 5.39011180e-01, 5.39011180e-01,
          0., 0., 0., 0., 2.48010084e-01, 4.20727462e-01, 2.02596560e-01,
          4.20727462e-01, 4.20727462e-01, 0., 0., 2.63995945e-01,
          4.20727462e-01, 4.20727462e-01, 5.41086376e-01, 1.55125663e-01,
          1.51547669e-02, 2.95337047e-02, 0., 0., 3.01839978e-01,
          5.41086376e-01, 5.41086376e-01, 0., 0., 0., 0., 0., 0.,
          4.59536284e-01, 6.25532150e-01, 6.25532150e-01, 0.,
          5.75688422e-01, 5.75688422e-01, 5.75688422e-01, 0., 0., 0., 0.,
          0., 3.99492443e-01, 4.57792908e-01, 4.57792908e-01,
          4.57792908e-01, 1.66287031e-02, 1.81327071e-02, 4.74047735e-02,
          2.37181216e-01, 3.84711057e-01, 4.64583546e-01, 2.49634013e-01,
          1.99384049e-01, 7.16988221e-02, 1.31784394e-01, 8.61921310e-02,
          4.64583546e-01, 4.64583546e-01, 4.64583546e-01, 0., 0., 0.,
          3.52780963e-03, 1.87745895e-02, 5.11227399e-02, 6.53685451e-01,
          6.53685451e-01, 3.68627250e-01, 0., 6.99735463e-01,
          6.99735463e-01, 1.17283724e-01, 0., 0., 0., 0., 0.,
          7.99084920e-03, 5.29797137e-01, 5.29797137e-01, 1.71084791e-01,
          3.75785939e-02, 5.15386939e-01, 3.70083243e-01, 1.97288604e-03,
          1.94775849e-03, 1.60305072e-02, 2.15975583e-01, 1.25229225e-01,
          8.76098499e-02, 5.08474290e-01, 5.08474290e-01, 5.08474290e-01,
          3.85570854e-01, 1.89296175e-02, 0., 0., 0., 1.58280320e-02,
          4.98636961e-01, 4.98636961e-01, 4.98636961e-01, 4.98636961e-01,
          1.46241998e-02, 0., 5.07340968e-01, 7.55096853e-01,
          4.06075358e-01, 0., 0., 0., 0., 0., 0., 2.24879518e-01,
          4.36546773e-01, 4.36546773e-01, 4.27094579e-01, 4.36546773e-01,
          4.36546773e-01, 1.91437621e-02, 0., 0., 2.34223809e-02,
          8.38204771e-02, 2.20720932e-01, 5.55766642e-01, 5.55766642e-01,
          5.55766642e-01, 1.07369803e-01, 0., 0., 0., 0., 3.05279135e-03,
          6.34555101e-01, 6.34555101e-01, 4.25342351e-01, 8.61318856e-02,
          0. ]
      - [ 4.84727859e-01, 4.84727859e-01, 1.81608349e-01, 0., 0., 0.,
          1.49440870e-01, 4.84727859e-01, 4.84727859e-01, 4.68125701e-01,
          1.18845619e-01, 0., 0., 0., 0., 5.03885448e-01, 5.03885448e-01,
          5.03885448e-01, 6.66180730e-01, 3.25201452e-01, 0., 0., 0., 0.,
          0., 0., 6.66180730e-01, 7.04615593e-01, 0., 0., 0., 0., 0., 0.,
          0., 7.04615593e-01, 3.83109212e-01, 3.83109212e-01,
          3.83109212e-01, 3.39869142e-01, 4.92402771e-03, 1.21148746e-03,
          3.83109212e-01, 3.83109212e-01, 3.83109212e-01, 5.18029332e-01,
          2.53937304e-01, 7.17331190e-03, 3.26138027e-02, 1.10127255e-01,
          1.26953134e-02, 4.65939075e-01, 4.03893620e-01, 5.18029332e-01,
          5.53242862e-01, 5.53242862e-01, 9.22500715e-03, 9.05708410e-03,
          1.73459396e-01, 2.11624280e-01, 2.56116223e-02, 2.33714785e-02,
          5.53242862e-01, 4.20390666e-01, 5.45656355e-03, 0.,
          2.22240351e-02, 4.20390666e-01, 3.59212160e-01, 4.20390666e-01,
          3.99161994e-01, 4.20390666e-01, 8.81352052e-02, 9.12350565e-02,
          5.39507926e-01, 5.39507926e-01, 5.39507926e-01, 4.01506908e-02,
          1.21632986e-01, 1.36007756e-01, 2.65347958e-01, 4.61669445e-01,
          6.52009472e-02, 2.42707521e-01, 4.61669445e-01, 4.61669445e-01,
          4.61669445e-01, 4.37095612e-02, 6.13530278e-02, 2.72031605e-01,
          3.56780380e-01, 7.16097280e-02, 3.68821025e-01, 4.03614342e-01,
          4.40861762e-01, 4.40861762e-01, 4.07145411e-01, 1.11473706e-02,
          9.81466696e-02, 1.68135524e-01, 2.04280601e-03, 0.,
          1.59147486e-01, 5.49148083e-01, 5.49148083e-01, 5.23772657e-01,
          1.77789256e-01, 1.78438902e-01, 0., 0., 3.92566808e-02,
          7.00436175e-01, 7.00436175e-01, 1.01218566e-01, 0., 0., 0., 0.,
          3.67928222e-02, 3.77997816e-01, 5.33700526e-01, 5.33700526e-01,
          5.29869437e-01, 0., 0., 0., 0., 8.43220018e-03, 2.80735254e-01,
          5.20240128e-01, 5.20240128e-01, 5.20240128e-01, 3.21306318e-01,
          2.70885695e-02, 0., 0., 0., 0., 0., 5.77973902e-01,
          5.77973902e-01, 5.67555010e-01, 6.32637814e-02, 0. ]
      - [ 5.79453111e-01, 5.79453111e-01, 5.59929550e-01, 0.,
          9.65449202e-04, 3.00991684e-02, 3.52091417e-02, 5.73276402e-03,
          8.35555121e-02, 4.46823895e-01, 4.46823895e-01, 2.78948769e-02,
          0., 1.41282693e-01, 4.46823895e-01, 3.46556306e-01,
          2.36833811e-01, 4.46823895e-01, 4.03330535e-01, 4.03330535e-01,
          1.36285901e-01, 0., 3.66589241e-02, 4.03330535e-01,
          4.03330535e-01, 4.03330535e-01, 4.03330535e-01, 4.58255291e-01,
          4.18449938e-01, 2.36104317e-02, 0., 0., 0., 4.35627222e-01,
          4.58255291e-01, 4.58255291e-01, 1.25037506e-01, 6.41092539e-01,
          6.41092539e-01, 6.18968084e-02, 6.07066322e-04, 3.75999846e-02,
          3.72011244e-01, 1.11021914e-01, 1.43351394e-03, 2.40649149e-01,
          2.75712371e-01, 3.53214175e-01, 9.31983627e-03, 3.87934327e-01,
          4.37151998e-01, 4.37151998e-01, 4.37151998e-01, 1.14272244e-01,
          4.74530518e-01, 4.74530518e-01, 4.74530518e-01, 0.,
          1.04867168e-01, 3.37449402e-01, 3.83795798e-01, 1.79294944e-01,
          1.24127872e-01, 4.09066051e-01, 4.09066051e-01, 2.76946455e-01,
          0., 2.01887280e-01, 2.04402864e-01, 4.09066051e-01,
          4.09066051e-01, 4.09066051e-01, 0., 5.63203692e-01,
          7.65754342e-01, 1.44175500e-01, 3.81608866e-02, 1.09633142e-02,
          2.10233420e-01, 1.48741484e-01, 9.69489478e-03, 3.77659231e-01,
          2.48829335e-01, 3.77659231e-01, 6.71150982e-02, 2.72116750e-01,
          3.77659231e-01, 3.77659231e-01, 3.77659231e-01, 3.77659231e-01,
          4.85357583e-01, 4.85357583e-01, 1.71180904e-01, 2.00502817e-02,
          4.85357583e-01, 4.85357583e-01, 7.63294175e-02, 3.62533443e-02,
          1.26566291e-01, 2.21420407e-01, 1.76312640e-01, 9.28544104e-02,
          2.01884029e-03, 6.30238593e-01, 6.30238593e-01, 2.99044073e-01,
          1.01915419e-01, 1.03696756e-01, 0., 2.96293080e-01,
          5.41776359e-01, 5.41776359e-01, 5.41776359e-01, 1.61409989e-01,
          6.20388519e-03, 1.06873708e-02, 5.41497767e-03, 1.17700100e-01,
          3.70127410e-02, 3.06159526e-01, 4.69805092e-01, 5.71256340e-01,
          5.71256340e-01, 2.40481868e-02, 2.66391914e-02, 1.03277758e-01,
          1.01622827e-01, 1.26276119e-02, 2.09621759e-03, 4.76553803e-03,
          7.00462282e-01, 7.00462282e-01, 2.28173509e-02, 0.,
          2.60492489e-02, 0., 0., 5.83660963e-04, 1.32689404e-03,
          6.79853618e-01, 6.79853618e-01, 2.62314498e-01, 0., 0. ]
      - [ 5.18325031e-01, 5.18325031e-01, 5.18325031e-01, 3.33884716e-01,
          2.82782353e-02, 0., 0., 0., 2.76699066e-01, 4.65448231e-01,
          3.65169078e-01, 3.98780167e-01, 4.65448231e-01, 2.10453048e-01,
          7.62091130e-02, 0., 5.43350913e-02, 4.65448231e-01,
          5.16595125e-01, 2.07117250e-06, 1.21163391e-01, 1.81417331e-01,
          1.66149676e-01, 2.88329124e-02, 3.43801141e-01, 5.16595125e-01,
          5.16595125e-01, 1.27804458e-01, 0., 0., 0., 0., 0.,
          6.62315488e-01, 6.62315488e-01, 3.15800995e-01, 5.41620970e-01,
          3.51717710e-01, 5.00530243e-01, 1.81806237e-01, 2.43981984e-02,
          0., 0., 0., 5.41620970e-01, 4.07442570e-01, 3.33811313e-01,
          4.07442570e-01, 4.07442570e-01, 4.07442570e-01, 2.30651557e-01,
          3.06667527e-03, 3.52542624e-02, 4.07442570e-01, 3.90333802e-01,
          3.79452467e-01, 3.90333802e-01, 2.23923385e-01, 1.90282464e-01,
          6.29666001e-02, 3.90333802e-01, 3.90333802e-01, 3.90333802e-01,
          4.98707384e-01, 7.09320325e-03, 1.11073991e-02, 0.,
          2.01278995e-03, 2.26446264e-03, 4.98707384e-01, 4.98707384e-01,
          4.98707384e-01, 4.34950918e-01, 2.13751405e-01, 4.34950918e-01,
          4.34950918e-01, 4.34950918e-01, 6.36711419e-02, 0., 0.,
          4.34950918e-01, 4.89663988e-01, 1.28428847e-01, 6.04328029e-02,
          4.89663988e-01, 4.89663988e-01, 1.20169133e-01, 1.33257126e-02,
          3.55217904e-02, 4.89663988e-01, 3.92920494e-01, 2.31853679e-01,
          1.20436229e-01, 4.16019410e-01, 4.16019410e-01, 4.16019410e-01,
          1.93409204e-01, 2.82393575e-01, 3.69901359e-01, 2.14997783e-01,
          1.46403518e-02, 2.29256414e-02, 3.45065445e-01, 4.07405436e-01,
          4.07405436e-01, 4.07405436e-01, 4.07405436e-01, 4.07405436e-01,
          0., 2.29204562e-03, 6.66178465e-02, 6.93818033e-01,
          6.93818033e-01, 1.60822108e-01, 0., 0., 0., 0., 0.,
          8.92352872e-03, 6.93595767e-01, 6.93595767e-01, 1.75631657e-01,
          0., 0., 0., 0., 0., 6.84971223e-03, 5.75139999e-01,
          5.75139999e-01, 5.75139999e-01, 4.30350862e-02, 0., 0., 0., 0.,
          0., 5.56101501e-01, 5.56101501e-01, 5.56101501e-01,
          2.52534747e-01, 5.40966950e-02, 0. ]
      - [ 6.69587314e-01, 6.69587314e-01, 9.77153853e-02, 0., 0., 0., 0.,
          0., 2.95080990e-01, 6.11242354e-01, 5.76377153e-01, 0.,
          5.47702238e-03, 1.24581344e-01, 4.43402939e-02, 0., 0.,
          5.20146668e-01, 6.58442080e-01, 4.51519713e-02, 6.19924348e-03,
          6.38281256e-02, 3.11285853e-01, 3.92283425e-02, 8.00182606e-05,
          1.47463560e-01, 6.58442080e-01, 3.74878287e-01, 0.,
          1.22292656e-02, 2.06888802e-02, 2.46038325e-02, 1.14005568e-04,
          2.60675728e-01, 6.26130998e-01, 6.26130998e-01, 5.54560661e-01,
          5.54560661e-01, 5.54560661e-01, 2.02010646e-01, 8.35081264e-02,
          2.77854558e-02, 1.38595313e-01, 3.46711762e-02, 5.37097044e-02,
          4.06039804e-01, 3.57935727e-01, 3.25120357e-03, 3.11334338e-02,
          4.06039804e-01, 4.06039804e-01, 4.06039804e-01, 3.46908748e-01,
          2.95003444e-01, 3.54159713e-01, 3.84551734e-01, 3.84551734e-01,
          3.84551734e-01, 3.84551734e-01, 3.41058314e-01, 4.86784838e-02,
          1.44893438e-01, 3.73529732e-01, 3.23693492e-02, 1.73711360e-01,
          4.24239516e-01, 1.72486901e-01, 6.31355122e-02, 7.61146247e-02,
          5.41888475e-01, 5.41888475e-01, 3.95687222e-01, 2.42899545e-02,
          3.58769834e-01, 5.34641743e-01, 5.34641743e-01, 5.34641743e-01,
          4.19221306e-03, 7.52819180e-02, 4.20776382e-02, 1.93414353e-02,
          1.77771017e-01, 3.19370031e-02, 1.62892297e-01, 4.56442654e-01,
          4.56442654e-01, 1.89263567e-01, 2.59044766e-01, 4.56442654e-01,
          4.56442654e-01, 4.18184251e-01, 4.18184251e-01, 1.57805517e-01,
          1.87280625e-01, 4.18184251e-01, 4.18184251e-01, 1.09095708e-01,
          2.22606912e-01, 4.18184251e-01, 1.02530956e-01, 3.03108215e-01,
          1.54570460e-01, 1.57564040e-02, 6.15758263e-02, 6.43388391e-01,
          6.43388391e-01, 1.88043162e-01, 0., 1.25183314e-01,
          4.36140090e-01, 5.12831807e-01, 5.12831807e-01, 5.12831807e-01,
          0., 0., 0., 0., 4.41731781e-01, 3.26663792e-01, 2.90625244e-01,
          4.41731781e-01, 4.41731781e-01, 1.14502117e-01, 2.31059328e-01,
          2.08928138e-01, 3.29976410e-01, 2.89617032e-01, 1.75468236e-01,
          1.77552283e-01, 3.68465543e-01, 5.49055099e-01, 5.49055099e-01,
          2.11577535e-01, 1.04836576e-01, 2.32119590e-01, 4.05918598e-01,
          2.28094146e-01, 1.32760182e-01, 3.09559808e-04, 3.20067137e-01,
          4.05918598e-01, 4.05918598e-01, 4.05918598e-01, 4.05918598e-01 ]
      - [ 6.09319270e-01, 5.40668607e-01, 3.04059029e-01, 0., 0., 0., 0.,
          0., 4.87721026e-01, 5.89430094e-01, 5.46193182e-01,
          2.10105088e-02, 0., 0., 0., 0., 2.21391954e-02, 5.89430094e-01,
          6.35462463e-01, 2.04071134e-01, 0., 0., 0., 0., 0.,
          3.79980773e-01, 6.35462463e-01, 1.55290484e-01, 0., 0., 0., 0.,
          0., 0., 6.96037650e-01, 6.96037650e-01, 5.71454465e-01,
          5.71454465e-01, 5.71454465e-01, 2.54815146e-02, 6.49142684e-03,
          8.00424591e-02, 8.52092449e-03, 0., 8.62681791e-02,
          4.88801301e-01, 4.88801301e-01, 2.80856192e-01, 2.11231068e-01,
          6.88053519e-02, 2.93202788e-01, 1.79946944e-01, 1.78202674e-01,
          4.88801301e-01, 3.70289922e-01, 3.70289922e-01, 1.16914265e-01,
          2.49945462e-01, 3.70289922e-01, 3.70289922e-01, 3.12203497e-01,
          3.70289922e-01, 3.70289922e-01, 6.09488077e-02, 9.84953567e-02,
          1.34491518e-01, 1.69238076e-01, 1.36173919e-01, 9.22394171e-02,
          5.49942732e-01, 5.49942732e-01, 5.49942732e-01, 1.63646638e-02,
          6.14965141e-01, 6.14965141e-01, 4.56273377e-01, 1.00955218e-01,
          1.08469330e-01, 8.37944895e-02, 7.97538459e-03, 0.,
          1.42709404e-01, 3.96015972e-01, 3.96015972e-01, 3.96015972e-01,
          3.96015972e-01, 3.96015972e-01, 3.96015972e-01, 1.68988347e-01,
          7.84138441e-02, 3.50310057e-01, 3.50310057e-01, 1.89467415e-01,
          3.50310057e-01, 3.50310057e-01, 3.50310057e-01, 3.50310057e-01,
          3.50310057e-01, 3.18719804e-01, 2.03541800e-01, 1.99875310e-01,
          1.12918794e-01, 7.55727589e-02, 2.45819286e-01, 5.24453104e-01,
          5.24453104e-01, 5.24453104e-01, 9.66481045e-02, 0.,
          4.66031097e-02, 5.74558496e-01, 5.74558496e-01, 5.74558496e-01,
          1.69126261e-02, 3.80195603e-02, 2.61532632e-03, 0.,
          3.13934754e-03, 8.13061371e-03, 1.86189383e-01, 5.20996690e-01,
          5.20996690e-01, 5.20996690e-01, 3.78938019e-01, 4.63428274e-02,
          0., 6.02666959e-02, 3.80160175e-02, 4.94111888e-02,
          5.47620296e-01, 5.47620296e-01, 5.45299530e-01, 2.90354848e-01,
          5.12242913e-02, 5.43614104e-02, 1.96028501e-02, 5.56415366e-03,
          0., 1.19387560e-01, 5.66255510e-01, 5.66255510e-01,
          5.66255510e-01, 1.32811025e-01, 1.01102879e-02 ]
      - [ 6.82723045e-01, 6.82723045e-01, 0., 0., 0., 0., 0., 0.,
          2.46906534e-01, 6.73969984e-01, 6.41495705e-01, 0., 0.,
          9.88723990e-03, 1.64012462e-02, 0., 0., 3.56584579e-01,
          6.53377891e-01, 1.54644728e-01, 0., 2.12338865e-02,
          2.01611653e-01, 6.47342503e-02, 4.35270509e-03, 2.65422523e-01,
          6.53377891e-01, 3.60852391e-01, 0., 0., 3.94460857e-02,
          8.33641291e-02, 9.15426575e-03, 1.41522735e-01, 6.46033168e-01,
          6.46033168e-01, 6.17794096e-01, 6.17794096e-01, 4.45010096e-01,
          1.55677974e-01, 4.97157052e-02, 2.81117740e-03, 3.71503420e-02,
          1.07908621e-02, 6.51679933e-02, 5.07586300e-01, 4.88894224e-01,
          6.43296589e-05, 7.93666020e-03, 3.07186723e-01, 5.07586300e-01,
          3.54981512e-01, 1.01137571e-01, 9.97893959e-02, 3.75689536e-01,
          1.83306172e-01, 3.58754247e-01, 4.04083937e-01, 4.85089779e-01,
          4.85089779e-01, 3.05865537e-02, 1.02250271e-01, 2.15425000e-01,
          1.27487313e-02, 2.47211650e-01, 4.58268136e-01, 3.90185624e-01,
          2.32175916e-01, 5.27023897e-02, 4.58268136e-01, 4.58268136e-01,
          3.08527887e-01, 1.35659099e-01, 2.27902621e-01, 5.52987218e-01,
          5.52987218e-01, 5.52987218e-01, 8.07185483e-04, 7.47833773e-02,
          3.38496976e-02, 3.35539388e-03, 5.50426655e-02, 9.08677466e-03,
          2.68083006e-01, 4.62609440e-01, 1.89922065e-01, 4.62609440e-01,
          4.62609440e-01, 4.62609440e-01, 1.68220505e-01, 4.28399652e-01,
          4.28399652e-01, 4.28399652e-01, 5.99747896e-02, 2.13866994e-01,
          4.28399652e-01, 2.06314936e-01, 3.63572955e-01, 1.93722486e-01,
          5.72214872e-02, 4.81685877e-01, 4.81685877e-01, 3.69316973e-02,
          1.13351382e-02, 4.81685877e-01, 4.81685877e-01, 2.49674067e-01,
          0., 0., 1.09396260e-02, 6.20990038e-01, 6.20990038e-01,
          4.71570700e-01, 0., 6.02268800e-03, 2.75906199e-03, 0.,
          8.52644295e-02, 1.63527001e-02, 3.81048590e-01, 5.04054844e-01,
          4.30170625e-01, 0., 1.15626492e-01, 5.04054844e-01,
          3.68336201e-01, 4.03574288e-01, 4.03574288e-01, 4.30713035e-02,
          3.74723583e-01, 4.03574288e-01, 4.03574288e-01, 6.72810003e-02,
          1.86568186e-01, 4.03574288e-01, 1.15262762e-01, 2.85509229e-01,
          4.27719131e-02, 0., 1.90437362e-01, 6.55731142e-01,
          6.55731142e-01, 2.42880080e-02, 0. ]
      - [ 5.64405978e-01, 5.64405978e-01, 9.53614861e-02, 0., 0., 0., 0.,
          1.72068864e-01, 5.64405978e-01, 4.88236964e-01, 4.88236964e-01,
          1.65856436e-01, 0., 0., 0., 1.18801616e-01, 4.88236964e-01,
          4.88236964e-01, 5.17278612e-01, 5.17278612e-01, 9.10526663e-02,
          2.99468003e-02, 8.51226524e-02, 1.17137834e-01, 2.27598976e-02,
          4.01783407e-01, 5.17278612e-01, 4.27969009e-01, 4.67870571e-02,
          0., 6.13996573e-02, 7.65088648e-02, 4.09338549e-02,
          2.35722691e-01, 6.08978152e-01, 6.08978152e-01, 3.97493452e-01,
          3.97493452e-01, 3.97493452e-01, 1.46465272e-01, 2.87077725e-01,
          2.09763765e-01, 3.97493452e-01, 2.41158381e-01, 3.97493452e-01,
          4.16139662e-01, 4.16139662e-01, 3.74145120e-01, 1.50063157e-01,
          2.62270778e-01, 1.52036935e-01, 2.20792383e-01, 4.16139662e-01,
          4.16139662e-01, 3.64632279e-01, 3.64632279e-01, 2.55610317e-01,
          2.85391450e-01, 2.59285748e-01, 3.64632279e-01, 3.64632279e-01,
          3.42869669e-01, 3.64632279e-01, 5.27148880e-02, 1.69506714e-01,
          4.56713527e-01, 3.90065759e-01, 1.12817220e-01, 1.90254897e-01,
          4.56713527e-01, 4.56713527e-01, 3.70255440e-01, 1.81703612e-01,
          4.19295937e-01, 4.19295937e-01, 4.19295937e-01, 4.19295937e-01,
          3.73341560e-01, 1.67565480e-01, 1.00509383e-01, 2.86347061e-01,
          2.32479647e-01, 1.71576560e-01, 2.20699906e-01, 5.20114958e-01,
          5.24257600e-01, 5.24257600e-01, 1.04818083e-01, 6.38181567e-02,
          1.65225089e-01, 2.36923724e-01, 1.46488279e-01, 2.34305441e-01,
          4.27153111e-01, 4.27153111e-01, 3.15034896e-01, 2.44108453e-01,
          3.96266520e-01, 4.27153111e-01, 2.67549932e-01, 3.73933077e-01,
          3.27594757e-01, 1.84865460e-01, 3.87749344e-01, 3.87749344e-01,
          3.87749344e-01, 3.74395937e-01, 2.28040859e-01, 0.,
          8.39482620e-03, 2.02915430e-01, 6.48807228e-01, 6.48807228e-01,
          3.32228512e-01, 0., 0., 0., 0., 0., 2.91960631e-02,
          3.54427904e-01, 6.58390224e-01, 6.58390224e-01, 0., 0., 0.,
          2.72489246e-02, 1.34288566e-03, 5.74755967e-02, 6.98002636e-01,
          6.98002636e-01, 1.15102828e-01, 0., 1.05216140e-02,
          3.47794667e-02, 2.62830667e-02, 4.33881348e-03, 8.13268067e-04,
          3.20977330e-01, 5.45988739e-01, 5.45988739e-01, 5.42433202e-01,
          1.04238437e-02, 1.61594469e-02 ]
      - [ 6.69236183e-01, 6.69236183e-01, 1.19208083e-01, 0.,
          1.22166499e-02, 2.44292838e-04, 3.73147166e-04, 8.98169586e-04,
          2.88450837e-01, 4.98397171e-01, 4.98397171e-01, 5.61168324e-03,
          7.05040852e-03, 3.63714136e-02, 5.71560289e-04, 4.34270594e-03,
          4.98397171e-01, 4.98397171e-01, 5.64759493e-01, 1.93628445e-01,
          0., 1.07638352e-03, 1.18909834e-03, 0., 2.40830518e-03,
          5.64759493e-01, 5.64759493e-01, 5.69620252e-01, 9.12827551e-02,
          0., 0., 0., 0., 1.12150028e-01, 5.69620252e-01, 5.69620252e-01,
          1.92706957e-01, 6.50175095e-01, 6.50175095e-01, 2.06496492e-02,
          7.01541081e-02, 7.74443522e-02, 3.12209636e-01, 4.43666838e-02,
          1.13384165e-02, 2.74899483e-01, 3.39308113e-01, 3.39308113e-01,
          3.39308113e-01, 3.39308113e-01, 3.39308113e-01, 3.39308113e-01,
          3.39308113e-01, 3.39308113e-01, 5.64772844e-01, 1.88521460e-01,
          1.46082520e-01, 6.94276914e-02, 2.20867321e-02, 5.99795673e-03,
          1.33629814e-02, 5.42236567e-01, 5.64772844e-01, 4.96640891e-01,
          4.08583917e-02, 4.32959152e-03, 5.22972550e-04, 1.30510621e-03,
          8.21027383e-02, 4.96640891e-01, 4.96640891e-01, 4.96640891e-01,
          7.65639544e-02, 5.34025550e-01, 5.34025550e-01, 5.34025550e-01,
          1.58647642e-01, 2.25503631e-02, 2.97163963e-01, 1.13934614e-01,
          7.93090165e-02, 3.48252088e-01, 3.48252088e-01, 3.48252088e-01,
          3.48252088e-01, 3.48252088e-01, 3.48252088e-01, 3.48252088e-01,
          1.62124932e-01, 3.48252088e-01, 4.50565629e-02, 1.78409919e-01,
          1.07864685e-01, 4.29527640e-01, 6.83227479e-01, 5.39085627e-01,
          6.94074258e-02, 2.19229027e-03, 3.09060048e-02, 1.12499250e-03,
          5.67733252e-04, 2.28404393e-03, 8.84508491e-02, 5.63101709e-01,
          5.63101709e-01, 5.63101709e-01, 1.87835947e-01, 3.68958851e-03,
          1.09310336e-02, 1.10036150e-01, 5.72044492e-01, 5.72044492e-01,
          5.72044492e-01, 1.40126059e-02, 0., 5.03689470e-03,
          1.15774069e-02, 3.35948467e-02, 2.29558796e-02, 1.95999384e-01,
          5.61362743e-01, 5.61362743e-01, 5.61362743e-01, 9.05946493e-02,
          7.98566546e-03, 2.58326586e-02, 5.43859147e-04, 1.09775714e-03,
          2.52173370e-04, 3.63113999e-01, 6.54094398e-01, 6.54094398e-01,
          7.67113119e-02, 7.27542210e-03, 0., 0., 0., 0., 2.54345834e-01,
          5.56657493e-01, 5.56657493e-01, 5.56657493e-01, 1.21096596e-02,
          0. ]
      - [ 2.80857652e-01, 6.76145494e-01, 6.76145494e-01, 0., 0., 0., 0.,
          0., 4.85551916e-03, 4.18699712e-01, 4.18699712e-01,
          4.18699712e-01, 0., 0., 1.95695739e-03, 4.18699712e-01,
          4.18699712e-01, 3.45349640e-01, 8.69958624e-02, 0., 0., 0., 0.,
          3.21777607e-03, 6.85941577e-01, 6.85941577e-01, 2.11049899e-01,
          6.96296155e-01, 1.52945802e-01, 0., 0., 0., 0., 0., 0.,
          6.96296155e-01, 0., 7.04615593e-01, 7.04615593e-01, 0., 0., 0.,
          0., 0., 0., 2.40982212e-02, 5.59478343e-01, 5.59478343e-01, 0.,
          0., 4.37116735e-02, 5.59478343e-01, 2.29942650e-01, 0.,
          5.48649490e-01, 5.48649490e-01, 3.59132737e-02, 0.,
          4.37333900e-03, 1.29842058e-01, 5.48649490e-01, 2.51265287e-01,
          1.00847691e-01, 5.17531991e-01, 5.17531991e-01, 5.72972745e-03,
          1.55058196e-02, 3.93869162e-01, 4.55558449e-01, 2.95934472e-02,
          0., 3.08767438e-01, 0., 7.03778923e-01, 7.03778923e-01,
          4.18074280e-02, 0., 0., 2.35720072e-02, 7.85733573e-03, 0.,
          4.41148818e-01, 4.41148818e-01, 4.41148818e-01, 3.69884819e-02,
          6.66486938e-03, 1.32868990e-01, 4.41148818e-01, 4.26317066e-01,
          1.27793923e-01, 4.85147089e-01, 4.85147089e-01, 1.23134430e-03,
          0., 2.15045094e-01, 4.85147089e-01, 4.85147089e-01,
          7.49120191e-02, 4.27304134e-02, 4.61644113e-01, 2.51937896e-01,
          5.76104503e-04, 4.79923002e-02, 5.96598327e-01, 5.96598327e-01,
          5.67631125e-02, 0., 8.38754419e-03, 0., 4.79611039e-01,
          5.45369387e-01, 5.45369387e-01, 4.11875755e-01, 0.,
          5.18568093e-03, 1.72856031e-03, 0., 2.28968158e-01,
          1.35764375e-01, 4.63730812e-01, 4.63730812e-01, 4.63730812e-01,
          4.63730812e-01, 1.71512797e-01, 1.38852894e-01, 1.25011414e-01,
          1.64783731e-01, 1.24056116e-01, 0., 1.71220917e-02,
          3.10214281e-01, 6.52373016e-01, 6.52373016e-01, 3.29285674e-02,
          4.63894308e-02, 0., 0., 0., 0., 6.42544210e-01, 6.62905276e-01,
          3.75600159e-01, 0., 0. ]
      - [ 5.51521957e-01, 5.51521957e-01, 2.86444187e-01, 0., 0., 0., 0.,
          0., 5.51442862e-01, 6.93019032e-01, 1.53421015e-01,
          9.63384937e-03, 2.04959083e-02, 9.14454162e-02, 1.08574647e-02,
          0., 0., 6.93019032e-01, 6.94969237e-01, 0., 0., 8.14318657e-03,
          1.19387850e-01, 5.02742343e-02, 1.68785418e-03, 1.01231322e-01,
          6.94969237e-01, 5.35310030e-01, 0., 0., 0., 0., 4.52163257e-03,
          3.11383134e-04, 5.94762027e-01, 5.94762027e-01, 5.23472965e-01,
          5.23472965e-01, 3.33565682e-01, 0., 8.03232864e-02,
          5.23472965e-01, 2.13603199e-01, 6.05186895e-02, 7.54555240e-02,
          4.76160020e-01, 3.23039919e-01, 9.68508609e-03, 6.63518831e-02,
          4.76160020e-01, 4.76160020e-01, 8.47974867e-02, 3.43802683e-02,
          4.44786847e-01, 3.92449260e-01, 4.50381376e-02, 5.70348427e-02,
          5.07133305e-01, 5.07133305e-01, 2.11547703e-01, 3.53955408e-03,
          1.38995588e-01, 5.07133305e-01, 1.22561336e-01, 1.81122780e-01,
          3.29052538e-01, 4.76739019e-01, 1.43340498e-01, 2.73567252e-02,
          3.68782908e-01, 4.76739019e-01, 4.76739019e-01, 1.05284922e-01,
          3.98685127e-01, 3.98685127e-01, 3.98685127e-01, 1.34582624e-01,
          2.38403216e-01, 3.60525876e-01, 3.98685127e-01, 3.79744083e-01,
          4.40688610e-01, 2.38723643e-02, 4.87132976e-03, 3.47829193e-01,
          4.40688610e-01, 4.22691166e-01, 1.32115126e-01, 3.08670729e-01,
          4.40688610e-01, 4.48046744e-01, 4.48046744e-01, 5.83995730e-02,
          1.81880862e-01, 4.48046744e-01, 3.94983321e-01, 0.,
          6.16330421e-03, 4.48046744e-01, 4.12019312e-01, 4.12019312e-01,
          3.39730412e-01, 1.58613190e-01, 3.01913500e-01, 4.12019312e-01,
          4.12019312e-01, 2.86507696e-01, 5.50551936e-02, 2.42853886e-03,
          1.48218879e-02, 2.38076583e-01, 6.75539494e-01, 6.75539494e-01,
          0., 0., 7.44603723e-02, 1.34530574e-01, 1.60159528e-01,
          1.41075754e-03, 2.16306909e-03, 6.39745116e-01, 6.39745116e-01,
          1.01716653e-01, 0., 3.12489569e-02, 3.71597677e-01,
          4.00968254e-01, 4.38472852e-02, 0., 3.59508842e-02,
          6.37770116e-01, 6.37770116e-01, 0., 8.02182767e-04,
          1.27042562e-01, 1.12294890e-01, 4.30180579e-02, 0., 0.,
          6.97140753e-01, 6.97140753e-01, 7.95709342e-02, 1.49437618e-02,
          3.85122676e-03 ]
      - [ 6.88111663e-01, 6.88111663e-01, 1.39949590e-01, 0., 0., 0., 0.,
          0., 1.62940815e-01, 5.58809876e-01, 5.58809876e-01,
          4.89994138e-02, 5.14662601e-02, 1.37959689e-01, 1.19711362e-01,
          1.84343907e-03, 1.38555363e-01, 5.58809876e-01, 5.21051586e-01,
          6.82641938e-02, 1.88866910e-02, 7.78019503e-02, 4.67192531e-02,
          1.95104014e-02, 4.08263147e-01, 5.21051586e-01, 5.21051586e-01,
          2.16186881e-01, 0., 0., 0., 0., 0., 6.16498113e-01,
          6.16498113e-01, 4.32397872e-01, 5.29020667e-01, 5.29020667e-01,
          4.94244903e-01, 6.44328585e-03, 7.82157853e-03, 3.70489836e-01,
          2.26068020e-01, 3.36442553e-02, 3.33026275e-02, 4.56772149e-01,
          4.56772149e-01, 1.25942335e-01, 2.41286457e-01, 3.89745951e-01,
          4.56772149e-01, 3.34343284e-01, 1.23975754e-01, 1.27973109e-01,
          3.92373174e-01, 3.92373174e-01, 1.23981483e-01, 1.93611637e-01,
          3.30745935e-01, 2.53074914e-01, 3.92373174e-01, 3.92373174e-01,
          3.92373174e-01, 5.30661225e-01, 0., 0., 3.30186412e-02,
          3.68778169e-01, 4.29080240e-02, 2.46124789e-01, 4.81655300e-01,
          5.30661225e-01, 1.64022878e-01, 4.39758152e-01, 4.39758152e-01,
          4.39758152e-01, 4.39758152e-01, 3.80762339e-01, 2.01513439e-01,
          9.45790783e-02, 2.49412488e-02, 4.74677294e-01, 4.74677294e-01,
          1.68545917e-01, 7.43495375e-02, 4.74677294e-01, 4.74677294e-01,
          1.89198539e-01, 1.39209434e-01, 6.98141754e-02, 4.31874514e-01,
          1.74749449e-01, 2.69742589e-02, 4.93775867e-03, 5.81323802e-01,
          5.81323802e-01, 1.08486533e-01, 7.82459602e-02, 2.87443817e-01,
          3.42668891e-01, 0., 0., 4.88326699e-01, 4.88886029e-01,
          3.25800955e-01, 1.75636411e-01, 1.95136666e-01, 4.74499792e-01,
          1.74708497e-02, 1.31911859e-01, 4.98751789e-01, 4.98751789e-01,
          4.98751789e-01, 4.80679333e-01, 0., 0., 0., 2.61383019e-02,
          8.08297284e-03, 5.40495366e-02, 1.40797451e-01, 6.96259916e-01,
          6.96259916e-01, 0., 0., 0., 0., 0., 0., 0., 7.04615593e-01,
          7.04615593e-01, 0., 0., 0., 0., 0., 0., 6.11245811e-01,
          7.07349062e-01, 3.44927341e-01, 0., 0., 0. ]
      - [ 5.41191041e-01, 5.41191041e-01, 3.39686424e-01, 0.,
          1.36168636e-02, 7.97175453e-04, 3.78843676e-03, 1.85762104e-02,
          5.41191041e-01, 5.62045693e-01, 2.01993644e-01, 5.36060194e-03,
          1.38149047e-02, 7.05035180e-02, 2.52802600e-03, 2.65210494e-02,
          5.62045693e-01, 5.62045693e-01, 5.73999584e-01, 3.09288651e-02,
          0., 2.82532163e-03, 5.58755361e-03, 0., 6.96120411e-02,
          5.73999584e-01, 5.73999584e-01, 6.23112917e-01, 1.32182827e-02,
          0., 0., 0., 0., 3.03021632e-02, 4.64915156e-01, 6.23112917e-01,
          1.89174756e-01, 6.58038497e-01, 6.58038497e-01, 7.88393840e-02,
          4.39633168e-02, 6.69632927e-02, 2.55558521e-01, 8.77364948e-02,
          7.72903860e-02, 3.37948740e-01, 3.37948740e-01, 3.37948740e-01,
          3.37948740e-01, 3.37948740e-01, 2.88008094e-01, 3.37948740e-01,
          3.37948740e-01, 3.37948740e-01, 6.04400098e-01, 8.79461467e-02,
          1.77349731e-01, 7.10106790e-02, 1.66131094e-01, 1.70687176e-02,
          9.63230804e-03, 4.37210143e-01, 6.04400098e-01, 4.87128407e-01,
          1.02862660e-02, 0., 2.41697882e-03, 1.11527964e-02,
          2.13827685e-01, 4.87128407e-01, 4.87128407e-01, 4.87128407e-01,
          1.12344977e-02, 5.01873434e-01, 5.01873434e-01, 4.67636704e-01,
          4.96948421e-01, 1.37630865e-01, 5.91494404e-02, 3.65350582e-02,
          4.11104821e-02, 3.99404705e-01, 1.33603454e-01, 2.99394906e-01,
          9.00327712e-02, 5.49560189e-01, 5.49560189e-01, 1.39407426e-01,
          9.54410806e-02, 2.94649959e-01, 7.58567303e-02, 2.24143229e-02,
          5.73184937e-02, 5.71990192e-01, 5.71990192e-01, 5.71990192e-01,
          9.26604774e-03, 3.39284563e-03, 5.59519045e-02, 1.56335421e-02,
          1.99071786e-04, 8.62182700e-04, 1.84184045e-01, 5.56338012e-01,
          5.56338012e-01, 5.56338012e-01, 1.74917415e-01, 3.38159315e-02,
          0., 2.38564476e-01, 5.07835329e-01, 5.07835329e-01,
          5.07835329e-01, 4.05369937e-01, 2.09368900e-05, 0., 0., 0.,
          1.27086928e-03, 2.66073495e-02, 4.48698029e-02, 7.03483760e-01,
          7.03483760e-01, 2.07132101e-02, 6.85968623e-03, 0., 0., 0.,
          4.97515276e-02, 5.74366748e-01, 5.74366748e-01, 5.74366748e-01,
          4.34511416e-02, 1.44837126e-02, 0., 0., 0., 5.62688708e-03,
          2.40254372e-01, 6.74436212e-01, 6.74436212e-01, 1.60522506e-01,
          4.16923361e-03, 0. ]
      - [ 5.70471406e-01, 5.70471406e-01, 1.34128973e-01, 0., 0., 0., 0.,
          0., 5.70471406e-01, 6.93516254e-01, 6.93516254e-01,
          6.94809929e-02, 0., 1.29950577e-02, 4.89410420e-04, 0., 0.,
          1.61711529e-01, 5.32242000e-01, 2.95507878e-01, 4.67520719e-03,
          0., 1.51358722e-02, 3.74738913e-04, 2.39298880e-01,
          5.32242000e-01, 5.32242000e-01, 2.02506091e-02, 0., 0., 0., 0.,
          0., 5.75570047e-01, 5.75570047e-01, 5.75570047e-01,
          4.89848226e-01, 4.89848226e-01, 1.38744831e-01, 1.26506090e-01,
          7.42482662e-04, 6.47574011e-03, 2.43230653e-03, 4.89848226e-01,
          4.89848226e-01, 5.17268956e-01, 5.17268956e-01, 1.37982637e-01,
          5.35162985e-02, 2.93121397e-01, 5.17268956e-01, 2.85873502e-01,
          3.51705439e-02, 3.67219336e-02, 1.51431695e-01, 2.21835390e-01,
          4.34397548e-01, 3.16383600e-01, 4.34397548e-01, 2.24617869e-01,
          4.34397548e-01, 4.34397548e-01, 1.34764716e-01, 1.94317090e-05,
          5.81290666e-03, 3.68254259e-02, 0., 0., 0., 7.04032838e-01,
          7.04032838e-01, 1.60475299e-02, 4.23973858e-01, 1.84853867e-01,
          2.96955019e-01, 4.23973858e-01, 4.23973858e-01, 3.80992442e-01,
          2.98056751e-02, 2.25045741e-01, 3.70757252e-01, 1.64434403e-01,
          3.80227715e-01, 4.40478325e-01, 9.58920047e-02, 2.55581081e-01,
          5.26028097e-01, 5.26028097e-01, 1.15160663e-02, 3.24493907e-02,
          0., 4.60439742e-01, 4.60439742e-01, 2.36019522e-01,
          1.22875072e-01, 3.56290400e-01, 4.60439742e-01, 4.02045220e-01,
          0., 0., 2.74768714e-02, 9.16586295e-02, 8.32089316e-03,
          1.26494560e-02, 3.75344008e-01, 6.49326086e-01, 6.49326086e-01,
          0., 0., 0., 1.08632766e-01, 5.79166055e-01, 5.79166055e-01,
          5.58043361e-01, 1.16948755e-02, 0., 0., 0., 2.76948959e-01,
          4.82405812e-01, 4.36729431e-01, 4.82405812e-01, 4.82405812e-01,
          1.72053665e-01, 0., 0., 0., 2.21863091e-01, 4.64826822e-01,
          4.64826822e-01, 4.64826822e-01, 4.64826822e-01, 2.85948426e-01,
          1.05613312e-02, 0., 0., 5.26723685e-03, 3.47558036e-02,
          9.91670936e-02, 5.58291376e-01, 5.58291376e-01, 5.58291376e-01,
          2.19743401e-01, 0. ]
      - [ 4.07416642e-01, 4.07416642e-01, 4.07416642e-01, 0., 0., 0.,
          4.07416642e-01, 4.07416642e-01, 4.07416642e-01, 4.65103865e-01,
          4.65103865e-01, 0., 0., 0., 0., 4.65103865e-01, 4.65103865e-01,
          3.60649318e-01, 5.71875036e-01, 5.71875036e-01, 0.,
          5.85987279e-03, 1.08383097e-01, 3.10326070e-02, 0.,
          2.05440130e-02, 5.71875036e-01, 5.71126759e-01, 5.96247725e-02,
          0., 1.10407788e-02, 1.03757873e-01, 1.05842063e-02,
          3.44230719e-02, 5.71126759e-01, 5.71126759e-01, 1.66667819e-01,
          4.89443451e-01, 4.89443451e-01, 0., 0., 0., 4.89443451e-01,
          4.89443451e-01, 9.54658762e-02, 4.87124264e-01, 4.87124264e-01,
          0., 0., 4.27645557e-02, 4.87124264e-01, 4.87124264e-01,
          2.09708288e-01, 1.29669104e-02, 4.77134436e-01, 4.77134436e-01,
          1.73795387e-01, 1.98415592e-01, 4.77134436e-01, 4.77134436e-01,
          6.15071841e-02, 9.12439916e-03, 1.05666332e-01, 1.20860890e-01,
          4.04858328e-02, 4.12675381e-01, 4.12675381e-01, 3.16082388e-01,
          1.67982310e-01, 4.12675381e-01, 4.12675381e-01, 4.12675381e-01,
          4.00264800e-01, 3.21019977e-01, 4.02863473e-01, 4.02863473e-01,
          9.23877507e-02, 3.81742239e-01, 3.49989325e-01, 3.03148240e-01,
          1.98639885e-01, 4.95846093e-01, 4.95846093e-01, 2.46888511e-02,
          1.70006026e-02, 4.82304133e-02, 4.95846093e-01, 4.95846093e-01,
          7.20015168e-02, 5.64401038e-02, 9.67971981e-02, 2.46812418e-01,
          5.55015028e-01, 1.25443459e-01, 3.66039991e-01, 5.55015028e-01,
          3.97627831e-01, 1.60909817e-02, 0., 0., 3.97308677e-01,
          5.13777077e-01, 2.04574242e-01, 1.98911633e-02, 5.35514764e-02,
          5.13777077e-01, 5.13777077e-01, 2.38320616e-04, 5.10306768e-02,
          9.25804302e-02, 4.92828608e-01, 4.92828608e-01, 4.92828608e-01,
          4.92828608e-01, 1.04640670e-01, 0., 3.78498249e-02,
          3.89674678e-02, 9.88294836e-03, 5.59770465e-02, 1.20359994e-01,
          5.74106991e-01, 5.74106991e-01, 5.61643660e-01, 1.42240385e-03,
          1.96911674e-02, 0., 6.59235060e-01, 6.59235060e-01, 0.,
          1.33786537e-02, 3.42075706e-01, 8.32801685e-02, 1.03177279e-02,
          0., 0., 2.80065209e-01, 4.17314857e-01, 4.17314857e-01,
          4.17314857e-01, 4.17314857e-01, 4.17314857e-01, 2.15954050e-01,
          0. ]
      - [ 5.29783547e-01, 5.29783547e-01, 6.93031773e-02, 0., 0., 0., 0.,
          3.84570360e-01, 5.29783547e-01, 5.64307570e-01, 1.97575018e-01,
          0., 0., 0., 0., 0., 5.64307570e-01, 5.64307570e-01,
          6.66530013e-01, 2.74473071e-01, 0., 0., 0., 0., 0.,
          1.71714410e-01, 6.66530013e-01, 5.75685441e-01, 3.21978168e-03,
          0., 0., 0., 0., 0., 5.75685441e-01, 5.75685441e-01,
          3.54691416e-01, 3.54691416e-01, 3.54691416e-01, 3.54691416e-01,
          3.54691416e-01, 1.94054022e-01, 2.79566437e-01, 3.54691416e-01,
          3.54691416e-01, 4.62160587e-01, 4.62160587e-01, 1.94206670e-01,
          1.70296058e-01, 1.98601052e-01, 1.05064899e-01, 1.54324874e-01,
          4.62160587e-01, 4.62160587e-01, 4.50330406e-01, 4.50330406e-01,
          9.84659567e-02, 2.09370121e-01, 4.27450776e-01, 3.35965008e-01,
          1.37017012e-01, 1.38628080e-01, 4.50330406e-01, 2.70225614e-01,
          1.67727336e-01, 1.59547552e-01, 1.63727984e-01, 6.63065538e-02,
          2.27301702e-01, 5.11667430e-01, 5.11667430e-01, 5.11667430e-01,
          3.81920069e-01, 3.81920069e-01, 3.81920069e-01, 3.81920069e-01,
          3.81920069e-01, 3.81920069e-01, 3.46663833e-01, 1.61320604e-02,
          2.38925591e-02, 3.50794137e-01, 3.80303085e-01, 2.04997733e-01,
          3.80303085e-01, 3.80303085e-01, 3.80303085e-01, 3.51171762e-01,
          1.09679908e-01, 3.42413366e-01, 4.23482805e-01, 2.02210963e-01,
          1.03738867e-01, 4.23482805e-01, 4.23482805e-01, 4.23482805e-01,
          1.95510268e-01, 9.59481373e-02, 4.23482805e-01, 1.64779425e-01,
          1.95464626e-01, 1.45256341e-01, 4.77401502e-02, 5.15555680e-01,
          5.44709921e-01, 5.44709921e-01, 1.97687700e-01, 8.67602527e-02,
          6.66631982e-02, 3.14553380e-01, 4.70642000e-01, 4.70642000e-01,
          4.70642000e-01, 4.70642000e-01, 7.67761916e-02, 0.,
          1.10156345e-03, 3.14227492e-02, 3.80633920e-02, 1.59151126e-02,
          5.34971952e-01, 5.34971952e-01, 5.34971952e-01, 3.64809334e-01,
          1.71488486e-02, 1.79226452e-03, 0., 0., 0., 5.75562954e-01,
          5.75562954e-01, 5.75562954e-01, 4.28651180e-03, 1.57918986e-02,
          1.29085658e-02, 0., 0., 0., 1.85329979e-03, 6.99143052e-01,
          6.99143052e-01, 1.24111198e-01, 8.28839373e-04, 3.36056878e-03 ]
      - [ 6.36913955e-01, 6.36913955e-01, 4.24747825e-01, 0., 0.,
          6.49291603e-03, 3.10086496e-02, 0., 3.01305130e-02,
          5.33378720e-01, 5.33378720e-01, 9.70158353e-02, 4.27204780e-02,
          1.75944254e-01, 1.74816415e-01, 6.05107732e-02, 2.54517406e-01,
          5.33378720e-01, 4.63726908e-01, 5.16204983e-02, 8.50076526e-02,
          1.97199918e-02, 4.94149104e-02, 1.80761125e-02, 5.05588651e-01,
          5.05588651e-01, 5.05588651e-01, 3.49727646e-02, 0., 0., 0., 0.,
          0., 6.99253619e-01, 6.99253619e-01, 1.17836423e-01,
          4.27837551e-01, 4.63208258e-01, 4.63208258e-01, 4.63208258e-01,
          3.61003727e-01, 1.37051031e-01, 1.39771521e-01, 0., 0.,
          3.90390486e-01, 3.90390486e-01, 3.90390486e-01, 2.73374617e-01,
          3.90390486e-01, 3.90390486e-01, 3.90390486e-01, 6.61139935e-02,
          5.06634824e-02, 4.68402684e-01, 3.45414400e-01, 2.17995837e-01,
          4.26775701e-02, 5.61420657e-02, 3.40423316e-01, 4.68402684e-01,
          4.68402684e-01, 2.22314328e-01, 6.20404541e-01, 7.25653991e-02,
          0., 1.46937137e-03, 9.49723795e-02, 2.10294370e-02,
          2.67010182e-01, 3.71453553e-01, 6.20404541e-01, 4.54871029e-01,
          4.54871029e-01, 4.54871029e-01, 4.54871029e-01, 3.78766209e-01,
          6.23000786e-02, 2.06989720e-02, 0., 1.41605660e-01,
          4.53016520e-01, 4.53016520e-01, 4.53016520e-01, 1.41039431e-01,
          3.40876937e-01, 4.53016520e-01, 1.66768447e-01, 6.25962913e-02,
          8.22192580e-02, 4.85614508e-01, 2.23296970e-01, 1.67897679e-02,
          6.63738372e-03, 4.85614508e-01, 4.85614508e-01, 3.99464130e-01,
          9.82778072e-02, 2.61281252e-01, 4.48234707e-01, 3.85595486e-02,
          0., 3.80868614e-01, 4.56888020e-01, 4.56888020e-01,
          2.74519231e-02, 1.44846559e-01, 4.56888020e-01, 3.90711635e-01,
          4.32006985e-01, 4.32006985e-01, 4.32006985e-01, 3.49931687e-01,
          3.99533153e-01, 2.01019272e-02, 0., 2.56112386e-02,
          2.40053922e-01, 4.39636856e-01, 2.55507350e-01, 1.39178336e-01,
          4.87465709e-01, 6.34346366e-01, 1.34176150e-01, 2.49549757e-05,
          9.16957017e-03, 1.15157841e-02, 5.04461303e-03, 4.26522922e-03,
          0., 7.04181552e-01, 7.04181552e-01, 2.45911572e-02,
          2.07561316e-05, 2.11302582e-02, 0., 0., 0., 5.75688362e-01,
          5.75688362e-01, 5.75688362e-01, 2.87663279e-04, 0., 0. ]
      - [ 5.69760144e-01, 5.69760144e-01, 5.69760144e-01, 1.23550251e-01,
          4.31126496e-03, 0., 0., 0., 7.17470720e-02, 4.77146119e-01,
          4.77146119e-01, 1.38978049e-01, 6.94753528e-02, 5.03935032e-02,
          0., 2.40581572e-01, 4.77146119e-01, 4.77146119e-01,
          4.55076605e-01, 4.55076605e-01, 1.58733040e-01, 2.06592842e-03,
          6.26775669e-03, 0., 3.76611084e-01, 4.55076605e-01,
          4.55076605e-01, 4.15894389e-01, 1.85503051e-01, 3.90837230e-02,
          0., 0., 0., 4.33316112e-01, 5.46749532e-01, 5.46749532e-01,
          4.74721432e-01, 4.74721432e-01, 4.74721432e-01, 3.55286092e-01,
          1.41437784e-01, 2.32556928e-02, 9.49883461e-02, 3.50314915e-01,
          2.01643884e-01, 3.73218626e-01, 3.73218626e-01, 3.73218626e-01,
          3.73218626e-01, 3.73218626e-01, 3.41889299e-02, 3.73218626e-01,
          3.73218626e-01, 1.41624764e-01, 3.46509010e-01, 4.15708780e-01,
          4.15708780e-01, 1.00820445e-01, 3.90772372e-02, 4.22729366e-03,
          4.15708780e-01, 4.15708780e-01, 4.15708780e-01, 3.59058715e-02,
          1.58902943e-01, 1.08443804e-01, 2.37924643e-02, 1.40581476e-02,
          9.54492297e-03, 6.65493667e-01, 6.65493667e-01, 2.61607140e-01,
          7.75161237e-02, 5.23220479e-01, 5.23220479e-01, 5.84860817e-02,
          1.52255222e-02, 3.50933433e-01, 5.23220479e-01, 2.00718611e-01,
          1.98111311e-02, 6.02855310e-02, 2.21606299e-01, 4.24025059e-01,
          4.24025059e-01, 2.50771433e-01, 4.01653677e-01, 4.24025059e-01,
          4.20214117e-01, 5.32628559e-02, 2.45689541e-01, 2.50356883e-01,
          4.01198864e-01, 4.01198864e-01, 4.01198864e-01, 1.60053641e-01,
          3.13313246e-01, 4.01198864e-01, 3.24539304e-01, 2.07894365e-03,
          1.99435055e-02, 1.10163959e-02, 8.74455422e-02, 2.87720859e-01,
          4.40060824e-01, 5.93978226e-01, 5.93978226e-01, 6.19830824e-02,
          0., 3.87713045e-01, 4.31784630e-01, 4.31784630e-01,
          2.95941681e-01, 4.31784630e-01, 4.31784630e-01, 1.09690547e-01,
          0., 0., 5.81985600e-02, 3.34856808e-01, 4.46202099e-01,
          4.46202099e-01, 4.46202099e-01, 4.46202099e-01, 2.89208502e-01,
          0., 0., 2.16340297e-03, 4.19620834e-02, 6.67267621e-01,
          6.67267621e-01, 3.02511394e-01, 9.60895196e-02, 8.77401792e-03,
          1.60436407e-02, 0., 0., 0., 2.18241975e-01, 5.37009597e-01,
          5.37009597e-01, 5.37009597e-01, 2.85886705e-01, 1.17692212e-02 ]
      - [ 6.81402683e-01, 6.48611546e-01, 8.47000778e-02, 0., 0., 0., 0.,
          0., 3.17831665e-01, 6.10706985e-01, 6.10706985e-01, 0.,
          5.34498245e-02, 6.07475080e-02, 1.21617019e-01, 2.41051614e-01,
          0., 4.10527080e-01, 4.54047054e-01, 2.25475341e-01,
          4.65701558e-02, 4.54047054e-01, 1.63406134e-01, 2.13984236e-01,
          2.12910935e-01, 4.54047054e-01, 4.54047054e-01, 1.29601121e-01,
          2.09393799e-02, 4.52191830e-02, 3.69012654e-01, 1.93816691e-03,
          0., 2.82424744e-02, 6.47027433e-01, 6.47027433e-01,
          4.58230227e-01, 4.58230227e-01, 4.58230227e-01, 3.14631909e-02,
          1.30237743e-01, 4.58230227e-01, 3.68579954e-01, 6.36855746e-03,
          4.09840979e-02, 3.68134916e-01, 3.68134916e-01, 3.68134916e-01,
          3.68134916e-01, 3.68134916e-01, 3.68134916e-01, 3.68134916e-01,
          2.06282854e-01, 7.14592114e-02, 8.80499631e-02, 1.14540465e-01,
          3.95768553e-01, 4.25994009e-01, 1.39175043e-01, 4.09371465e-01,
          4.25994009e-01, 4.25994009e-01, 2.94740826e-01, 2.28393613e-03,
          1.54274195e-01, 4.41284031e-01, 4.41284031e-01, 5.81291877e-03,
          3.20560262e-02, 4.37948108e-01, 4.41284031e-01, 4.41284031e-01,
          6.92960573e-03, 4.92627770e-01, 4.92627770e-01, 6.77977726e-02,
          1.15378089e-01, 4.92627770e-01, 4.92627770e-01, 7.99635276e-02,
          6.80483761e-04, 4.69597476e-03, 5.44939935e-02, 4.75516319e-01,
          4.75516319e-01, 8.18226188e-02, 2.63272166e-01, 4.75516319e-01,
          4.75516319e-01, 1.08575121e-01, 3.85213941e-01, 3.85213941e-01,
          3.85213941e-01, 3.85213941e-01, 1.08386591e-01, 1.68309048e-01,
          2.56393284e-01, 3.85213941e-01, 3.85213941e-01, 3.17362309e-01,
          4.68820721e-01, 4.04138446e-01, 9.77385193e-02, 4.08355147e-02,
          4.68820721e-01, 4.68820721e-01, 2.35351130e-01, 7.26743415e-02,
          0., 2.98898190e-01, 4.52182502e-01, 2.75603563e-01,
          4.52182502e-01, 4.52182502e-01, 4.52182502e-01, 1.10950008e-01,
          0., 0., 8.58842283e-02, 5.66203535e-01, 5.66203535e-01,
          2.46094763e-01, 1.92820683e-01, 4.35075432e-01, 2.30500489e-01,
          7.50575587e-02, 2.69829035e-01, 9.93742049e-02, 1.27610832e-01,
          5.08820534e-01, 5.08820534e-01, 5.08820534e-01, 2.27077212e-02,
          1.66670531e-01, 3.01597685e-01, 1.62003681e-01, 1.55973434e-01,
          8.86961352e-04, 6.58395439e-02, 5.59030890e-01, 5.59030890e-01,
          5.59030890e-01, 2.40551736e-02, 3.71989869e-02 ]
      - [ 1.52025566e-01, 6.82409704e-01, 6.82409704e-01, 0., 0.,
          1.19558834e-02, 1.92071840e-01, 4.18681279e-03, 4.07171622e-02,
          3.58999938e-01, 4.21329349e-01, 2.82247454e-01, 0., 0.,
          3.11215550e-01, 4.21329349e-01, 4.21329349e-01, 3.97286087e-01,
          3.96101892e-01, 3.96101892e-01, 3.96101892e-01, 2.28830680e-01,
          0., 4.79498804e-02, 3.96101892e-01, 3.96101892e-01,
          3.96101892e-01, 4.39880461e-01, 3.34181130e-01, 4.39880461e-01,
          3.02291811e-01, 0., 0., 1.36269227e-01, 4.39880461e-01,
          4.39880461e-01, 2.64921016e-03, 6.69583261e-01, 6.69583261e-01,
          0., 0., 2.16921084e-02, 3.02763671e-01, 6.46497756e-02,
          1.75777059e-02, 4.28404182e-01, 4.28404182e-01, 4.00292546e-01,
          0., 2.27501374e-02, 1.81958735e-01, 4.28404182e-01,
          4.00086254e-01, 3.01994264e-01, 2.98568696e-01, 4.49528784e-01,
          4.21398371e-01, 1.93900406e-01, 1.10759567e-02, 2.06346102e-02,
          4.49528784e-01, 4.49528784e-01, 2.90544122e-01, 6.42170534e-02,
          4.54048723e-01, 4.54048723e-01, 3.72177422e-01, 2.43533356e-03,
          1.30397812e-01, 4.54048723e-01, 4.54048723e-01, 1.05708599e-01,
          1.15706399e-02, 6.83450401e-01, 6.83450401e-01, 2.09628075e-01,
          7.33136609e-02, 8.62208158e-02, 3.13646607e-02, 2.01750621e-02,
          2.62829736e-02, 2.98131704e-01, 2.86582172e-01, 3.93791944e-01,
          3.93791944e-01, 3.93791944e-01, 3.93791944e-01, 3.93791944e-01,
          1.45229250e-01, 1.69121638e-01, 3.53726774e-01, 3.53726774e-01,
          2.29716539e-01, 3.53726774e-01, 3.53726774e-01, 2.96818078e-01,
          3.53726774e-01, 3.53726774e-01, 3.23820055e-01, 3.08317959e-01,
          5.36504209e-01, 1.64017290e-01, 1.81794539e-02, 5.07065244e-02,
          5.36504209e-01, 5.36504209e-01, 6.98062181e-02, 3.73569764e-02,
          2.94990808e-04, 2.12914497e-01, 5.21003544e-01, 5.21003544e-01,
          5.21003544e-01, 3.67600441e-01, 0., 0., 1.91915547e-04,
          1.01221283e-03, 2.29526106e-02, 2.11742535e-01, 5.09839058e-01,
          5.77844262e-01, 5.77844262e-01, 1.45337150e-01, 0.,
          6.95149822e-04, 1.01790585e-01, 2.84515154e-02, 3.38534236e-01,
          5.33420861e-01, 5.33420861e-01, 5.33420861e-01, 9.22222361e-02,
          2.17901357e-02, 7.93945119e-02, 5.78501746e-02, 2.10124739e-02,
          6.86131651e-03, 1.08505212e-01, 5.70613503e-01, 5.70613503e-01,
          5.70613503e-01, 4.08529229e-02, 1.50110992e-02 ]
      - [ 6.98836386e-01, 6.98836386e-01, 9.04515833e-02, 0., 0., 0., 0.,
          0., 8.99884999e-02, 5.60692012e-01, 5.60692012e-01,
          1.29171205e-03, 2.40290575e-02, 8.05003121e-02, 3.01252287e-02,
          2.80001108e-02, 2.06211850e-01, 5.60692012e-01, 4.97140378e-01,
          7.30819181e-02, 0., 1.05981594e-02, 2.62464546e-02,
          1.72751695e-02, 4.97140378e-01, 4.97140378e-01, 4.97140378e-01,
          4.98753130e-01, 0., 0., 0., 0., 0., 4.98753130e-01,
          4.98753130e-01, 4.98753130e-01, 5.44464290e-01, 5.44464290e-01,
          2.78468609e-01, 2.45366115e-02, 6.83847889e-02, 5.44464290e-01,
          1.49703532e-01, 0., 2.04267399e-03, 3.83679360e-01,
          3.83679360e-01, 3.83679360e-01, 3.83679360e-01, 3.83679360e-01,
          3.83679360e-01, 3.07382047e-01, 1.11961976e-01, 7.67365471e-02,
          4.54444379e-01, 4.54444379e-01, 1.74049512e-01, 1.54189736e-01,
          1.25490159e-01, 2.52330363e-01, 4.54444379e-01, 4.54444379e-01,
          1.89462215e-01, 4.22794431e-01, 4.22794431e-01, 0., 0.,
          1.59472272e-01, 4.22794431e-01, 4.22794431e-01, 2.76711822e-01,
          4.22794431e-01, 9.47261155e-02, 4.56577063e-01, 4.56577063e-01,
          2.27950215e-01, 4.56577063e-01, 4.56577063e-01, 3.17256033e-01,
          0., 1.78212940e-03, 2.08787024e-01, 5.10024726e-01,
          5.10024726e-01, 8.34486261e-02, 1.75502896e-01, 5.10024726e-01,
          3.56069684e-01, 9.86114237e-03, 7.93155134e-02, 4.46029484e-01,
          4.46029484e-01, 3.19727629e-01, 1.48442378e-02, 1.44939125e-01,
          4.46029484e-01, 4.46029484e-01, 7.89970532e-02, 2.64729142e-01,
          3.57326388e-01, 3.07719439e-01, 0., 0., 5.28821290e-01,
          5.28821290e-01, 4.42584634e-01, 9.23692137e-02, 9.28887352e-02,
          4.07132089e-01, 5.04162371e-01, 5.04162371e-01, 7.46024475e-02,
          5.04162371e-01, 2.45688990e-01, 2.58111004e-02, 5.02871908e-03,
          7.00771762e-03, 5.27535379e-01, 5.27535379e-01, 2.99299419e-01,
          1.46999070e-02, 1.38839617e-01, 5.27535379e-01, 2.24679932e-01,
          8.45004246e-03, 1.50311058e-02, 8.16627741e-02, 3.58723640e-01,
          8.43108669e-02, 0., 4.46707904e-02, 6.50285125e-01,
          6.50285125e-01, 4.53012151e-04, 5.75395674e-02, 1.25718396e-02,
          2.06896253e-02, 0., 0., 4.64550197e-01, 6.42434299e-01,
